//Numpy array shape [64]
//Min -0.627882301807
//Max 0.448627799749
//Number of zeros 0

#ifndef B10_H_
#define B10_H_

#ifndef __SYNTHESIS__
conv1d_2_bias_t b10[64];
#else
conv1d_2_bias_t b10[64] = {-0.5620425344, 0.0062028412, -0.0209915172, 0.0362070240, 0.4336066246, 0.1000115871, 0.1751814932, 0.0110206017, -0.2103726268, -0.1152546629, 0.1315338314, -0.0107770143, -0.0178035423, -0.3052513599, -0.0509429537, 0.0529331900, 0.1950925738, 0.1642935127, 0.2931276262, -0.0071862354, -0.0040580695, 0.0485243388, -0.1988089830, -0.0384053327, -0.0644419789, 0.0939140618, 0.0749873668, 0.0792547315, -0.0984798148, 0.0055231215, -0.2075673789, -0.3136804104, -0.1457466334, 0.0241285767, 0.2245694250, -0.0933268592, -0.1872228682, -0.2247463614, -0.3767621815, -0.0911960751, 0.1339823902, 0.2120570540, -0.3101820350, -0.0638910756, -0.2402984500, -0.0869710594, -0.0869467631, 0.1074370965, 0.4486277997, 0.0295587573, -0.0911375657, 0.0867320970, 0.1998007894, 0.0428049006, -0.1833533496, 0.0286305305, 0.2067746073, -0.2124089748, -0.6278823018, 0.0803407431, -0.0426953658, 0.0403380506, -0.0080955420, -0.1713459492};

#endif

#endif
