//Numpy array shape [3, 32, 64]
//Min -1.088288664818
//Max 0.611934959888
//Number of zeros 0

#ifndef W10_H_
#define W10_H_

#ifndef __SYNTHESIS__
conv1d_2_weight_t w10[6144];
#else
conv1d_2_weight_t w10[6144] = {-0.1442168504, -0.0462539606, -0.0184644051, 0.0152987763, -0.2249299288, 0.0754599273, -0.0375883318, 0.1525786519, 0.0803668052, -0.1026785150, 0.0915814340, 0.1008052155, 0.1024795249, -0.0160528384, -0.0595058128, -0.0473724715, -0.0330460072, -0.1517443657, 0.0823676288, 0.0675362647, -0.3921218216, 0.0334373079, 0.0709844530, -0.0918307900, -0.0093106879, -0.1888534874, -0.0131067848, -0.1040638611, 0.0124784652, 0.2375987172, -0.1769808382, 0.0441534184, 0.0825676993, -0.1940906942, 0.0110147549, 0.0242706612, -0.2148165703, -0.0848411247, 0.1946302056, -0.1458424777, -0.0760615841, -0.0839220136, -0.0048446199, 0.0671065301, -0.0484812818, 0.0416425727, -0.2039004415, -0.0639631674, -0.0632093102, -0.0920042992, 0.0425100513, -0.1316415370, -0.0761566609, 0.1273368448, -0.0891426206, 0.0526244715, -0.1036971137, -0.0286901575, -0.2828961611, -0.1141804531, -0.0519728661, -0.1238130406, -0.0258964933, 0.0454911515, 0.0415646471, 0.0799501836, 0.0690866038, -0.0313905813, -0.0731538758, -0.2682553828, -0.1481139064, -0.1108920947, -0.0516752787, 0.0198378395, -0.0195932630, 0.1178515404, 0.1572251469, 0.0733123124, -0.1873929352, -0.0133715067, -0.1408389658, -0.0587848164, 0.0715684816, -0.1117402762, -0.0465599783, 0.0010036826, 0.0378511660, -0.0085965963, -0.0062752389, 0.0155321285, -0.0169405621, 0.0194503460, -0.0891643241, 0.0517159440, -0.0352494381, -0.0370440669, -0.0079972800, -0.4799390733, 0.0832420811, -0.0511500500, 0.0244655758, 0.0143772485, -0.0209879614, -0.1079824269, -0.4220635295, -0.1064314097, -0.1835949570, -0.0532410964, -0.0096066510, 0.0462102517, -0.1141609997, -0.1892292053, -0.2167301923, 0.0143680200, 0.2725092173, -0.2039876431, 0.0708706677, -0.1484554410, -0.0998423472, -0.0167615060, 0.0216651689, 0.1896010041, -0.1033474505, 0.0143142091, 0.0563678071, -0.1286472827, -0.1348634511, -0.0044577760, 0.0454050973, 0.0233908966, -0.0599213727, -0.1944106817, -0.0264554527, -0.0418999232, 0.2115012109, 0.1715214252, -0.0368904956, 0.0666384175, 0.1567021608, -0.1590476036, -0.0446645357, -0.0661367625, 0.3464567959, -0.0787795931, 0.1599092036, 0.1612073630, 0.0896170661, 0.1505186409, -0.0820368454, 0.1386053115, -0.2919805050, -0.0799171105, 0.0842100978, -0.0593657829, -0.4471978545, 0.0118527813, 0.0246110763, -0.0224512611, 0.4399965405, 0.3054769635, 0.0160353091, 0.1871772110, -0.0716435909, -0.1428945959, -0.0594011582, -0.0201464277, 0.1536710858, -0.1730955988, 0.1504522264, 0.1343121827, 0.1274745315, 0.1260178834, -0.0970013961, -0.2027557343, 0.2911459804, -0.3427253664, 0.1695546061, -0.1135810763, 0.1077818722, -0.0318365097, -0.2438290566, 0.0956781507, 0.1727781743, 0.1066987514, -0.0555082001, 0.1253851652, 0.0347557701, -0.3099657595, -0.2495735586, -0.2307416946, -0.3516498506, 0.0279252008, -0.0765072480, -0.0180194993, 0.1637491733, 0.0195563771, -0.0196245369, -0.3275015950, 0.1881870031, 0.0137153724, -0.0338418819, 0.0849294439, -0.0757991523, -0.1857480705, -0.1026980206, -0.0441931486, 0.2375910282, 0.1908475608, 0.2220810503, -0.0401075110, 0.0073319040, 0.2975183725, -0.0293486509, 0.0979106277, -0.0771982223, -0.0291828178, 0.0276589710, 0.0962646455, -0.5086582899, -0.3343059719, -0.0157948378, 0.1145577282, 0.0836859196, -0.0216550976, 0.1189076751, 0.2840421200, -0.0507890694, 0.1018834412, 0.0239083767, -0.0807618350, 0.0848596096, 0.1676421911, 0.1399866045, 0.0750931576, 0.1597135365, 0.1128656194, 0.0771074593, 0.1011431217, 0.1153019816, -0.4316074550, 0.0072243307, 0.0757500380, -0.0946691930, 0.0417214110, -0.4665201902, 0.2484700829, 0.1079393998, 0.1474740803, 0.0799911469, -0.0949649289, 0.0678328425, -0.5315207839, -0.1157742366, -0.0767780617, -0.3319474757, 0.0076944074, 0.0679665729, 0.0334857255, -0.0594363548, -0.3169435859, 0.1077005267, -0.1629150063, 0.1496598125, -0.0735718012, 0.1945686638, -0.0657510236, 0.1470284462, -0.0173317157, 0.1921667308, 0.0354034752, 0.1250727773, 0.2285343856, 0.0966457352, -0.0198512524, 0.1150353849, 0.0338764042, -0.1404092461, -0.1604233384, 0.1348893642, -0.2278616130, -0.0252117720, -0.0311033037, -0.0352996439, 0.0054404018, -0.0243307743, -0.2814346552, 0.0755224302, 0.0740012079, -0.0824675784, 0.0816158056, 0.1742892712, -0.1303749382, 0.0807988867, -0.1718058586, 0.0539490543, 0.0670617595, 0.1612232029, 0.0121911438, 0.0394743234, -0.0974412560, -0.1188247129, -0.0625394434, -0.0396150090, -0.0386815518, -0.3207008541, 0.1225289255, 0.1546984017, -0.2478333265, -0.0928963199, 0.2070468068, -0.2090454549, -0.0504093356, 0.0220434833, 0.1527799815, -0.0764830783, 0.1288663596, -0.0645259395, -0.0598671250, -0.1447626799, 0.0588308536, 0.0721354634, 0.0694444105, 0.0268475581, -0.0640434325, 0.0578859597, -0.0981829762, 0.1441104412, -0.0174767096, 0.2781673968, 0.0420885570, 0.0410112664, 0.0851928815, -0.1031464189, 0.0506283790, 0.1144199818, 0.0357581899, -0.0211098529, -0.1752912253, -0.1023788229, 0.0164183900, -0.6395344138, -0.0979846343, -0.1923672110, 0.0106972326, -0.0361676626, 0.0612557903, 0.0099451588, -0.0604551099, 0.1861267537, -0.0870490000, -0.0436108559, 0.1698995978, 0.1016347185, -0.0785944611, 0.0159909315, 0.0698544234, -0.2850475013, -0.0659703612, 0.0824711323, 0.0171272252, 0.1151850671, 0.1680234969, -0.1353411824, 0.2020695955, 0.1021431237, -0.1677978337, -0.1987766474, -0.2160579860, -0.1571450233, -0.1635572165, 0.0519706011, 0.0087253787, -0.1723361462, 0.0195713397, -0.2602874935, -0.0701854005, -0.0722112432, 0.0070324279, 0.0358359925, 0.0170170870, -0.0056759259, -0.2412290573, 0.1307842135, 0.1050123274, 0.1845633239, -0.0084309662, -0.2828755081, 0.0527997352, -0.1204862446, 0.2169798762, 0.0699688792, 0.1564662606, 0.3331423700, 0.0423471555, 0.1218434796, -0.0721802488, -0.2293378264, -0.4213232100, 0.1309968829, 0.0476715080, 0.0475042686, -0.7074245811, 0.1619628966, -0.1584506482, -0.3966037929, -0.0025155230, 0.1218403354, 0.1865131110, 0.0707668364, -0.3265607357, -0.0156241544, 0.0750849769, 0.2550627291, 0.1167184114, -0.2793442905, -0.0532823242, 0.0867450684, 0.1915007681, 0.0575150624, 0.1494531631, -0.1311837584, 0.1484811306, 0.1828687340, 0.0288060475, 0.1001765653, 0.2164169401, 0.1808716357, 0.0037664850, 0.2303889245, 0.1370791942, 0.1206398904, -0.0441222861, -0.0232652035, -0.1775242984, -0.3041265905, 0.0605145395, -0.0210387968, -0.0364319533, 0.0635956600, -0.1190132126, -0.2070676833, -0.0506073758, 0.2963925600, 0.0425235182, -0.1537468582, -0.0833548829, -0.0771992803, 0.0799557716, -0.1526472569, -0.0986096412, -0.1491720229, -0.0828454643, 0.0861545950, 0.1310460865, 0.0331681892, -0.1182845011, 0.0641958490, 0.2537522018, 0.2198567539, -0.2272806317, 0.2248520553, -0.3216077387, 0.0425070785, -0.1154532582, 0.0198882744, 0.0373360142, 0.0632675067, -0.0576663651, -0.0987019762, -0.0585126579, 0.2234441340, -0.0409775749, 0.0096120602, 0.0841248855, -0.0065897303, -0.0657553151, -0.0842771158, -0.0437663682, -0.1132565066, -0.0636201203, -0.0516192503, -0.0609811321, 0.0099528665, 0.2064917088, 0.0240568314, 0.0104218805, -0.0785327107, -0.2239748687, -0.0150610209, 0.0311627574, -0.1183133423, -0.0960015580, -0.1471311301, 0.1097752899, -0.0470994562, 0.0444848649, -0.3952657282, 0.1443572789, 0.2100787908, 0.0397366211, 0.1234415695, -0.0670552179, -0.0258240290, -0.0515591316, -0.0278335977, 0.0932430178, -0.1613196731, 0.0823566914, -0.3139348924, -0.1651207954, -0.1311943382, -0.1033385172, 0.1545454413, -0.0410368629, 0.1195753440, -0.1730515957, -0.0940781683, -0.0271175411, 0.0061707650, 0.1328085959, 0.0539713949, -0.2373397946, -0.0037294626, -0.0216528177, -0.0555979572, -0.1138657257, -0.0751193687, 0.1375167966, -0.1257776171, 0.0238814484, 0.0015046746, 0.0911306888, -0.2401235104, 0.0974943787, -0.1197076365, -0.0047440738, 0.1691516787, -0.0582032166, 0.0026350108, -0.0016368761, 0.0284219962, 0.2266679406, 0.0138805732, 0.0836693794, 0.0069220620, -0.1313502491, 0.1664332449, -0.0805831105, -0.3714346588, 0.0898898467, 0.1106458381, -0.0243359692, -0.0984403640, 0.0076565109, -0.1272649169, 0.0701987892, -0.2148101926, 0.0634892806, 0.0785750896, 0.1473246664, 0.0504917987, 0.1707199365, 0.0064192833, -0.1336489916, -0.0744190589, 0.0871628150, 0.1435591280, 0.0176919047, 0.0320740081, -0.1794757694, -0.0287310053, -0.1056601629, 0.0246752556, 0.0130592240, 0.0012218811, -0.0007321920, 0.0853793845, 0.0169306733, 0.0403873399, 0.1101450250, -0.1193650812, 0.1004835144, 0.0185437799, 0.0529118590, 0.0708179101, 0.0278456602, 0.1842186153, 0.0506801680, -0.1897841543, -0.1298675090, 0.0175532233, -0.0058969553, -0.0440425090, 0.0353983752, -0.1655533910, -0.0226627365, -0.5275124907, -0.0715831891, -0.2509928942, 0.0618605763, 0.0135811111, -0.0737370029, -0.1306756139, -0.1413702071, 0.0450187549, 0.1307346821, 0.0642078891, -0.1189929768, 0.0686255321, -0.1857004464, -0.0229639597, -0.0832990855, -0.3603969514, -0.0652062744, 0.0320640653, 0.1470134258, -0.0607086755, 0.0429327451, -0.2844521105, 0.0765297413, -0.0212783460, -0.0316230617, -0.0116697755, -0.0252076536, -0.0469520018, 0.0449898168, -0.1614980847, -0.0971913785, -0.0173942707, 0.1241148934, -0.2064092606, -0.0557840876, -0.1197744980, -0.0604183599, 0.0483964458, -0.1332847625, 0.0617517158, 0.0225641001, 0.1519488543, 0.0555357598, -0.0831682459, 0.0854147747, -0.1309911460, -0.0805946365, 0.2651444077, -0.1606872678, -0.0055310670, -0.0723037645, -0.0089874975, 0.1474695951, -0.1599166840, 0.0451816320, 0.2593038082, 0.0155320745, 0.0220105909, 0.0241152402, 0.0959675610, -0.1945267320, 0.2341713011, 0.1179210767, -0.1209912896, -0.1108438745, 0.2484257221, -0.0412367657, 0.0160340033, -0.2181760818, 0.0428222306, 0.1184543073, -0.1658012718, -0.1813283563, -0.0698496401, -0.0996406078, 0.2325343639, 0.0265915990, 0.2873769104, -0.0285250098, 0.0115123205, -0.1484567076, -0.0926714614, -0.0350603200, 0.1092245951, -0.1849510372, -0.0101683391, -0.2432422191, -0.1001470760, -0.0039334451, -0.0598731637, -0.0266663283, -0.3135812283, -0.1411141604, 0.0341911390, 0.0839774683, 0.0217963345, 0.0503503233, 0.0496240109, -0.1504442543, -0.0657061189, 0.2551979125, -0.1869964302, -0.2225423604, -0.0692851618, 0.0429908596, -0.0897373781, -0.0460547134, -0.0293801427, 0.0478470251, -0.0328736529, 0.0448301807, -0.1645494252, 0.2400749028, 0.1210935563, 0.3612048626, -0.3251203299, 0.1036934406, 0.1369036436, 0.0245894659, 0.1098588929, 0.0628774166, 0.1028183550, -0.5049202442, -0.0303939860, 0.1457306147, 0.2936376035, -0.0407206975, 0.0847816095, -0.0403457806, 0.0528907776, -0.0680951178, 0.0468884148, -0.1193855479, 0.0219386779, 0.0208649039, 0.2507281303, 0.3973119855, -0.1017968729, 0.2069746107, 0.0190520640, -0.0743613541, 0.1169523224, -0.0635538623, 0.0334695652, 0.2199036330, 0.2887800932, -0.2527111173, 0.0479200222, -0.0883923620, -0.1747073084, -0.0974307880, -0.1657707095, 0.1436755806, -0.1848571002, -0.0266031902, 0.1475440711, 0.1680542082, 0.0455415063, 0.1209408641, 0.1398178935, -0.3953079581, -0.2883164287, -0.2855241895, 0.0273123011, -0.1590518653, 0.0317648761, -0.0255936664, -0.0845731348, -0.1476789564, -0.1372186095, -0.0194035340, 0.0023235902, 0.1015783697, 0.0740835592, 0.2533325553, 0.2311787158, -0.3507862091, 0.2010854185, 0.1180514172, 0.1856201738, -0.0892446637, 0.3651214540, -0.3052700460, -0.1376380622, -0.0702999830, -0.0221138559, 0.0992342159, -0.0565898791, -0.2030074596, -0.1668497920, -0.0726829916, -0.0414798334, 0.0231964644, 0.0935222283, 0.1625082940, 0.0324712209, 0.0439189859, -0.0377189368, 0.0379692540, -0.1456535012, -0.2966063023, 0.0565175340, 0.0969584212, -0.2043824345, -0.0425748490, -0.1227523759, 0.2105309367, -0.0512712896, 0.6119349599, 0.2015854120, 0.1930226088, 0.0091607617, 0.0841771364, -0.1231221259, 0.0679530725, 0.1506390274, -0.3644493520, 0.0721543655, 0.1362943500, 0.2312256247, -0.0466849916, -0.0256815869, -0.0382159464, 0.0886162594, 0.1669568270, -0.0153163346, -0.0700424835, -0.0678995699, 0.1019564196, 0.0912510827, -0.2325341105, -0.1583451480, -0.1470091939, -0.2032224834, -0.0145752076, -0.0407274365, -0.1411057264, -0.1485051811, -0.0207767375, -0.0329917893, -0.0605414100, 0.0910603255, 0.1548187435, -0.0930990130, 0.1581470221, 0.1399721354, 0.1383698881, -0.1026661247, -0.2307915539, -0.0396567993, 0.0270491745, 0.1472420543, 0.0189859942, 0.1443521380, -0.1163691953, -0.1170426086, -0.2772616744, -0.0108308252, -0.1586822271, 0.0669809654, -0.0500907674, -0.0014442357, 0.1035935059, -0.0013697920, -0.0045328056, -0.3462913632, 0.0903153867, -0.0707955807, 0.0796416849, 0.2470040470, -0.0679008812, -0.1960645765, 0.0270123221, 0.0760249197, -0.0533636287, 0.2825408280, 0.0548767559, -0.3297731578, -0.1050390601, -0.1435973495, -0.0836808681, -0.0400899760, -0.0536580794, -0.0107048145, -0.1608738750, -0.2577694654, 0.0341204479, 0.0525045954, -0.1201807559, -0.2113934904, -0.1264827996, 0.0705033541, -0.0892576128, -0.0233363397, -0.1665383279, 0.0149815585, 0.1346006542, -0.0611754470, -0.0195747763, 0.0422174297, 0.1070377752, 0.3399764299, -0.1000176966, -0.0991852880, -0.1049063578, -0.2151676267, 0.0398541652, 0.1268791556, 0.0975274369, -0.0105063152, 0.0944794416, 0.1191882342, -0.1873412877, 0.1068640873, 0.0080031911, -0.4148519933, 0.1265877932, 0.0700855628, -0.1751675457, -0.0789220184, 0.0909784734, 0.0663142651, -0.0256846435, 0.0335099734, 0.0475302488, -0.0833198503, -0.1626028419, 0.0731266513, 0.0716267303, -0.0394412801, -0.0616337284, -0.0568217076, -0.5319835544, 0.0921158046, 0.0590714477, -0.1111328602, 0.0065809526, 0.0128676537, -0.0604615547, -0.1541926563, 0.1433120519, -0.2551014423, -0.1878455877, -0.0797054097, -0.3851268291, -0.2515951693, -0.2117066234, -0.0615563616, 0.1292958260, -0.0041354005, -0.1886194795, -0.0848786086, 0.0114790387, -0.0347978026, 0.1349566728, 0.0336873271, -0.0007825705, -0.0340621062, -0.0303870812, -0.1005215123, -0.2898150086, -0.1907615066, 0.0050392542, 0.0410497300, -0.0437903814, -0.0509916916, 0.0020045666, 0.1106555611, -0.0182573255, 0.1565329432, 0.0926701576, 0.0629258081, -0.2688967288, 0.0586475879, -0.1402463615, -0.2506577671, 0.0395414829, 0.0244948193, 0.2339248657, -0.1157238185, -0.0520145446, -0.1766480803, 0.0297591947, -0.2308449894, -0.1351020634, -0.3887197971, 0.0257984977, 0.0992786810, -0.0230639782, 0.1617358476, -0.2425961494, 0.0652525872, -0.1229017079, -0.2642750144, 0.0210946221, 0.0558273606, 0.0160326511, -0.0989237353, 0.1178851128, -0.2775130570, 0.0560839996, 0.0092686266, 0.0753953382, -0.0289866161, 0.1123501882, -0.3896885216, 0.0995320976, 0.1276976019, -0.0394680947, -0.1429712027, -0.0395773277, 0.0621333383, -0.0605617240, -0.1380575299, -0.0037537387, 0.1068988517, -0.0244770516, -0.1913455129, 0.0011867707, -0.0866867825, 0.0707096830, -0.1109661981, -0.0019138791, 0.1952943802, 0.0452185236, 0.0329548120, 0.0242650174, 0.1005527079, 0.0373583473, -0.1070888564, 0.0044776676, 0.2817965746, -0.0524859913, 0.0427663140, -0.1380007118, -0.2320792973, -0.1736204624, -0.0835462213, -0.1896217614, -0.2147225887, -0.0515670180, 0.1121200547, 0.1011346504, 0.0243621115, -0.1585942805, -0.2044539005, 0.0274779107, 0.1043719277, 0.0767677650, -0.0010288398, -0.0410235524, 0.0908871740, 0.0632272512, -0.0457323939, 0.0218241028, 0.0126153547, 0.2024326921, -0.0370244123, 0.0240380839, 0.1497316808, 0.0773012489, -0.2501769364, -0.0286100321, 0.0085515147, -0.0162158702, -0.0734625161, -0.0400761887, -0.0095521249, 0.0462453328, -0.0175710153, 0.3472875953, -0.0243156068, 0.1581571996, 0.0847649723, -0.0657848045, 0.3912882805, -0.0666016117, -0.1331347078, 0.2377561033, -0.0129113942, -0.0748297721, 0.0494746529, -0.1215100959, 0.1397627145, 0.1477928311, -0.1769609302, -0.1623245329, 0.0988027751, 0.0821269602, -0.1449830532, -0.0339021385, 0.0436126925, -0.0665633827, 0.0871277675, -0.1159321442, 0.1856433004, -0.1988069564, 0.2104618996, 0.1882993132, 0.3994892538, 0.0472687259, 0.2758879960, -0.3664546907, 0.1811565161, -0.2703553736, 0.2676016390, -0.1320760697, 0.0030823359, 0.0006919828, -0.0368847810, -0.1264755428, -0.2271709293, -0.0774695948, -0.0774682239, -0.1299308538, 0.1788264066, -0.3017928898, -0.1451081336, -0.0387496538, -0.2619051635, -0.1875611097, -0.2586257756, -0.0518710837, -0.1281488985, -0.0837774873, 0.1453138143, 0.0404559858, 0.0805885568, 0.2486113906, 0.4791444242, -0.1545915008, -0.0094959922, 0.2659896314, -0.1677847952, -0.1261924505, 0.1252759248, -0.2930648029, 0.0366795808, 0.1322556138, 0.1357994229, -0.2462160140, -0.2380558550, 0.0402328111, 0.1053666323, 0.1300304234, 0.0756719857, 0.0178423058, 0.1082251370, 0.2617524862, -0.0197397545, 0.0303191710, 0.0311109759, 0.1002628729, 0.1002669111, -0.0085565895, -0.0275482778, -0.0006738529, -0.0136509901, 0.1375673413, 0.0344784930, 0.0943491384, -0.0671146363, -0.2188126445, -0.2418121845, -0.1516705453, 0.1123737618, 0.0746167898, -0.0443009026, -0.0408146195, 0.1910775900, 0.0786643103, -0.0014283148, -0.0921145529, -0.0793992579, -0.0161280241, 0.0810781792, 0.1917966306, 0.0415030941, -0.1042010412, -0.0998927355, -0.0842617899, -0.1191060022, -0.1816294640, -0.2106540650, 0.0030950692, -0.0206178315, -0.2191456109, -0.1810392439, -0.0238933302, -0.1211792156, -0.2818729281, 0.1453263611, 0.0320909247, -0.0397909209, 0.0577662364, -0.0529399775, -0.1026388556, 0.0606525093, 0.4498911500, -0.0246807765, -0.0875788182, 0.0319174267, 0.0590052530, 0.2782809436, -0.0750993043, -0.1221525148, 0.2045433670, 0.1617952734, -0.1302049011, 0.1378027946, 0.1145726293, -0.1621203423, -0.2949438691, -0.1833925992, 0.0744484812, -0.1955988109, -0.0190533325, -0.1040118262, -0.0683200657, 0.0700617731, 0.0632135272, -0.0452308506, -0.4207259417, 0.0064799748, 0.0025515258, -0.0656419098, -0.0973822996, 0.2640448809, -0.0060282354, 0.2979490459, 0.0309946258, 0.0328939445, 0.1115836427, 0.1687579602, -0.0338807888, 0.0001470524, -0.1179743707, 0.2063115835, 0.1147161052, -0.2429433465, -0.0115066702, -0.0310091171, -0.0427233540, 0.0571347922, 0.1000003144, 0.0846586302, 0.0415749736, 0.0898558125, -0.2113310844, -0.0536831506, -0.0383442789, 0.2583144903, 0.0806886405, 0.3228743374, -0.1252427846, 0.0287564471, -0.1870202124, -0.2381581813, -0.1553896219, -0.0308726132, -0.1795663834, -0.0649188906, -0.1988373101, 0.0114487521, -0.0263685212, -0.3089715242, -0.0965070948, -0.1560245901, 0.2304814011, 0.2233074754, -0.1744779944, -0.0147496341, 0.0949899554, -0.0482035726, -0.1358661652, -0.2291115522, 0.0306862388, -0.1538818777, 0.1477060169, -0.0535953715, -0.4273882806, -0.1784689873, 0.0838012546, 0.2357905805, 0.0539844669, -0.0490864329, -0.1051259786, 0.0181017295, -0.1035999358, 0.1798892468, 0.1447266191, 0.0217238646, 0.0410364754, -0.0345182829, 0.0015369577, -0.0930957049, 0.1569242626, -0.0282014757, 0.1523661762, -0.0493731312, 0.0674080551, -0.0084261792, 0.0209250394, -0.0738094002, 0.1344160140, -0.2750121355, -0.1689281166, -0.0323256068, 0.0464101806, 0.1096078604, -0.1572837532, 0.0193558056, 0.0301089305, -0.0461158305, 0.2161117941, 0.2192781121, -0.1876377165, 0.0547184907, -0.1057153791, -0.2716794312, -0.1327955425, 0.1684099585, 0.1316206455, 0.0958454236, 0.0794831142, -0.0654049441, -0.0110578807, 0.0013564825, -0.0181199312, -0.0576728992, -0.0613481924, 0.0128376456, -0.0644522309, -0.1312838942, -0.1222646236, -0.1144193634, 0.0729113892, -0.2408652008, -0.0660705566, -0.0808576047, -0.0327533707, -0.1549025774, -0.0942797586, -0.0823777318, -0.0159043968, 0.1434539407, 0.0809292421, -0.0673872009, 0.0470167659, -0.1471518576, 0.0871297419, 0.4300057888, -0.1678192616, 0.1092863381, -0.0441621915, 0.2114021778, 0.0115638953, 0.2986638546, -0.0045306003, -0.1375226974, -0.0278615952, -0.1233333796, -0.3285705447, 0.0137840044, -0.0077521419, 0.3093608618, -0.0119372178, -0.3794151843, -0.0374518633, -0.0815670341, 0.3594672978, 0.0447836220, 0.1517922580, 0.1062122211, 0.2492296100, 0.1631859839, -0.5430380702, -0.3873986602, -0.1368170083, 0.1425412148, -0.0228187572, -0.0310864095, 0.1445095092, -0.1224161386, 0.2211565673, -0.2745786011, 0.2438468635, -0.0042279726, 0.0289847385, -0.1376402080, -0.1637582779, 0.5715870261, -0.0575383864, -0.0401975475, 0.0699336529, 0.1666432619, -0.0724177733, -0.1197043359, 0.1665055305, 0.0183746703, -0.1024918705, 0.0960497633, -0.0449132696, -0.0027443003, 0.3023456037, 0.0033289960, -0.0767958090, 0.0078260768, -0.0189473536, 0.0324797295, 0.0017395795, 0.0916774720, -0.1083778441, -0.0690889508, 0.2061850131, 0.1156893298, -0.2952840030, -0.1405286193, 0.0964542404, 0.0224822462, -0.0434446782, -0.0556750372, 0.2568130493, -0.0738738850, 0.1470382810, 0.0791452974, -0.0968233570, -0.1842508465, 0.0139175737, -0.0466828533, -0.4442057610, 0.1216855049, -0.0818886831, 0.0876743793, 0.1490672231, 0.0401960984, -0.1940325201, -0.0893418565, -0.1176513135, 0.0832425505, 0.0293191448, -0.0808686987, -0.0382960252, 0.1827719063, -0.0074716825, -0.3195738792, -0.4851560295, 0.0595431067, 0.1683057100, 0.0628747866, -0.1249378771, -0.2013559937, -0.4179691672, 0.0244209059, -0.0469448455, 0.1389212012, -0.0356905721, 0.0160279386, 0.1214918643, -0.3744875193, -0.1058898270, 0.1530161053, 0.2005454302, -0.1578379869, -0.4430395961, -0.4036158323, -0.0537622683, -0.0164337978, 0.1219196543, 0.0647285432, -0.1950436085, -0.1146404147, -0.0823436007, 0.1196303219, 0.0177644007, 0.0259581320, -0.0020496487, -0.1586175263, -0.1574115902, -0.0766530484, -0.0597190000, 0.1712034643, 0.0008149081, 0.0781012177, -0.1406866610, 0.0740599111, 0.1311302185, -0.0915725380, -0.0737284869, -0.0389279686, 0.0725192428, 0.0711192489, -0.1027204618, 0.0502640866, 0.0418658331, -0.1369297802, 0.1158221588, -0.0628214180, 0.1072700694, 0.0235485565, 0.1565950811, -0.0066122836, 0.0558566488, 0.2261947244, -0.1246728301, -0.0926887915, -0.2818554044, 0.2505548894, -0.0579147302, -0.0090724397, 0.0371348150, 0.0397806540, 0.0868360624, -0.0940639675, 0.1361315548, -0.0604424812, 0.1138562039, -0.0090695135, -0.0192859136, 0.2246484160, -0.0625413880, -0.1580551416, -0.1082710251, -0.0492558740, -0.1516909301, -0.1673114747, 0.0258960761, -0.0240133386, 0.1064504310, -0.0535599329, -0.2221037447, 0.0635544285, 0.0805113539, -0.0928395092, -0.1392091960, -0.0826008245, -0.2138706148, -0.0954858437, 0.0437467024, -0.1485600621, 0.0314337313, -0.0562624857, 0.0680398643, 0.2759090960, -0.0911940113, 0.0028671706, 0.0552441105, 0.0368643850, 0.0665256903, 0.0801653564, 0.0539475568, 0.1179047525, -0.2267302871, -0.0647547320, -0.0216158722, 0.0951358527, 0.0048239892, 0.1257433593, 0.0159699004, -0.0187322665, -0.1193227619, 0.0550147705, -0.1069554538, -0.0661743358, -0.1297034919, -0.1495314389, 0.0489318557, 0.1237571314, 0.0358592421, -0.3567702472, 0.0699491277, 0.1159584448, 0.0506732091, 0.0526477881, -0.1129849404, -0.0658452138, -0.0316672586, -0.0767269433, 0.0110226721, 0.2206200361, 0.0159233790, -0.1704512984, 0.0005407921, -0.1699192375, 0.0991214067, -0.0916852504, 0.0600447580, 0.0050587193, 0.0837949142, -0.0749113709, -0.0215798579, 0.0899378285, -0.0489669405, -0.1850657612, -0.1924738884, 0.0551343299, -0.0530170687, -0.2177116424, -0.0023547304, -0.2338685691, 0.0960298553, 0.0633550808, -0.1096668243, -0.1713976711, -0.0312857330, -0.1317836046, -0.0329051018, 0.4435057640, 0.1731736511, 0.1283209473, -0.0713816285, -0.0849654526, -0.0875025913, 0.0827760696, -0.2992359996, 0.0924255922, -0.0443670042, 0.1247871965, 0.1386635602, 0.0568938442, -0.2060686350, 0.0179963931, 0.0180959012, 0.1558766663, 0.0778563917, 0.1949751079, 0.0031072826, -0.0199034177, -0.0470631607, 0.0599543601, 0.0585724823, -0.1433677822, -0.0131406216, -0.1507793367, 0.0427284651, -0.0593885183, 0.0999349952, 0.0382901989, -0.1615682989, 0.0880244300, -0.0743755177, -0.1338120997, -0.0129443416, 0.0864523798, -0.2135732323, -0.1328737140, 0.2609506845, -0.2037932426, -0.0002226702, 0.0238980092, 0.0196594428, 0.0563588887, -0.0801044554, 0.2307091653, 0.0718810633, -0.0825493634, 0.0262796264, 0.1172077805, 0.0821964815, -0.0049966956, -0.0015733790, -0.2756389081, 0.0732643753, -0.2405175567, -0.0043152105, -0.1208707243, -0.0270737130, -0.0088424422, 0.1493323147, 0.1281618774, -0.2827945054, -0.0844499171, -0.0659301057, 0.1512811929, 0.3025531471, -0.1310478300, -0.0169282537, 0.0736274570, -0.0167689286, -0.1137489527, -0.0428115167, -0.0493534021, -0.0970155150, 0.0301416740, -0.0199877415, 0.1153579205, 0.0107125072, -0.2017209083, -0.0937247351, -0.5303740501, -0.2050244212, 0.0634891987, 0.1477152407, -0.0002674096, -0.1594774574, -0.0096064424, -0.0067093167, -0.0176384170, 0.0355424583, 0.2728371024, -0.0420077853, 0.0605295077, 0.1339974254, -0.4616772234, -0.1874103695, -0.0578800142, 0.0348731577, -0.0986165404, -0.0497524105, -0.2919178009, 0.0760439336, -0.1249588877, 0.0812968090, 0.0333310887, 0.0015317401, 0.2376983613, -0.0110518588, -0.2438408732, 0.0859402269, -0.0419612005, -0.1033691540, -0.0516263917, 0.0760895982, 0.1044268981, -0.0440606996, -0.0611653142, 0.0323967412, 0.2580033541, -0.0415701307, 0.0276915953, 0.0063962727, -0.0695459098, -0.1788505018, -0.0844092667, -0.0015785210, 0.2027418017, 0.1321605295, 0.2386277914, -0.0864251852, 0.1422710568, 0.0213534776, 0.0879518390, -0.0345151015, 0.0825297236, -0.0579144061, 0.0508451499, 0.0866543725, 0.1359800696, 0.0534836017, 0.0458771028, -0.0493882932, 0.0401509367, -0.0040263077, -0.0465937704, 0.1464476734, 0.0047402233, 0.0474677905, -0.1305059344, 0.0208890848, -0.2043267041, 0.0339742117, -0.2567422390, 0.0451391824, 0.0612885170, 0.1551843286, -0.0463987812, 0.0413165949, -0.0396863855, -0.0627291501, -0.2139910907, 0.1787858009, 0.2575613260, -0.0737733617, 0.1343358159, 0.1727889329, 0.1904617846, -0.0248058550, 0.0941187069, 0.0270693358, 0.2014505267, -0.1020555422, -0.2530207932, 0.0305400845, 0.0853630900, 0.0069252057, -0.2239423692, 0.1275348812, -0.0645543635, 0.0785145089, -0.0762238055, 0.0246307068, -0.0300777983, 0.1269061565, -0.0483509004, -0.0339477919, -0.0703351200, 0.0664271712, -0.0194563996, 0.1217573807, 0.0876914635, -0.1181046516, 0.1236588135, 0.0918295160, 0.2020729482, 0.0213724859, 0.0154920062, -0.2635025084, -0.2662723362, 0.0274739619, 0.0667017177, 0.2338305414, 0.0160334148, -0.0994000137, -0.0408454947, -0.0585886464, -0.3007926047, 0.0528014414, -0.1333034784, 0.1893399805, -0.0286571700, 0.1627603471, 0.0493991151, 0.0163093340, 0.1471073180, -0.1068188250, 0.0350659676, 0.0691117942, 0.2266833335, -0.0220353901, -0.0148744816, -0.0271042846, -0.3441075385, 0.0169214513, -0.1196983084, 0.1830788255, -0.0174757820, 0.0318274982, -0.1724590659, 0.1793663800, 0.1644382626, -0.0644163191, -0.0771322623, 0.0557541996, 0.0393528752, -0.0311713256, -0.2050799429, -0.1074880511, -0.1476657689, 0.0593723617, -0.1383709908, 0.0462354347, 0.0860322043, -0.0268036686, -0.0566334836, -0.1079486907, -0.0280898735, -0.0518893674, 0.1494508982, 0.1716157049, -0.0475220978, -0.1076669469, 0.0471346937, 0.0539071634, -0.0735967085, -0.4287406206, -0.3820885122, -0.0878855363, 0.0801787302, -0.0894325301, 0.0392381623, 0.1729830652, -0.0228220597, 0.1135732457, 0.0174574722, -0.0023251621, -0.2886119187, -0.1070261449, 0.1073775440, -0.1384334117, -0.2261061072, 0.0672219619, 0.0528220721, 0.0134922760, 0.0722387508, -0.0483512320, -0.2528606355, 0.1101233810, 0.0196627695, 0.1112073213, -0.1544725150, -0.1770449132, -0.0348316804, -0.4485961199, -0.0005242744, -0.0429683924, 0.0668934658, 0.0022131416, 0.1539181173, -0.0357624739, -0.4441990256, 0.0812298581, -0.3585486710, -0.0770602450, 0.0660484359, -0.0941707715, -0.5215272307, -0.4435867965, -0.1663829088, 0.2638515234, 0.0613298863, -0.1246340349, 0.1181728840, -0.0948298052, -0.0927376747, 0.1146251559, 0.0368258320, -0.0641193613, -0.0488126241, -0.1303965449, -0.2899099588, -0.1034821793, -0.1268191636, -0.0169220921, -0.0917324349, -0.0212484729, 0.0320030265, 0.0332256928, 0.1449810416, -0.0894651636, 0.1747435033, 0.3539534211, -0.0952353701, -0.2297041863, -0.0359990336, -0.5054026246, 0.0530967340, -0.1324755102, -0.1629022807, -0.0963988379, -0.0591160059, 0.1556629241, 0.1714204103, -0.1452833116, 0.1578537077, 0.0629410818, -0.1402925402, -0.1513263881, 0.1232830808, -0.0127961803, 0.0056710592, -0.1394650340, 0.1200908050, 0.1090917438, -0.3064419627, -0.0680508539, -0.5264859200, -0.1015041843, 0.0091104507, -0.0665211007, -0.0133860763, 0.3893807232, 0.3665520549, -0.1216373071, -0.0572568178, -0.1799888909, -0.0867552385, -0.0067148278, -0.1018534824, -0.4368645251, 0.0873952359, 0.0504313409, 0.2608692050, -0.0666432232, -0.1334453821, 0.1570504457, 0.0808812007, -0.0694704205, -0.0241470840, 0.0028868371, 0.0467282161, -0.1030520424, -0.0156251863, -0.0347748548, 0.0325467587, 0.1562807113, 0.0054965443, -0.0596092418, -0.0444292463, -0.0233461149, -0.2913829386, -0.4162629247, 0.0241910387, -0.0924656466, 0.1116328016, 0.3979188502, -0.4019122124, -0.2031061202, -0.1380111277, -0.0243556872, -0.1801513284, -0.0745923668, -0.1193704233, 0.1501803398, 0.1093556732, 0.0445648618, 0.3997672200, 0.0037228246, -0.1603732556, 0.1094089821, 0.2371270210, -0.2247103155, 0.2293860912, -0.0120282536, -0.0665882006, 0.0501339324, 0.4206859469, 0.2445995510, -0.2612174153, -0.0124522988, 0.1403225362, 0.0673198029, 0.0957386717, -0.1096206605, -0.0441042781, -0.0371869877, -0.0030488817, -0.3816897273, 0.1343373060, 0.0189547744, 0.0563807338, -0.1584686339, -0.1808319688, 0.0854562819, -0.2843286693, -0.0614293329, 0.1629689932, -0.1217270568, 0.1215752363, 0.1315720975, -0.0374524333, -0.0965923667, 0.0136996284, 0.2110536844, -0.2019054145, 0.1927576363, -0.0282297358, 0.2095840126, -0.2029528469, -0.3335865140, -0.2217947096, 0.0193038750, 0.1222055927, -0.1490600258, -0.1570944041, 0.0388534851, -0.2373501509, -0.0938074440, -0.0974852741, 0.0509301610, 0.0025964966, -0.1905030310, -0.0941251144, 0.0971297473, 0.0496893339, -0.2248398513, -0.0856689587, 0.0539299548, -0.1006375551, 0.0040638079, 0.0979046375, -0.1646447182, -0.0814238265, -0.2805292904, -0.2171198875, -0.1160927713, -0.1261297911, -0.0962031707, -0.0837491676, -0.0241260361, 0.2748849988, 0.2244625986, -0.1402420849, 0.0419567674, -0.0187260490, -0.1052414030, -0.0563543104, 0.1724077165, -0.0457120463, 0.0787504986, 0.0614097789, 0.0594313964, -0.0242050160, 0.0174134020, -0.1945367008, 0.0403271206, 0.0650741383, 0.0254775658, -0.4188237488, -0.0764865801, -0.1008958071, -0.1412074864, 0.0008468200, -0.0808540434, -0.1203453839, 0.1320161223, -0.0287532620, 0.1220527440, -0.0547744893, -0.0199325979, 0.0619524717, 0.0601079352, -0.0708042532, -0.0189819578, 0.0430643223, -0.2290629447, 0.1374458224, -0.2984430790, -0.0090708062, -0.0422268882, -0.0913842171, -0.1401982307, -0.1912909299, -0.1406371593, 0.0402064361, -0.1730464548, 0.1018497348, -0.0438895300, 0.0466119535, 0.3723603785, -0.1285493225, -0.0215462856, -0.0042286790, -0.3345557749, -0.0412847325, -0.1012470424, -0.2754188180, 0.0092457794, 0.1406780332, 0.0431441292, -0.1402145177, -0.5044546127, -0.2414067537, 0.0985539630, -0.0954081044, -0.0388210602, 0.0648937821, -0.3834395409, 0.0153033901, -0.3793172836, 0.1253613681, 0.0699996948, -0.0673005953, -0.1020876318, -0.0276983250, -0.0567811765, -0.0690555349, -0.0434090309, -0.0620813631, -0.0294358768, 0.0228430871, -0.1272792667, -0.2487989962, -0.2031570822, -0.0898675621, 0.0501544066, 0.1258217692, 0.0341602676, 0.0494906195, -0.1383193284, -0.0246591531, 0.0340012275, -0.3749514222, 0.1193550676, -0.0510676987, -0.2503340840, 0.0972415432, 0.1857864857, -0.1903726608, -0.0475454032, -0.1342214048, 0.3239694238, 0.2534552515, -0.0147162853, 0.0703635141, 0.0515516847, 0.0552908741, 0.1569559425, 0.1106755808, -0.0765169114, 0.2064897269, -0.0558896475, -0.0586599819, -0.1209726706, 0.0644693300, -0.0046287910, 0.1192753464, -0.3437078595, 0.0643206537, 0.3084825575, -0.0058895610, -0.0451150425, -0.0523189381, -0.0077577746, 0.1554370821, -0.5810690522, -0.4841009676, -0.0626560003, 0.1023157090, -0.0608516857, 0.0599727221, 0.0123699540, 0.1997496188, 0.0901172757, 0.2321664542, 0.0563121624, -0.0902301297, 0.1028522626, 0.0920931548, 0.0899494067, 0.1848629117, 0.2999443114, -0.0774927661, 0.0792432651, 0.1303613186, 0.0990131274, 0.1817589998, -0.2856655121, 0.1547801197, -0.1157733351, -0.2147477716, 0.0191785954, 0.0742044598, 0.0211096704, 0.1746752709, -0.1293782592, -0.4191971123, 0.0173071250, 0.2422541082, -0.3975444734, 0.2255582809, -0.0378867090, -0.3999407291, 0.0942086503, -0.1352858245, -0.0935055092, -0.1572653949, 0.0094889272, 0.0438837260, -0.4132373333, 0.0901697949, 0.0506144986, -0.0457865223, -0.0104561541, 0.0373461470, -0.2440799177, -0.2052034885, -0.1806595623, 0.2738105655, 0.1623736173, 0.1572353393, -0.3929323554, -0.0254940111, 0.0441395231, 0.0947697982, 0.0813515484, -0.1127840802, -0.0102435630, 0.0406058170, -0.5121331215, -0.5799218416, -0.2429847717, 0.1390339881, 0.0111049088, 0.1759587377, 0.3407101631, 0.0569424108, 0.0387864411, 0.0324767530, -0.0351911597, 0.0128408037, -0.1620075405, -0.0829924271, 0.0189451184, 0.2930010259, 0.1808563471, -0.0208735615, 0.1608897448, -0.1062175557, 0.0533814579, 0.0449390933, -0.5261184573, -0.0258750282, 0.0016035696, -0.0404620767, 0.0195397306, -0.0066605122, 0.1223041117, 0.2490873039, -0.4586654603, -0.3821480870, -0.0716277733, 0.0296819378, -0.4713587165, -0.2854344249, 0.0477115139, -0.4038503468, 0.0617563240, -0.0786053166, -0.1342433244, -0.2500304282, -0.0005461352, -0.0320935510, -0.2048655003, 0.0990402326, -0.0490948930, 0.3003876507, 0.0878147483, 0.3287936449, -0.1722223014, 0.2124673277, -0.0353342220, 0.1237741411, 0.1318150908, 0.1663497388, -0.1030240431, 0.1194190606, 0.1400237083, -0.2198292613, -0.2138995528, -0.1345677078, 0.2164452225, -0.0692913607, -0.1647954881, -0.0239131525, 0.0518603623, -0.0608070046, -0.2540475428, -0.2136733234, -0.1558362544, -0.0285697412, -0.2203470320, 0.3395141959, 0.1028451100, -0.1058546603, -0.0628733411, 0.0878595859, 0.0400117971, 0.1022306457, 0.0160335489, -0.1400673836, -0.1842299700, 0.2856938839, -0.0186248478, -0.0521344431, 0.1311319917, -0.2796349525, 0.0795529187, 0.0505168922, -0.1193669140, 0.1129219905, 0.1222726181, -0.0743617639, 0.1008975506, -0.1404016465, 0.0942516029, -0.1349021345, 0.0974166393, -0.1219073012, 0.1847072095, -0.0095362635, -0.0703150257, 0.0309551433, -0.1597776562, 0.0281983558, 0.1520928144, -0.1470812410, -0.0389879681, 0.1596128643, -0.0821266919, 0.1382403076, -0.0034743419, -0.1503754407, -0.0629078224, -0.1853137761, -0.0989993513, 0.0842638016, 0.1884441227, 0.1402364969, 0.0091955904, 0.0833061561, -0.0089771831, -0.3230366111, -0.0324051641, -0.1006880999, 0.1723812371, -0.1740940809, 0.0460618138, 0.2058069706, -0.1221396178, 0.2375643104, -0.0527665578, 0.0406143069, -0.0115985014, 0.1728032082, -0.0604978390, -0.0524064898, 0.0262990557, 0.0750875100, -0.1028572768, -0.0825184658, 0.0189705100, 0.1062765270, 0.0882584006, -0.0274397843, 0.0075927791, 0.2202555686, -0.1031861007, 0.0056776651, 0.1181395426, -0.1765212715, -0.2151893377, -0.0125951413, -0.1328149587, -0.1278131753, 0.0265820101, -0.0421033464, -0.1914348304, -0.1478773206, 0.0864720345, 0.2338398993, -0.0036179358, -0.1671943963, -0.0744533092, 0.0342997536, -0.1486081928, 0.0487502255, -0.0349638388, 0.1780381054, 0.0037552265, -0.0331840515, -0.2142882943, 0.1625151783, 0.1413034946, 0.0817156807, 0.2050493062, 0.0080959955, -0.0491961576, 0.0706921145, 0.0557742380, 0.0926093385, 0.0478785373, 0.0926939547, -0.1957593113, 0.0535769016, 0.0031553512, -0.0593646765, -0.5781167150, -0.2664621472, -0.0287873410, -0.0169012882, -0.1252158433, 0.0040896377, -0.1625290662, 0.1247294024, 0.1150204614, 0.0185220111, 0.0852684155, 0.0044155265, -0.0534483306, 0.2605839670, 0.1643227041, 0.0465577096, 0.0994189158, 0.1121669859, -0.0569652431, -0.0392581038, -0.0539235324, -0.0019674294, -0.1363439113, -0.0240251962, -0.1423705220, 0.0026166788, 0.0422486179, -0.0690667778, -0.1340076923, 0.1741021872, -0.1250160187, -0.2329494804, 0.0360930339, -0.1125969291, 0.0521130860, -0.0588714518, 0.0068561709, -0.0154959317, 0.0707613826, 0.2519766092, 0.1372344643, -0.0034558040, -1.0882886648, -0.0253787357, -0.0815725178, -0.1116959378, -0.0166680887, 0.0192020051, -0.0524228290, -0.0141954739, -0.1403858662, 0.0313524231, 0.0932871550, 0.1987308711, -0.1007637009, 0.3132014275, 0.2442888170, 0.0607892983, -0.1964389533, 0.0911814570, -0.0827777609, 0.0300800856, 0.0475143641, -0.3262290359, 0.0378371589, 0.0306222364, 0.0031103904, -0.1182359979, -0.0387752689, 0.0064742733, -0.0073637892, -0.0684511513, -0.0107236188, -0.0204277579, -0.1285635978, 0.0470806547, -0.1330182105, 0.0487599038, 0.2562885284, -0.1189262718, -0.0300194919, -0.1016871706, -0.1577761769, 0.0866337270, -0.0004368558, 0.0284133498, -0.3169935942, -0.0379721969, 0.1131956950, -0.1162772477, -0.1818955839, -0.1962728202, -0.0536955707, 0.2293228507, -0.0848562419, 0.0218482409, 0.0526296981, -0.1522337496, 0.0026232484, -0.1048933193, 0.4139060080, -0.2332986444, -0.0044688880, -0.0294061527, 0.0038892908, -0.1205882654, -0.0574779958, -0.1436402947, -0.2229359299, 0.1866699010, 0.1907572150, -0.0671318546, 0.1031183526, 0.1139471233, 0.1957824826, -0.1737894863, -0.1411846876, 0.1329289526, 0.0523794442, -0.0412913151, -0.3947368264, -0.0212055929, 0.3110863268, -0.0405037701, -0.0997923836, -0.0304237250, -0.1134750918, -0.2372216284, 0.0580649748, -0.1526939720, 0.1760239154, -0.1139947325, -0.1700810939, 0.0579215959, 0.0643003732, 0.1093293428, 0.1737464070, 0.0047155274, -0.0473850816, 0.0171292108, -0.2036935985, 0.0576073416, 0.0179527085, -0.0892303959, 0.2154498249, 0.1370363832, 0.0917414948, 0.0041300813, -0.0262674503, -0.1382046044, 0.1338385344, 0.1067225039, -0.1671344936, -0.0914260522, -0.0007289270, -0.0183481053, 0.0212954916, -0.0910894349, 0.1209196821, -0.0890191942, 0.0373814814, -0.0266879834, 0.0059112832, 0.1308748275, 0.0487079285, 0.3624986112, -0.0917413980, 0.0352272317, 0.1774085760, 0.0889983773, -0.0946508422, 0.0906405523, -0.1303811818, 0.0886161476, 0.2175032645, -0.0846107006, 0.1182463244, -0.0167838521, 0.1370776296, 0.0525011942, -0.0193475671, 0.1421347708, -0.0071382695, -0.0388053209, -0.1440426558, 0.0108246338, 0.0206188951, 0.0289248042, 0.1343879551, 0.0040681683, -0.0014288339, -0.1034351811, 0.0428032354, -0.2605010867, 0.2240993381, -0.1187260672, 0.0582917258, 0.0216709506, -0.0472410321, 0.2682707906, 0.0284867808, 0.2113004029, -0.0444881544, 0.0208098963, -0.1422375292, 0.0081003467, -0.0115436567, -0.0508091934, 0.0195378568, 0.0108364485, 0.0944205746, 0.0704418272, 0.1421335340, -0.0895668119, -0.0628082305, 0.0464374535, -0.0607878566, -0.0641333610, -0.1482626498, -0.0315810330, -0.0234600622, -0.1741344780, -0.0849957615, 0.0101825325, 0.0075677028, -0.0211120360, 0.0247729663, -0.0691595450, -0.0020725413, 0.3358537853, -0.1832380146, -0.0374755338, 0.0773094371, 0.0454437993, -0.2909717262, -0.0204471257, -0.0345053487, -0.0551638082, -0.0366519578, 0.0589338467, -0.0367265791, 0.0956626460, -0.1711540520, -0.2554954290, 0.0071742572, 0.0504050814, -0.2334866971, 0.2103260607, -0.0551363826, 0.1101117134, -0.1053887606, 0.0209825672, -0.2244676054, 0.2757137418, -0.0288932677, -0.1158071384, -0.0343153402, -0.0753135309, 0.0447608382, -0.1229071096, -0.1120886356, -0.0061904015, 0.0896648541, -0.1354801953, -0.1020992100, -0.0786214024, -0.1527375281, 0.1529684216, -0.1035754308, 0.0533106551, -0.0704239532, -0.0896579027, -0.2222992927, -0.1011307538, -0.0182967465, -0.0103080524, 0.0433588251, -0.2064688653, -0.1079019755, 0.0986120105, -0.1728698015, -0.2543358803, 0.1794467270, -0.2934231758, -0.0357824005, -0.0195108317, -0.1996663064, -0.1468097270, 0.0703178942, 0.0388083421, 0.0888674706, 0.0270983391, 0.1898253560, -0.3710381687, 0.1388439685, -0.1747088432, 0.0245278273, -0.0686164200, -0.0333146229, -0.1144973785, -0.2030003965, 0.0974763185, -0.3776547909, -0.0839633197, -0.0990608707, 0.0454730280, 0.3325501680, -0.2901661098, 0.0816024691, -0.0049254657, 0.2248705029, 0.0654170960, 0.2004489005, 0.0956948251, -0.4354193211, 0.1003957316, -0.1526613086, 0.1878115982, -0.0018772362, -0.0526592843, -0.0672652870, 0.0301138181, -0.5394459963, 0.0675522685, 0.0074157519, 0.0258076116, 0.0431087390, 0.4650868177, 0.3563201725, -0.2111128420, 0.0072737173, 0.1557392329, -0.0244638938, -0.0307777077, -0.2540462017, 0.1079307124, 0.0921098068, 0.1963518709, -0.4102485776, 0.1577627659, -0.2149822712, -0.0739182755, -0.2162478268, -0.3512272239, 0.1149574742, -0.1306662261, -0.0375997126, 0.1121980101, 0.0567053929, -0.1513914168, 0.3248450458, 0.1724106669, -0.4136986732, -0.0744544789, 0.1414615959, 0.0102958493, -0.2064413577, 0.0537575334, 0.2094970942, -0.0864614397, -0.1400280595, -0.1401660293, -0.0075981924, -0.0188884642, -0.0359782949, -0.0000065703, 0.3071631193, 0.1537890881, -0.2444850653, 0.1688765734, -0.0296008214, -0.0090905847, -0.1847324669, 0.4659226537, -0.4114508033, -0.1426162273, -0.1943543255, -0.1224247962, 0.1607083976, 0.0350792855, 0.0350617692, -0.1755266637, 0.0528926067, 0.1156461239, -0.2313576639, -0.1135484502, 0.2287334651, -0.0812657923, -0.2503494322, -0.0235861782, 0.0304107480, -0.2813969851, -0.2006191760, -0.0003902398, 0.0830165744, -0.2398556620, -0.0332328416, 0.0427926593, 0.2675784528, 0.0058027003, 0.5530490279, 0.2362379283, 0.1176521927, -0.0327735506, 0.1365758926, -0.0256603081, -0.1019712761, 0.1520353556, -0.5747970939, 0.0300192125, 0.2894181311, 0.1731289327, -0.1142922565, 0.1045318618, 0.0370188020, 0.1026174352, 0.2505631149, -0.0011196787, -0.0222182311, -0.0362971276, 0.1146518588, 0.1533753574, -0.1079259440, -0.0064752814, 0.1164676175, -0.0025752403, -0.3138030469, -0.2562345564, 0.0194231924, -0.2065691799, 0.1687964946, -0.0979838073, -0.0043969676, -0.0947922245, 0.0720856041, -0.0057556233, -0.0227951203, 0.2219220102, 0.0519877225, 0.1121093109, -0.1135565341, -0.0818139464, 0.1439610124, 0.0862422436, -0.1168888584, 0.2562872171, -0.2406279892, -0.0456329286, 0.0916659981, -0.1773798913, -0.0466492958, -0.0319812037, 0.0477490388, -0.0676647350, 0.1468473226, 0.1377279013, 0.0943661034, -0.4873009324, -0.0425938740, 0.0774342120, 0.0067388192, 0.0958417729, -0.0361331329, 0.1057593673, 0.1231333092, 0.1900362670, -0.0044525047, -0.0061649303, 0.0924179927, -0.1658900529, 0.0278596655, 0.0073353578, -0.0111418832, -0.1338136643, 0.2689988613, -0.1198028699, -0.2353970706, -0.1550223082, 0.1742781550, -0.0934367925, -0.1559269428, -0.0993244797, -0.0913700759, 0.0976032391, -0.1566916406, 0.2156946510, 0.0652098507, 0.0562975556, 0.2092663050, 0.0570512563, 0.0168953761, 0.1908497065, -0.4723355472, 0.1066258401, 0.0200776104, -0.1134373993, -0.0775337294, -0.1167889461, 0.0480545536, 0.1180129126, -0.6080995202, 0.1483588815, 0.1546872854, -0.3467588723, 0.0073891142, 0.1282287389, 0.0017829151, -0.4380350113, -0.7582814693, 0.0762659162, -0.1068960801, -0.1083986536, -0.0367688127, -0.1097841933, 0.0403604209, -0.0792370066, -0.3662095964, -0.1491096616, 0.0271674208, -0.0564328618, -0.0142575158, -0.0358622856, -0.4375396669, 0.0839230642, -0.8648124337, 0.1227959767, 0.0611817315, -0.0274707396, 0.0962687433, 0.0930220485, -0.0503580756, -0.3791064918, 0.0086498205, -0.0585995093, -0.1784108281, 0.0275545046, -0.1148193255, -0.3695124090, -0.2275112271, -0.0893364549, 0.2590417564, -0.0246860553, -0.0078153713, 0.1219226569, 0.0678272545, -0.0695318282, -0.3057234585, -0.3908696175, 0.0010301231, -0.0269140117, -0.1161402464, 0.0183688030, -0.1802266836, -0.1761429310, -0.0250408016, 0.0493186340, -0.0661236718, -0.0824903846, 0.2832816541, -0.0843965784, -0.0696752816, 0.0322268829, 0.0387919880, -0.0657961518, -0.2094303519, 0.0793627203, -0.0705231950, -0.1719084233, -0.3819866478, 0.0052037365, 0.2235094756, 0.0909241065, 0.1433991045, -0.2273694128, 0.0413778126, -0.1420033574, -0.1811926812, -0.1522241682, 0.0877215192, -0.1482878029, 0.0168833882, 0.0490619503, -0.1975214332, 0.1225064322, 0.1421196312, -0.1338160783, -0.0504504256, 0.1153434291, -0.0949787274, 0.0895675421, 0.1329136193, -0.1116784886, 0.0223794002, -0.0369407833, 0.1108620465, -0.0815045759, 0.1139261201, 0.0055703903, 0.0687573403, 0.1002971679, -0.1331549734, -0.0349996835, 0.0416004397, 0.0825975165, -0.2443378866, -0.3028382957, 0.0856019855, 0.0361979231, 0.1463250518, -0.0836839080, -0.0311441738, 0.1120845526, -0.0867943466, 0.2872921824, 0.0275975894, 0.0023561458, 0.0618924759, 0.1722195446, -0.3350404799, -0.0858893692, -0.0492562503, -0.0423981026, 0.0513053685, 0.1664396673, -0.0179807600, 0.1124370694, -0.1109722629, -0.2802138329, -0.1262548715, -0.2280901521, -0.4970087111, -0.3228378594, -0.1566265076, 0.2602032125, 0.2076943070, 0.0474176556, 0.1114000753, -0.1470250785, 0.0583543517, 0.0439951308, 0.0546295792, 0.1153871864, -0.1483938545, -0.0004472158, 0.1119895503, 0.0279318132, 0.0219500866, -0.0486133061, -0.0740569159, 0.1404705346, 0.1370785832, 0.0431350134, 0.0700956583, -0.2530891299, -0.1586660147, 0.1177615225, -0.1718079746, -0.1450870186, 0.1189596206, 0.0876417086, -0.0866004750, 0.0492906980, 0.2604425251, -0.1024576724, -0.1008312553, 0.0953436345, 0.0287568942, 0.2036399543, 0.0071301754, 0.1177543178, 0.3014240265, 0.0548731349, -0.0215585437, -0.0704060048, -0.1918241531, 0.1728775799, 0.2505275309, -0.1512538493, -0.1504013091, -0.1415323168, -0.0888779089, -0.1278644800, 0.0399126858, 0.0823501721, -0.3176515996, 0.1301536411, -0.0412993133, -0.0532353222, -0.2141929120, 0.0331903510, 0.1119824648, -0.0997857004, 0.0098825153, 0.1216276214, -0.4285936952, 0.1208807006, 0.0360528454, 0.2559114099, 0.0233722683, -0.0069469190, 0.0191165451, 0.0338292681, -0.0807883367, 0.0774352029, -0.1738955677, -0.0900880173, 0.0393374823, -0.3914366961, -0.3741872013, -0.2201169729, -0.1325156242, -0.3051926494, -0.1458829343, -0.1146415696, -0.0029349073, -0.1041900292, -0.1457666904, 0.0749993324, 0.1569723934, -0.1057834551, 0.3667298853, 0.4255215228, -0.1550116539, -0.0566016845, 0.2594059706, -0.1396726966, 0.0070798118, 0.0168303251, -0.0773268193, 0.0388348401, 0.1204760969, 0.0605483837, -0.0179980528, -0.0291424505, -0.0319689810, 0.0093457988, 0.1412026286, -0.1836276650, -0.1974425614, 0.0319716111, 0.0843363404, 0.2097675204, -0.0744782165, -0.0661930665, 0.1735115945, 0.0295629278, -0.1145589501, -0.1478159577, -0.0748367980, 0.0150257330, 0.1327029467, 0.2509671748, -0.1530563235, 0.0028740871, -0.0076366384, -0.1948585808, -0.0185426939, 0.0446321368, -0.2089930475, -0.0031024092, 0.1642445624, 0.2612814009, 0.0644644946, -0.0309276357, -0.1826853305, -0.0515336432, 0.0798723698, -0.0148717463, -0.0572818294, 0.1141932756, -0.0009959218, 0.1196561158, 0.0633818880, -0.0917285085, -0.2863886952, -0.1213101074, -0.0160558224, -0.0779606998, 0.0720128193, -0.0845848769, 0.0170527752, -0.0306289531, -0.2275128365, 0.0639405847, -0.0411672480, -0.0203446671, 0.2096475363, -0.0872046500, -0.1342000067, -0.0573957711, 0.4585082531, -0.1908026487, 0.0008172692, 0.0791766346, -0.0858545601, 0.3613860905, -0.0998004004, 0.2187401652, 0.2337090373, 0.0784100592, 0.1199874505, -0.0281370617, -0.0341821648, 0.0293325614, -0.1979128122, -0.1503222585, -0.0354623832, -0.2520303428, 0.0469632111, -0.1877868325, 0.0830170810, -0.0840743706, 0.0060134535, -0.0986074209, -0.2360484451, -0.1309506446, -0.2763981521, 0.0704703704, -0.0673421845, 0.1485631317, 0.0347532965, 0.1178302020, 0.1521090269, 0.0645127445, 0.1528020948, 0.0696805865, 0.1690816134, 0.0745294616, 0.0438333414, 0.2121631503, 0.0190001521, -0.2886120379, 0.1870217472, 0.0246942081, 0.3028071523, 0.0091635287, -0.0558084026, 0.0841606110, 0.1657777131, 0.2909375727, -0.2421639711, -0.1336990297, -0.1236560643, 0.1617008597, -0.0366004072, 0.1722871810, -0.0420873798, -0.0778523162, -0.2812735438, -0.3541081548, -0.0412164740, 0.0865178481, -0.0979532003, 0.0925225988, -0.1705245525, 0.3585898280, 0.0207035523, -0.1891777962, -0.0279203765, -0.1735874265, -0.0099966396, 0.1330174953, -0.2510942221, -0.1116400585, -0.0585739240, 0.0051982533, 0.0473440215, -0.3531498313, 0.0679889321, 0.0251289345, 0.1779611409, -0.1208974123, -0.3138823211, -0.1298357248, 0.0322001763, 0.0635391697, -0.1400077641, -0.1306590736, 0.0336247943, -0.1691669226, 0.0882784873, 0.0463168994, 0.1351243556, 0.0209209509, -0.0671153441, 0.1282584071, 0.1273257732, -0.0652865469, -0.2905152738, 0.0799460337, 0.0819123313, -0.1236784309, -0.1386860311, -0.0100943837, 0.1696004719, -0.2888164818, 0.0024749229, -0.0005347787, 0.0491656028, 0.0151359187, 0.0304029528, 0.1106058434, -0.1153431088, 0.2688224614, 0.1777791828, 0.1247073486, -0.0838348791, 0.1351236403, -0.1566457599, -0.0444519967, -0.1041532829, 0.1052234098, -0.0873660669, 0.1260180622, -0.0232181959, -0.0887105763, -0.0313945748, -0.1391734928, -0.0269443132, 0.0342977308, 0.0437818542, -0.0565816201, 0.0647320077, 0.0549233891, -0.0463484116, -0.0949742645, 0.0602439120, -0.0512201041, 0.0820447505, -0.0830571949, -0.1493901610, -0.0326434188, 0.1377285421, 0.3787257671, 0.0108814714, -0.0033198507, -0.0667489916, 0.1830557883, 0.0539777651, 0.1219574660, 0.0506015569, -0.1152037084, -0.0133200651, 0.4213725030, 0.0551589206, 0.1212794855, 0.0149030965, -0.1413972229, 0.0792979151, 0.1471192390, -0.0270050075, -0.0433380418, 0.0151816709, -0.1784336567, -0.2800400257, 0.0146857454, 0.0696176067, 0.4636602104, -0.1648076773, 0.0189552438, 0.0124086095, -0.0271416251, 0.3052333593, -0.0646486431, -0.0052455794, -0.0085155070, 0.2611884773, 0.1697731167, -0.4500088692, -0.1883388460, 0.0139020681, -0.0579700768, 0.0317969099, -0.0665668622, 0.3938840032, 0.0912934318, 0.1644820869, -0.2373176366, -0.0078131538, -0.0404286534, 0.0112064332, 0.1848786771, -0.1623513997, 0.3612448275, -0.3571060002, 0.0366704948, 0.0493745618, 0.0922345966, 0.0065531959, -0.1718936414, 0.2038394064, -0.0086096451, -0.1120338440, -0.0668316633, -0.0861205459, 0.0066864300, 0.1515743285, -0.0560888089, -0.1820538640, -0.1931185275, -0.0811228454, 0.0074505163, -0.2322141230, 0.1100266352, -0.0641262084, -0.1153058335, 0.1800822765, 0.2601423860, -0.0734154060, -0.0115880687, -0.2680028379, 0.0699194744, -0.0008527109, -0.1965573877, 0.1200768948, 0.1061975434, 0.0795947835, 0.0793425068, -0.2941570878, 0.0001365596, -0.2508873045, 0.0003887014, -0.3948476613, -0.0306548402, 0.0362913236, 0.0062642088, 0.1416988671, 0.0805238709, -0.1541669071, 0.3705340326, -0.3744148314, 0.1171201915, 0.0723208860, -0.1221400350, -0.2373823822, 0.1633624583, -0.2087198794, -0.2031228244, 0.0397591405, 0.0452171601, 0.0523587950, 0.0887267292, -0.0695914850, -0.1377353221, -0.3334744573, 0.1265700907, 0.1006929800, 0.2550861835, 0.1091056913, -0.0626071095, 0.1717286706, -0.0195580274, 0.1178532317, 0.0734039396, 0.2922627926, -0.0355983377, -0.3610108197, -0.1954268664, -0.4611046016, -0.3800941110, 0.2334395945, -0.0451860726, -0.2345042229, -0.0794205293, -0.0359269381, -0.0141004203, -0.0060591656, 0.0516503416, 0.2322907299, -0.1587056965, 0.0532225482, 0.0110593513, 0.0334433541, 0.1863877326, 0.0073454068, 0.1371981949, -0.2322693616, -0.1259042323, -0.0617030114, -0.1941892803, -0.0617736951, 0.1132000685, -0.0633720979, 0.0666753948, -0.1252025813, -0.0505708940, -0.1269716173, -0.1424970478, -0.2095796168, -0.1351832896, 0.2208654284, -0.0551526211, -0.0491031930, 0.0006665244, 0.0060885707, 0.3025448918, 0.0352376886, -0.1308730990, -0.2056492567, 0.2668027282, -0.0415660813, -0.0542519838, 0.2115449905, -0.1032380760, 0.0670233220, -0.1671886742, -0.0341121182, -0.0203036387, 0.0164505299, 0.0615095682, -0.1353296489, 0.2117936462, -0.0332153365, -0.1021073163, -0.0370719880, -0.0391555130, -0.0580465347, -0.1283320040, -0.0279993005, -0.0279630665, 0.0970070586, 0.0584331043, -0.3129602969, -0.1917223334, 0.1286971271, -0.0553436279, -0.1311517358, 0.0380588211, -0.0068405787, -0.0964484513, -0.1836200804, -0.2531215847, -0.0433110408, -0.0572131202, 0.1863755584, 0.2020323426, 0.0451633371, 0.2466082126, -0.0434927009, 0.1992751360, 0.1588725746, 0.0068246387, 0.0409475453, 0.0405655280, -0.2735184133, -0.0513602830, -0.0098443665, 0.2043160051, 0.0124021433, 0.0836471617, -0.1621606499, -0.1960740387, -0.0255680438, -0.0139001235, -0.1085024104, -0.0829779655, -0.0377804600, -0.0296950806, -0.1343906075, 0.1904755533, 0.1084031835, -0.3089787662, -0.0833736733, 0.0122964410, -0.0053615812, 0.2729710042, -0.0776531547, 0.1198710427, -0.1587559432, 0.0689271018, 0.1357054710, 0.0994079337, 0.0021099444, -0.4983572662, -0.1278118193, -0.1300794929, -0.1619097590, -0.1005701944, -0.0677642077, -0.0640065148, -0.0096087726, 0.0007973578, 0.0891567394, 0.1939311028, 0.0315583050, -0.0534327440, -0.2078338414, 0.0274122935, -0.0496784970, -0.0793214962, -0.0270817485, -0.0588853993, 0.0684654042, -0.1351667792, -0.1333310157, -0.1742352992, 0.0689971149, -0.2822358906, 0.3008296490, 0.5789195299, 0.0399947837, 0.0688793212, -0.2105867714, -0.0794236809, -0.3416746557, 0.0666239411, -0.1665411443, 0.1309761107, -0.1282379329, 0.0889719054, 0.0671210364, 0.0932929739, -0.1886501759, 0.0441769063, -0.1539338827, -0.1422942430, -0.1734814495, 0.0959128216, -0.0122388899, 0.0393441208, -0.0503874458, 0.0911045969, 0.0310508069, -0.1171491072, -0.0513289385, -0.1907658279, 0.1351174265, -0.1639839411, 0.0993631780, -0.0735657066, 0.0118826209, -0.0930634141, -0.0723802522, -0.0312177259, 0.0632421821, 0.1693042219, -0.2193223238, -0.0884486288, 0.1705191433, 0.0607393868, -0.1998561472, -0.0028399057, 0.0235227812, -0.0909788236, -0.0467998646, -0.0773854032, 0.3620435596, 0.0435977317, -0.0081549436, 0.0011809488, 0.0469863266, -0.0286216419, 0.0386275873, -0.3589397967, 0.0126720294, -0.2074712068, 0.0317790546, -0.0936547741, -0.1308826208, 0.0106019136, -0.0194283240, -0.1159813851, -0.1122710630, -0.1436599940, 0.1136172265, 0.2146118879, 0.4720148444, -0.1854511797, -0.1153267026, 0.1333375275, -0.0271025337, -0.2431976646, -0.6885374784, 0.0656289235, -0.0214514304, 0.1030463278, -0.0854821950, 0.1268080324, -0.0036874411, -0.3049376607, -0.0359034389, -0.1199573651, 0.0917828530, 0.0629553497, -0.0117527507, -0.0523881279, 0.0215222854, 0.2259351611, 0.1618777364, 0.0697299615, -0.0798707306, 0.0303337388, -0.0464760773, 0.1361059248, -0.0258281808, -0.1124072298, 0.0670541823, 0.1256924868, 0.1488714367, 0.0527675077, -0.0370702483, 0.0245079473, 0.0114170620, -0.0548752546, -0.0970811769, -0.0240522753, -0.0198635217, 0.0920199677, -0.2849732041, -0.2644808590, 0.1644766480, -0.0211271085, 0.0630201176, -0.1789762974, -0.0016611373, 0.0211129263, -0.0185070802, 0.4480066299, -0.0865974352, -0.0462034978, -0.1230656654, -0.0129157398, 0.1600405127, -0.3570713103, 0.0371835865, -0.1078322828, 0.1113537848, -0.0850005224, -0.0112220393, 0.0251578111, -0.0022213119, 0.0167322196, 0.1984194368, -0.0826981664, -0.0162734110, 0.1351776868, -0.0976368040, 0.0990264043, 0.1795518100, 0.1869233102, 0.2467251420, 0.1967574358, -0.1066936404, -0.0590265952, 0.0282256585, 0.0297712330, 0.2506781220, 0.0097186901, 0.1623256058, -0.0131058479, 0.0499844514, 0.1838197857, -0.1037698761, -0.2568936050, 0.1044301018, 0.0924521908, -0.0373493284, -0.1077522188, -0.0395054929, 0.1221416071, 0.0447983630, -0.0651914477, 0.1687574536, 0.2529302239, -0.1641982198, -0.1123219803, 0.1567010581, 0.0866055936, -0.1024331376, -0.3239123225, -0.0492845997, 0.0223987922, 0.0251986422, 0.0103902575, 0.1134968698, 0.0655654967, 0.0591799766, -0.0355318189, 0.0825252011, 0.2515823543, -0.0298249815, 0.2368710488, -0.0964562446, -0.1811057627, -0.0899391547, -0.0167207122, -0.0212728009, -0.0678750649, 0.0630439743, -0.1451563835, 0.2725450993, 0.0832550675, 0.0098910965, 0.0114770122, -0.0682919249, 0.1690883189, 0.0109392870, -0.0292575173, 0.0776617378, -0.2724931836, -0.3229747713, 0.1367381811, 0.0555082113, -0.0030431719, -0.2200526744, 0.0129060261, -0.0138713848, -0.2151867002, 0.0954793170, -0.0652783588, 0.2951069474, -0.0520953983, -0.0566029996, -0.0011291961, 0.1042978764, 0.1103002355, -0.0945649520, 0.0056292806, -0.0774249434, 0.1774645746, 0.1182177141, -0.0184526071, 0.0332571454, 0.0895201936, 0.0806216151, -0.0820412412, 0.2526903450, -0.0073029767, 0.1127708256, -0.0808772817, 0.1513787061, 0.1277832985, 0.1008466408, -0.0566447154, 0.0159016363, 0.0225822646, -0.2394155264, -0.2359465063, -0.1803823411, 0.0466332436, 0.1972612441, 0.0009799537, -0.0113170473, -0.0493607372, 0.0555863604, 0.2702578902, 0.0182279889, 0.0265837237, -0.0787375271, 0.0785906538, -0.0666240677, 0.3821647763, -0.5676907301, 0.3520372510, -0.0468405969, -0.1147292554, -0.0606339276, -0.0944941565, -0.0818780884, -0.0364207700, -0.2983253896, 0.0792823136, 0.1368524581, -0.0071776686, -0.0903069228, -0.1402274370, -0.0497609116, -0.1425552964, -0.0732992515, 0.0143423630, -0.2611695528, -0.1060482264, -0.1153865904, -0.1207051650, 0.0727007315, -0.3220137954, -0.4668372571, -0.3104932010, -0.2004781216, 0.0961822346, 0.0951735154, -0.0458643585, -0.0347380266, -0.0155316796, -0.1171091050, 0.1925240457, -0.0348909125, 0.0310673863, 0.0735153034, 0.0917746127, -0.0476712994, -0.2810479999, -0.0453582220, 0.1421895921, -0.1630350053, 0.0018485743, 0.0459966771, -0.2283958346, -0.4117568731, -0.0040250048, 0.3781954944, -0.2337145954, -0.2443351746, -0.1348305643, -0.0465350971, 0.0279334392, -0.2296865433, -0.6127627492, -0.1668779999, -0.1226639301, -0.3653138578, 0.0801039189, -0.0885874331, -0.1697751284, -0.1552358121, 0.1364086419, -0.1584663391, 0.0566562153, 0.0910056159, 0.0449999422, 0.0566995144, 0.2161549777, 0.2683549225, -0.0311790761, -0.2141783386, -0.0093593495, -0.2935632467, 0.0952951238, 0.0887529850, -0.2575851679, -0.1598487645, -0.0019650818, -0.0565331765, 0.1456611156, -0.1028050110, 0.0935099423, -0.0195837356, -0.1805054396, -0.2518259287, -0.1189032495, 0.1434980482, -0.1647228450, -0.1245101094, 0.0076006711, 0.0714270845, -0.4029487371, 0.0122033181, -0.4642842114, -0.0540646985, -0.1221126243, 0.0670376420, 0.0620242730, 0.3374022841, 0.3759728074, -0.1324999928, -0.0647450015, -0.0181265883, -0.0325697586, 0.0202425532, -0.1907669902, -0.1241274551, 0.1284642369, 0.0649400428, 0.2149092555, -0.0728848055, -0.1414586008, 0.3551606834, 0.1306312531, -0.0092718536, 0.0278443005, 0.0210706815, 0.0745486617, -0.0464224108, 0.1192713156, -0.0676947162, -0.0327547081, 0.2797235847, -0.0266342703, 0.0204212684, -0.0354481265, -0.1250761151, 0.1289841980, -0.6448872089, -0.0000069613, 0.0275173578, 0.0964864641, 0.2912321091, -0.1104914397, -0.0868416354, -0.1547344029, 0.0133901555, -0.0362982303, -0.0715173706, -0.0476162806, -0.2008855939, 0.1451645494, -0.0405045450, 0.3829734027, -0.0384748280, 0.0323222242, -0.0902917087, -0.1096619815, -0.3241257071, -0.1538666189, 0.0060049067, -0.0245629083, 0.1235621795, 0.5535033941, 0.1661494523, -0.0103792800, -0.0330815576, 0.0676036105, -0.0620836541, 0.0509406812, -0.0271409079, -0.0350720845, -0.2260451168, -0.1185737178, -0.2138632089, 0.0557716005, -0.0610369667, -0.1370512992, -0.2423197180, -0.1540536582, -0.2228208333, -0.1548782289, -0.1742302179, 0.1791868359, 0.0065009375, 0.0946030915, 0.1190664470, -0.0606615506, -0.2597239017, -0.0771553963, 0.0616133362, -0.1105942577, 0.1761346608, 0.1796940118, 0.1499169320, -0.1721967608, -0.2007641643, -0.2919474244, -0.0894769579, -0.0556613244, -0.1838452518, -0.0007487124, -0.1267873794, -0.1665151864, -0.0838829800, 0.0332398042, 0.1352363080, -0.1115905568, -0.0987751260, -0.0236367974, 0.1486122608, 0.1414154917, 0.2191945165, -0.0230327863, 0.0451321639, -0.0734550878, 0.0303072426, 0.0114597538, -0.0394864790, 0.0232387371, -0.0906349123, -0.1083279699, -0.0295963138, -0.2127797306, 0.0155338142, -0.0495335348, -0.0468145311, -0.0140759116, 0.0727634057, 0.0593425222, -0.0226152055, -0.1015097201, 0.1168794259, 0.1762821823, -0.1367778331, 0.0920489505, -0.0549662486, 0.1748480797, -0.3002060354, -0.0449297205, -0.2501279116, 0.1620395929, -0.0659201443, -0.2109642476, -0.0217047222, -0.0026645665, -0.1947190762, -0.0169848762, -0.1643574685, 0.1613665521, -0.1467654407, -0.0151237128, 0.0374540761, 0.1103772372, 0.2016963661, -0.0681779757, 0.1591513455, -0.0992262438, -0.0317087881, -0.0279649571, -0.0361560173, 0.0790874064, -0.2681937218, 0.1804055423, -0.4498509765, 0.1678565890, -0.0458736941, -0.1488151401, -0.0501239859, -0.2417097688, -0.1555474252, 0.0350081176, -0.3510014117, -0.0847201124, -0.1145749241, 0.0870603919, -0.0968361422, 0.0732226521, -0.0063344901, -0.1039371118, 0.0324181207, -0.0188226663, -0.1276861280, -0.0164218824, -0.4918876886, -0.0552137122, 0.0052944948, -0.4589268267, -0.1997089386, -0.0009847258, -0.1246827841, -0.1256927550, 0.0562866591, -0.0431054048, 0.1061987430, -0.0820189789, -0.0699890703, 0.1050727963, 0.0400991999, -0.0779651776, -0.1162153035, 0.0279737078, -0.0495593734, -0.1373665333, -0.0924418196, 0.1965628713, -0.1485505402, -0.0981077179, -0.1377545893, -0.0921686292, -0.2426074445, -0.2005722076, 0.1426099390, -0.1066332757, -0.1124152392, -0.3084236979, -0.0885239542, 0.0969874114, -0.2873538136, -0.5123649240, 0.1680083573, 0.0267446153, 0.0822385252, 0.0059674066, -0.1237229109, 0.0044995393, -0.0404455848, -0.0499516837, -0.0731451884, 0.0078790449, 0.0971219167, 0.1268696040, -0.0476390012, 0.0662990734, 0.1179767773, -0.1059041396, -0.1050922573, 0.0485761762, -0.0743621439, -0.0493742004, 0.0150486901, 0.1210427135, 0.1690266430, -0.0275941025, 0.2076913863, 0.1982485950, 0.1349503994, 0.0792113245, -0.2267506272, -0.0964189693, -0.0137613211, -0.0607293583, 0.0039643282, -0.0541855097, -0.1306103170, 0.1228109896, -0.1611210704, 0.0339578278, -0.0498716719, 0.0900181532, -0.0009818071, -0.0553175025, 0.0600474812, -0.0470299795, 0.0301815011, 0.1131914183, -0.0105996002, 0.0503494591, 0.3641967177, 0.0682056472, 0.0951380283, 0.1466644257, -0.0652616248, 0.0168409739, -0.3766885996, 0.1923349798, -0.0225289185, 0.0899823979, -0.0993734449, -0.4304552376, 0.0638700798, -0.2392091900, -0.2149310708, -0.1552877724, 0.1379632503, 0.0084585808, 0.0290660933, 0.2380177230, -0.1463415325, -0.5074104071, -0.1886873990, -0.2395046204, -0.0579342991, -0.1383930743, 0.1053883657, -0.0614238195, -0.2706289887, 0.1819943488, -0.0056949933, -0.1468397528, -0.0784685165, 0.1407512724, -0.0751096755, -0.1233993471, 0.0951390490, 0.2888758481, 0.2161587179, 0.1950429529, 0.1030632779, -0.1261079013, 0.3407918513, 0.0986238644, -0.3185450137, -0.0650257692, -0.1651138365, 0.4130102992, -0.3570623100, -0.4726744592, -0.3943210840, -0.0031031463, -0.2869420052, 0.1332967132, -0.1100487113, 0.0822625086, -0.0662858933, 0.0563926362, -0.1860568672, -0.0320388563, -0.1740977168, -0.1364515573, -0.0213327073, 0.1329597384, 0.0868687630, 0.0054302341, 0.1368759871, 0.0723403171, -0.1177728623, 0.1555921286, -0.4758740664, -0.1410350204, -0.1363179088, -0.1029194519, 0.0174900126, -0.6000962853, 0.1249756739, -0.4737670720, -0.3164876699, -0.3146031201, -0.0388708971, 0.0141729675, -0.2061667740, 0.2004622072, -0.1065590307, -0.3269625902, 0.0146842152, 0.0478274710, -0.1193990409, -0.0507536009, -0.0818701088, -0.0353527069, -0.0252675675, 0.0875661224, -0.0440953225, -0.0975191295, -0.1111978516, 0.2345585227, -0.2905158401, 0.2243352830, -0.1533626020, 0.0990888774, -0.0448689647, 0.0907827839, -0.0336319506, 0.1191903502, -0.0139814857, 0.0552634224, -0.0925231501, -0.0578246117, -0.0235164706, -0.1614806950, -0.2787408233, 0.0047960770, -0.0082555264, -0.0964675546, -0.1838898361, -0.1289701760, 0.2044740617, 0.1313634515, -0.0587371029, 0.1944423914, 0.0765358284, -0.1153656244, 0.1058181226, 0.1451775879, -0.2780728936, 0.0919203311, -0.0357946157, -0.0136584444, 0.0009841251, 0.1637517959, 0.0792958885, -0.0127114365, 0.0438642800, -0.1189148352, -0.1351915598, 0.1606736481, -0.0491330959, -0.0358976237, 0.1203418225, -0.2231477499, 0.1408583969, 0.0335088037, 0.1116207168, 0.0049380236, 0.0868457928, -0.1407006532, 0.0915884823, 0.0954036340, -0.1940141469, -0.0421717763, -0.1460680217, -0.0663350150, -0.0062446422, -0.1869945526, -0.0432665497, -0.0605367012, -0.0394341871, -0.1282664090, 0.1477653235, -0.0643499494, 0.0839720741, -0.0896423981, 0.0505739823, 0.0542433597, 0.0826469287, -0.1185269728, 0.0254011042, -0.0801919848, 0.0576938279, 0.1783580631, -0.1984613240, -0.0107857389, 0.0159765761, -0.2697785199, 0.1011303067, 0.0040850816, -0.1373154223, 0.0795917809, -0.0402624160, 0.0865542293, 0.0903916657, 0.1134760007, -0.0249373689, 0.0086382367, 0.1929721385, 0.1870295107, 0.0234415233, -0.0556610972, -0.1373407394, -0.0492987148, 0.1520731151, 0.1994370222, -0.0913709849, -0.0885639265, -0.1890790761, -0.1139884070, 0.0484755076, -0.0505934842, -0.2319812328, 0.2839182019, -0.1359368712, 0.0040014763, 0.1473453194, 0.2503246963, -0.0394220129, -0.1388982385, 0.1952012032, 0.1098256186, 0.0415205769, 0.0665331557, -0.0264837332, 0.1377734244, -0.0460172370, -0.0207865685, 0.0383222736, -0.0185877699, -0.2452603281, -0.0105599873, -0.1284024119, -0.0513380207, 0.0309014767, 0.0310286935, 0.0876580551, -0.0329820178, -0.1597473025, -0.0451346673, 0.0521589778, 0.1783182323, -0.1974190623, -0.0284312908, 0.0245517995, 0.1517124772, -0.0779627562, -0.0059304265, 0.0658631995, -0.2336176634, -0.2193813175, 0.2037586570, -0.0535150506, 0.1284731627, 0.1220352277, -0.0386097021, -0.1284543574, 0.0200085547, -0.0852470100, -0.0744026005, 0.0001340517, 0.1407333016, 0.1413013190, 0.1092253327, -0.0495532639, 0.1490476429, -0.2270340323, -0.0506582409, 0.0301984195, -0.0234452691, -0.0648335814, -0.0632159859, 0.0807706416, 0.1444967240, -0.0589958392, 0.0260084029, -0.0882249102, -0.0139982831, -0.0592726916, -0.0757491812, -0.0223072805, 0.0776033103, 0.0435568243, 0.0093374643, 0.0763091817, -0.0874578282, 0.0240177382, -0.1315354407, -0.0642294213, 0.0677837357, 0.1805606335, -0.2005573809, -0.0766845644, -0.1799876988, -0.0517138802, 0.1327720284, -0.1063014939, 0.0603581779, -0.0969330072, 0.0548277237, 0.0036119351, 0.0559503175, 0.2248343974, 0.2283172011, -0.1728772670, -0.0638180375, -0.1343684644, -0.0277388245, -0.0207007043, -0.1032011434, 0.0045929486, 0.0326020457, -0.1742530018, 0.2278621942, -0.0868645087, -0.2226001769, -0.1004420668, -0.0486662723, 0.0922714546, -0.0525171757, 0.0140879555, -0.0806444138, 0.0968649536, 0.0177452303, -0.0941960290, -0.1119826958, 0.0507203713, -0.2667582035, 0.1155672893, -0.1525637656, -0.1764333695, 0.0437478349, -0.0019250188, 0.0388202667, -0.2486938089, -0.0687938258, -0.1399015337, 0.0826385692, -0.0533464476, -0.2938115299, 0.0644305572, -0.1785190105, -0.2270866483, 0.1400734931, 0.0355403498, -0.0930099934, 0.0071199695, 0.1098601967, 0.0703020990, -0.2659081519, -0.0114421546, -0.0040870034, -0.0954297185, -0.0085965535, -0.1423682272, -0.0760783181, -0.2150264978, 0.1112561002, 0.0724255294, -0.1894975156, 0.1249292418, -0.0782384500, 0.1321636289, -0.2191286683, -0.1678071171, 0.1600513905, 0.0062738326, -0.0172951631, -0.0198001638, 0.0435198173, 0.2648010552, -0.0897911638, -0.0613054074, 0.0543524586, -0.1296097040, 0.0689431578, -0.0166433118, -0.2082470804, -0.1459038109, -0.1052132696, -0.0510492437, 0.0402192436, -0.0621773601, 0.0487876274, -0.0314847082, 0.2389907092, -0.0025463703, -0.0497954488, -0.2481183261, -0.0346853174, 0.1094241515, 0.3633828759, -0.0339651108, 0.1615719944, -0.1331231296, -0.0399014391, -0.0181011725, 0.2017179132, -0.0330014266, -0.1881987900, -0.2518293858, 0.1142413542, 0.0659070984, 0.0351538546, 0.0505158715, 0.0774553567, -0.1193065494, -0.0606916659, 0.1115842164, -0.0386278182, 0.0692443177, 0.1125178188, -0.0520461947, -0.0964923501, 0.0553542711, 0.0001068746, -0.0176622923, 0.0235986821, -0.2960207462, 0.0191090219, -0.1719003022, -0.0048667495, -0.0406683683, 0.0312611945, -0.0509290807, -0.1251953393, -0.0203275979, -0.2160511464, -0.0486882217, -0.0101140402, 0.0617290959, -0.0015096772, 0.0282767043, -0.0408669561, -0.1663969904, 0.0115473345, -0.0464698002, -0.1335091293, -0.0233598147, 0.2232421637, 0.0742582083, -0.3539862931, -0.0213924069, -0.2003967613, -0.0045000827, -0.0237804111, -0.0271801725, -0.0739573315, 0.1072482541, 0.0282361042, 0.0014129287, -0.0668580234, -0.0466603301, 0.1468521506, 0.2489562929, 0.3845910728, 0.0873242915, -0.0128184473, -0.2892082334, 0.1030739173, -0.0666112378, 0.1015162691, 0.0170368738, -0.0723560080, -0.0137171047, 0.1135674343, -0.1576406807, -0.0359154604, -0.1770404726, 0.1052657515, -0.1343878508, -0.0639939308, -0.0286422148, 0.2585583627, -0.1117751673, 0.0520226061, -0.0023590240, 0.0248724036, 0.0383488946, 0.0714906380, -0.0606124140, 0.0186331216, -0.0698413849, -0.0887125134, 0.0482961349, 0.0812810585, -0.1344437897, -0.0735108331, -0.0188353732, 0.1367030591, -0.1299097836, 0.0660578907, 0.0795175284, -0.1085336581, 0.0695670620, 0.2241362780, -0.1132181659, -0.0180237126, 0.0983794183, 0.0971249938, -0.0645097569, 0.2325253934, 0.0520985611, -0.1575514078, 0.0117310062, 0.1016080827, 0.0218605194, 0.0987339541, -0.0117980959, -0.0521372445, 0.1882646382, -0.0563461110, -0.1877252311, -0.0686743408, 0.0241153855, 0.2326683998, 0.0539390482, 0.3048158288, 0.2211578190, -0.1198091879, -0.0768250152, -0.0363029726, 0.1361085773, 0.0680472478, -0.1552856117, -0.0537852421, -0.1688197255, 0.0211624559, 0.0786078051, -0.0082288887, 0.0160432011, -0.3427120447, 0.1189422384, -0.0445612743, -0.0704536438, -0.0935041159, 0.2485944927, -0.1900785267, -0.0272330791, 0.0533041209, 0.2912700772, -0.0849489570, -0.1184415668, -0.1372567862, -0.0680671409, -0.2000011206, -0.1995340586, 0.1298705637, -0.2577946186, 0.0656446666, -0.3926931620, -0.1476362348, 0.0474383421, 0.1676861942, 0.2804749906, -0.0234741233, 0.0546867251, 0.0380306803, 0.0448666885, 0.1210689619, -0.1346002221, 0.1027912274, -0.5047717690, 0.0548581667, -0.0695295334, 0.0915027037, -0.2223362774, 0.0396252796, -0.0219499543, 0.0712941438, -0.2828602195, -0.0780911744, -0.0342123695, 0.1275152862, 0.0986631364, 0.3135489821, 0.1623021364, -0.0115571721, 0.1097285524, 0.0763842314, 0.0669881329, 0.1370176375, -0.0078971917, 0.0151786786, 0.0829801261, 0.0371653549, -0.1128375828, -0.0154372798, -0.0740957707, 0.1220172793, -0.0514792576, 0.0314713232, 0.1086295322, -0.0003739534, 0.0999680385, 0.1312186122, 0.1012125239, -0.1368611604, 0.0672856048, 0.0784514323, -0.5689650774, 0.0881705955, -0.0522627644, -0.0582511574, -0.2476321906, -0.0668668225, -0.0723396242, -0.2833305895, -0.1128755659, -0.2129401863, -0.0106480811, -0.0382930487, 0.0659957677, 0.2581803799, 0.1579831392, 0.1452713311, -0.3210580051, 0.1611397713, 0.0723741949, -0.1479150951, 0.0424636304, 0.2857894003, -0.2021542192, -0.1223389432, 0.1299443543, -0.0738639310, 0.0362977944, 0.0589356162, -0.0700839534, -0.1973433793, 0.0908829942, -0.0812400281, 0.1228684485, -0.1829825491, -0.0398997627, 0.1005809233, -0.2982699871, -0.0676767156, 0.1163195670, -0.3151957095, -0.4368121624, -0.0335268341, -0.1466280073, -0.3548921645, 0.0989874378, 0.1440818906, -0.0237856805, 0.0129305655, 0.1709369719, 0.1341280788, -0.3056358993, 0.0889606401, 0.0887870938, 0.1358025521, 0.1628327072, -0.1202639267, -0.1840367913, 0.1053545997, 0.0598241873, 0.2454605103, 0.1623702049, 0.0518298186, -0.0752979964, 0.0507875271, 0.2467294335, -0.0967764631, 0.1075236797, 0.1203989312, 0.2276780158, -0.0678875968, -0.0909026340, 0.0958959386, -0.0339338332, 0.0667574257, 0.1145337299, -0.1306254119, -0.0687588453, -0.0711649731, -0.0399588682, 0.0727203563, 0.0348568521, -0.0524587259, 0.0611072667, -0.2667550445, 0.0569848120, 0.0879561976, -0.0584748015, 0.0453003123, 0.0290325172, 0.0704578757, 0.0519507863, -0.0164134260, -0.1220234483, -0.0276701823, -0.1873729825, 0.0699164122, 0.2880320251, -0.0523879863, -0.2186382860, -0.1060568690, -0.0992643982, -0.1715525687, -0.0858626217, -0.1049409732, 0.0476686805, -0.0612402745, -0.3249906898, 0.0454292074, -0.1756541878, 0.0839408115, 0.1218431741, 0.1379190385, -0.1147021949, -0.0217069797, -0.1149648130, 0.1053821146, -0.0625157356, 0.1909686923, -0.2229848206, -0.0652386099, -0.0890369043, -0.0847517550, 0.0921427980, 0.0494193137, -0.3167718947, 0.0577597879, 0.0502630062, 0.1550587267, -0.0841911510, 0.1476462483, 0.0186055489, 0.0562783815, 0.0215630047, -0.1830948889, -0.1366181672, -0.1490604579, 0.0272525102, 0.1567135453, -0.2477422655, 0.3046732247, -0.5529548526, 0.1669832468, -0.0613258854, -0.1151057407, 0.0132811293, -0.1809498966, 0.0808219016, -0.1279196292, -0.6023426652, 0.0372749306, 0.1434266418, 0.1298381537, -0.0619357266, -0.0229138639, 0.0903669372, -0.4872031510, 0.0093610436, 0.0234814566, -0.1536274254, -0.0357885435, -1.0713113546, -0.0764825121, 0.0267197657, -0.4733612239, -0.0706058517, -0.2254187465, -0.1867136508, 0.0494867265, -0.0988986418, -0.0127629424, 0.0856496766, -0.0460233539, 0.1051512286, 0.1618484110, 0.0536874272, -0.2125616521, 0.0413748436, -0.0418640822, -0.0948991403, -0.3298652470, 0.0993884355, -0.0106674461, -0.1689543575, -0.1291299909, -0.3393936157, -0.1200662330, -0.2207762152, -0.0138107715, 0.2854928374, -0.3487098217, -0.1096348614, -0.5275450945, 0.0920003951, -0.0550580993, 0.1030759513, -0.3277786076, -0.0779458657, -0.0678006411, 0.0534178317, 0.0756742284, -0.0391648933, -0.1781627536, -0.0870142728, -0.0177288409, 0.0130748432, 0.2650783062, 0.0818932950, -0.0552214570, -0.0881547555, 0.0855431482, 0.1346053779, -0.2672306299, -0.4073780775, -0.1007477269, -0.1806355864, -0.1765204370, 0.0684541836, -0.0176296365, -0.0754955411, 0.0374738872, -0.0902434215, -0.0668591335, -0.0458179750, 0.0316011310, -0.0347588509, -0.1500266790, -0.0266405009, -0.1036366150, -0.0384621881, 0.2491205931, -0.0683652088, 0.1249250099, -0.0501957238, -0.0498281978, -0.0465899520, -0.0150123388, -0.1299810410, 0.0522180274, -0.0453309119, 0.2501118779, -0.1411259025, -0.1419545114, 0.0108592212, 0.0421898700, 0.1538413614, 0.2395040393, 0.0851646364, -0.0846964940, -0.0885049477, 0.0202406831, 0.0218082145, -0.0232617520, -0.1442602724, 0.1921700388, -0.1577923149, 0.0831820294, 0.2732523680, 0.3203969300, -0.0339328013, -0.0259057973, -0.0136560081, -0.0023601591, -0.0135359289, 0.0914899856, -0.0730159059, 0.0824585631, -0.0540986471, -0.0495131388, 0.1340022683, -0.1472594142, -0.0468579866, 0.3077779710, -0.0030328389, 0.1026816517, -0.1191627309, -0.0801920667, -0.1435874403, -0.1685147882, -0.0857423544, -0.2794726789, -0.0354170911, 0.2435474992, 0.2755991220, 0.0462830849, -0.0193785913, -0.0900482982, 0.0952474624, 0.0003804581, 0.1419431865, -0.0905117542, -0.0410000682, 0.1014692783, -0.3181627989, 0.0183115732, 0.2204503268, -0.0604043268, 0.0633187369, -0.0815229639, -0.1601684391, -0.0943988562, 0.1250479817, -0.3021442294, -0.1799961776, -0.1214333922, -0.1312675923, -0.0894593298, -0.1043153703, 0.0776402503, -0.1925279945, -0.0338597707, 0.4998925626, -0.2238420546, -0.1674366146, -0.0352315679, -0.0260544773, 0.3345492780, -0.2600656152, -0.0872207806, 0.1611114293, 0.3065136969, 0.0885695219, -0.1078656986, -0.2396991998, 0.1702691764, 0.3268126547, -0.0093902526, -0.2694291174, 0.1811545193, -0.0044561606, -0.0577571876, 0.0616942048, 0.0489036664, -0.2369526625, 0.1241317019, -0.0541502312, -0.0525363535, -0.1705735028, 0.1256472319, 0.0531011112, 0.0394316688, 0.0457066894, 0.2727485299, -0.2156845033, 0.0632868558, 0.0734224096, 0.2912042141, 0.0847500861, -0.0376192778, 0.1284748316, -0.0145180039, -0.0879239962, 0.1233943254, -0.2192443460, 0.0303905848, -0.1394703239, -0.1216499358, -0.1693041623, -0.1061808094, -0.0524796993, -0.1979324818, -0.2729457319, 0.0297312401, -0.0759739205, 0.0261610877, -0.0870139524, 0.0847939923, 0.4471284151, 0.1635154635, 0.1709336191, 0.3748663366, -0.2122196257, 0.0453456677, 0.2345833927, -0.0783328339, -0.0476393849, -0.1499226689, -0.2370760739, 0.1130145639, 0.1668065935, -0.0556055233, 0.0949980170, 0.0914037526, -0.0789147913, 0.0343880318, 0.0323469378, -0.3289955556, 0.1908886135, 0.1265058070, 0.0138185825, -0.0909997895, -0.0332405455, 0.0567361526, 0.1410624683, 0.0076945708, -0.1716978103, 0.0539350249, -0.0116191600, -0.0422850028, -0.0859616771, 0.2302758694, -0.0273336545, 0.1003327593, 0.0053730374, -0.3165080845, -0.1947516054, 0.0835565031, -0.1307865828, -0.2388788909, -0.1281320006, 0.0780568868, -0.0879168957, 0.0047389232, 0.0360990688, 0.0411008373, 0.1184554622, -0.0237005465, -0.0483597666, 0.0833753198, -0.1150911227, 0.1229846701, 0.0205880478, -0.0870524719, -0.1182567850, -0.0362098664, -0.0591515601, -0.2204047590, -0.0916848481, -0.1093018577, 0.0700847507, -0.1810953766, -0.4484488666, -0.0637691319, -0.0658434331, -0.0061777565, -0.0318345614, 0.0123627316, -0.0043371846, 0.1248015836, 0.2157205045, -0.2584607303, -0.1348388791, 0.0299912076, -0.0363119021, 0.2570933700, -0.1053196043, 0.0434082225, 0.2426853031, -0.0244051572, -0.2412328720, -0.0029450355, -0.2206056416, -0.0634623691, -0.1852683127, 0.0718054026, -0.0201604962, 0.1934436560, 0.0897830352, -0.0657477900, -0.0339411497, 0.0560892560, -0.0285335910, -0.0677153468, -0.1362097114, 0.1109265387, -0.2938906550, -0.0870295018, -0.1098946184, -0.0146995243, 0.1225271523, 0.1357738078, 0.0040587112, 0.0751867518, 0.1538072079, 0.1485402882, -0.0015785421, 0.0507363565, 0.0574399717, 0.1458716393, -0.0183658265, 0.2012646943, -0.1362822056, 0.0316289328, -0.0043094433, 0.0007164305, -0.0063696406, -0.0684912801, 0.1505955905, 0.2695868313, -0.2319898605, 0.1706102341, 0.0357432626, 0.2918958664, 0.0771843046, 0.3393532634, 0.0723364130, -0.0109937303, -0.2076610625, -0.2178836167, -0.2052843124, 0.0007791309, -0.1093732715, -0.0262424834, -0.2734731734, 0.0136386957, 0.0727789477, -0.1273313165, -0.0857065096, -0.0810580403, 0.2279881984, -0.0022293567, 0.0309906136, -0.1245730743, 0.0004105330, 0.0019493761, 0.0980137140, -0.2541882694, 0.1670143008, -0.0888653770, 0.2283622175, -0.0867952779, -0.6333149076, -0.0401023999, -0.2651331425, 0.1704165488, -0.4087456763, -0.0821938291, -0.1032117307, -0.1628194749, -0.1688591093, -0.0653100535, 0.1424294561, -0.0897107124, -0.0964965001, 0.0256023128, 0.0191882625, -0.1267840117, 0.0685572028, 0.1538983881, 0.1371716559, -0.0127753196, -0.1592106521, -0.0287136342, -0.0391446762, -0.0204775501, 0.0561783053, -0.0566902012, 0.0329547450, -0.2398387790, -0.0431251414, -0.0038683126, -0.2130865753, 0.1153627411, -0.0001107126, 0.1196461096, -0.0284778159, 0.1717872769, -0.1061727405, 0.1280001402, 0.1960351169, 0.0842367113, 0.0064803185, 0.0692487210, -0.0470539033, -0.0834101513, 0.0510557033, 0.2800554931, 0.0257002935, 0.0534868091, -0.1007193774, 0.0940209404, -0.1145235822, -0.0612070784, -0.1065457389, 0.2601925135, -0.1674477756, -0.1412814707, 0.0521714762, 0.3010022938, 0.0588464066, 0.0307400655, 0.1563532650, 0.0632055625, 0.0253155213, 0.1878343970, 0.0359447785, 0.1876204610, -0.4435360730, -0.0162236542, 0.1848726571, -0.0399277285, -0.1485431939, 0.3819399476, 0.0243784543, 0.0738621354, 0.0565662496, -0.0299087670, -0.1916886121, 0.3457277119, -0.0334882922, -0.0824439898, 0.0179266687, -0.1614492536, -0.2745696604, -0.0287169740, -0.0651030838, 0.3582416475, 0.0627834722, -0.0301003046, 0.0662968606, -0.1638644040, 0.0606699437, -0.0501573607, 0.0064561483, 0.1357599795, 0.0281484015, 0.0323001109, -0.2974660695, -0.0427164547, 0.0912581235, -0.0090655191, 0.1288380176, -0.0797450691, 0.4297037423, 0.0539343879, 0.1989360899, -0.2092666626, -0.1801701188, -0.0316460654, -0.0295651909, 0.0535549782, -0.1802743226, -0.1582930684, -0.1338558048, -0.0860005021, -0.0647037402, 0.1209983602, 0.0542783327, -0.0607100762, 0.1700864285, -0.0501841307, -0.0658794791, 0.1617568433, 0.0289399363, -0.0449896157, 0.0701752976, -0.0049031186, -0.2189484984, 0.0920257047, -0.2835389078, 0.0743045881, -0.0180733576, 0.0261197574, -0.0126756299, -0.1384971738, 0.1119650751, 0.0641875863, -0.0545006581, -0.1047136039, 0.0270673316, 0.0979853570, -0.1474707723, -0.0942441151, 0.1615864784, 0.0470210575, 0.0823424980, 0.1714594066, -0.1769087613, -0.1565609276, 0.0328368060, 0.0775880739, -0.5977219939, -0.0408264622, -0.2845433354, 0.0629764944, 0.1630409658, -0.3301053941, 0.0737991929, -0.2245647162, -0.1229100153, -0.0518383160, -0.0471672714, -0.1005914435, 0.0219072811, -0.0276863948, -0.1135792956, -0.2081537843, -0.5249307752, -0.1175135076, 0.0449598245, 0.0796992630, -0.0303868614, -0.0206750091, -0.7055122256, 0.3011601865, 0.1285375804, 0.0828902721, -0.0114327176, -0.1038650423, -0.1040028855, 0.0198847987, 0.1880713105, -0.1511965394, 0.2580935955, -0.3604290783, -0.2807331979, -0.0927352458, -0.4225760996, -0.3191631734, 0.1708049029, 0.0224926062, -0.2366937250, -0.2027320564, 0.1895400584, -0.1054892913, -0.3002790213, -0.0739477575, 0.1435418129, -0.0829276517, 0.0663777590, 0.1096336618, 0.1627607346, 0.0112780463, -0.0538052097, 0.0314568505, -0.0327133313, -0.1052343920, 0.0377972163, -0.1943833977, 0.1689883620, 0.0552431606, -0.1515174210, 0.1076430455, 0.1184658408, -0.0562031195, 0.0554894246, 0.0146780759, -0.2245355099, -0.1077028513, 0.0337297060, 0.1133041903, 0.0113043468, 0.0697769746, -0.0947711393, 0.1708232015, -0.0041165221, -0.0673923492, 0.0699705929, 0.0979744792, 0.1480230540, -0.2071381807, 0.1577691138, 0.1249711663, -0.0638988689, -0.2247238904, -0.2041988522, -0.0941190794, -0.0194047503, 0.1090304777, -0.0536868311, -0.0633373484, 0.0482771620, -0.0747381225, 0.0359093323, -0.0123254526, -0.1748064309, -0.0367740244, 0.1014081538, -0.0361070596, 0.0683162510, 0.0626313239, -0.4123150110, 0.0689254180, 0.0004927727, -0.0539969280, -0.0198500641, -0.0931439102, -0.0614436977, -0.0360585712, -0.0708474889, -0.3534665406, -0.1280442029, -0.1555880904, 0.0585162528, 0.1473065168, 0.0589739345, 0.1481625438, -0.0595932826, 0.0907989889, -0.0198583454, 0.0917423069, -0.0269812439, 0.1104799882, 0.0728225857, -0.0598348863, -0.2982737124, -0.0092786867, -0.0861733928, 0.0123691196, -0.2720197737, 0.1249893978, -0.0773240775, 0.0373110846, -0.2567117810, -0.0578224286, 0.0379705429, 0.0551919900, -0.0122614969, -0.0574133880, -0.0452306531, -0.1225958392, -0.1176092029, 0.0235024579, -0.1150584891, 0.0852653682, 0.0395253114, 0.1368687153, -0.1042544395, -0.0177988894, -0.0653438941, -0.0806601122, -0.0184384715, 0.0829581171, -0.0105225686, -0.1770850718, -0.0770279020, -0.0454793982, -0.0333674997, -0.0945649669, 0.0243324712, 0.1999984086, 0.1169318333, 0.1323509067, 0.0536896549, 0.0782072693, 0.0170018319, 0.0116137387, 0.0497930869, -0.1224823520, -0.0619202070, -0.1763066500, -0.0356153548, -0.0701613128, -0.2984913290, -0.0089240028, 0.1552572548, -0.2317331582, 0.1350563318, 0.3631625175, -0.0503052138, 0.1250117272, -0.1810969412, 0.2240108401, -0.3061712682, 0.1139450595, -0.1772175282, 0.0869421884, -0.2119918615, 0.0683317930, 0.0913866460, 0.1248235777, 0.1017309651, -0.0116314590, -0.0598615222, -0.0923581794, -0.0077675483, 0.0350577608, 0.0901452899, 0.0575714521, -0.1946688592, -0.1666081995, 0.1903098524, -0.1329107434, -0.0874671116, -0.1153126955, 0.0128421448, 0.0877279192, 0.1162978709, -0.1388304383, -0.1176941544, -0.3076824546, -0.1246284246, -0.1031761914, 0.2229081988, 0.1877281070, -0.2163806409, -0.2245176435, 0.1195855662, -0.0173941161, 0.0242088009, -0.0675279126, -0.0285379682, 0.0145811383, -0.0456254669, -0.1967682540, 0.1618131995, -0.0814528614, -0.0868600532, -0.0115870507, 0.1332665384, 0.1562743187, 0.1757183373, -0.0919627920, -0.0929411054, -0.0019645055, -0.0664971769, -0.0792692825, 0.0317705162, -0.0701970384, -0.1049554572, 0.0366490409, 0.0035338418, -0.1220292673, 0.1277863383, 0.0683026761, 0.2923874855, -0.3452441990, -0.0259835087, 0.1533194035, 0.0917255878, -0.2185963690, -0.0505511090, 0.0713960528, -0.1791153550, -0.0245119054, -0.1526802629, 0.0245550908, -0.0122188134, 0.1130302325, -0.0719938204, -0.3787876964, -0.0154287396, -0.0379934907, 0.0777515247, -0.0497215129, -0.2264200896, 0.2547996044, -0.0633456483, -0.0158366840, -0.0513833649, 0.0985600650, -0.0592744425, -0.0590792149, 0.2280546278, 0.2227456272, 0.0080588721, -0.0148818968, -0.1509502977, 0.0822458789, 0.1540484577, 0.0474186465, -0.0922572911, -0.0110727530, 0.0975724906, -0.0503732152, 0.0442298949, 0.2048641890, -0.0637434497, -0.0794573948, 0.1010008007, -0.0575879589, -0.0050146990, 0.2176006287, -0.1463522762, -0.0214075930, -0.1389150918, 0.0846676677, -0.0391199477, 0.1372460574, 0.0642545447, 0.0596547201, -0.5615556240, -0.2930907309, -0.0458840653, -0.1450855732, -0.0243473388, 0.0892734751, -0.0994242430, 0.0327517502, -0.0438372791, -0.0633252859, 0.1599853039, 0.0532789491, 0.0700129196, 0.0461663418, 0.0900144652, 0.0869496688, 0.0659747869, 0.1600016803, 0.0177301895, 0.2333836555, -0.2180672437, 0.1543636173, 0.2636532187, -0.1472416967, -0.0799757168, 0.1115039885, 0.0653661266, -0.1943965107, 0.2368837595, -0.0336518362, -0.1038988158, -0.2478515357, -0.2335854471, 0.0402580611, -0.1247737035, 0.0427110903, -0.1224331334, 0.0516449474, 0.0676798299, -0.0769920945, -0.1500094533, 0.0859872624, -0.0056241336, 0.1126906201, 0.0845585167, -0.1411857158, 0.0717933401, 0.1455175132, -0.2180197388, 0.1192822233, -0.1632117927, 0.0720629692, -0.0315323025, 0.1996034831, 0.1139001325, 0.0402391180, -0.0153206689, 0.2714114487, 0.0309606027, -0.1613953114, 0.0783606544, -0.1787187606, -0.0622643717, -0.0941162184, -0.0669051558, -0.0178452507, -0.0371036083, 0.0815871730, 0.1312533319, 0.1150597483, -0.0534037128, -0.0614166483, -0.1562530994, -0.0904091597, -0.0273476075, 0.0253156684, -0.0603898056, -0.1727572978, -0.0782683864, -0.0526037365, 0.0023132027, -0.0099431090, -0.1098317280, -0.0903575718, 0.0418193974, -0.1097810939, -0.1296712458, -0.2694673240, 0.0751600564, -0.1034553945, 0.0011137093, 0.1028884798, -0.0030239015, 0.1018816754, -0.0137233594, -0.1010278091, -0.0558437556, 0.1237264797, 0.0829925090, -0.0882216245, 0.2412717938, 0.3409605920, -0.0322528146, -0.0743458420, -0.1657561660, -0.1406716853, 0.0842749625, 0.0838972032, 0.1287114620, -0.0166130420, -0.1790525913, -0.0845522881, 0.0746041089, 0.1909938902, -0.1026621982, 0.2327944189, -0.0579150356, -0.0491349436, 0.2759577334, 0.2242943645, 0.0137571832, 0.0211922564, 0.0371101797, 0.0300551169, 0.1265855581, 0.0289527234, 0.0147421947, 0.0792862326, -0.1568282247, -0.0144624105, -0.0462372266, -0.0544125214, -0.0443747491, -0.0178309362, 0.1182937548, -0.1581265628, -0.0671362504, 0.0972512960, 0.0571861938, 0.2361069769, 0.1295149922, 0.0221922528, -0.1029339656, -0.0269325096, -0.0553828552, -0.1062585339, 0.0297804847, 0.1670352072, -0.1402810514, -0.0892956480, 0.0469276682, 0.2401344180, 0.0529484190, -0.0615358427, 0.0943296254, 0.1787907183, 0.1115382239, 0.0102730580, -0.0131875705, 0.0156895332, 0.2771272063, 0.1282990277, 0.0660880059, -0.1055851802, 0.1186296940, -0.0228775814, 0.0623412132, 0.0823564976, -0.0176242385, -0.2136020362, 0.0059735021, -0.0264890864, -0.0958493799, -0.1480563730, 0.2059374303, 0.0078688916, 0.1075387672, -0.0824579671, 0.0160231590, -0.2641899884, 0.0693351924, -0.0444924720, -0.0521106087, 0.1117558852, -0.0966200158, 0.0370782353, -0.0927218199, 0.0521101318, 0.1406432837, -0.0500164405, -0.0257970002, -0.1498480737, 0.0325873904, 0.0764446929, -0.3182923198, 0.1949678063, 0.0923650488, 0.0178299975, 0.1477610469, 0.1923381835, 0.3095867932, -0.1931984127, -0.5776752234, 0.1399404556, 0.0521169379, -0.0038975878, -0.1485593766, -0.0756008029, -0.2200998962, -0.0246448480, -0.0394708626, 0.0900814757, -0.1413784325, -0.0095648030, -0.1036766097, 0.1132005081, -0.0752726495, -0.1964111030, 0.2522028685, -0.0290496256, -0.1243355647, -0.0311856363, -0.0769742206, -0.0509374738, -0.0973217487, -0.4486221373, -0.0433084220, -0.1598682553, 0.0853922069, 0.1367725134, 0.2311875969, 0.2836071849, -0.0584538877, -0.0681066290, -0.0386128090, 0.0472103581, 0.0539854243, -0.0287054181, -0.4078189135, 0.0991590396, 0.1411966681, 0.2551558614, -0.1045983285, -0.1131275967, 0.0847337022, 0.1446105242, -0.0797846690, 0.0064438442, 0.0370252095, 0.0862306282, 0.0480647646, 0.1096773297, -0.0301299896, -0.1690916717, 0.1253266484, -0.0301691368, 0.0303358212, -0.0694207996, -0.0561500601, -0.2775667012, -0.1674927473, -0.1040874794, 0.0857993886, -0.0075633177, 0.1288450062, 0.0748986155, -0.0818449333, -0.0898421407, 0.2008941025, -0.0349631496, 0.1274540275, 0.0246463809, 0.0012923816, 0.0921968371, 0.2114241123, 0.3705987334, -0.1894977689, 0.0162530914, -0.3302943707, 0.1643782705, -0.0085081356, 0.0085187275, 0.0441091917, -0.0451396815, 0.0578412600, 0.2214019895, -0.0629223958, -0.0503515191, -0.0008513154, 0.0825614631, -0.0069326982, 0.1274719983, -0.1103319973, 0.1706870347, 0.0938622802, 0.0206167363, 0.1182542741, 0.0592626184, -0.0332022011, 0.1976480633, -0.1496559381, 0.0915525779, 0.1377673000, -0.1432559937, -0.0708758384, 0.1027132794, -0.1895483881, 0.2343282849, 0.1038136333, 0.0776668638, -0.1193988845, 0.0060337652, -0.0236642230, 0.0534148365, 0.1679013819, -0.1873993427, 0.1806186736, -0.1566401124, -0.2571206987, -0.2648908794, -0.2427467406};

#endif

#endif
