//Numpy array shape [64, 32]
//Min -1.567278385162
//Max 1.173823475838
//Number of zeros 0

#ifndef W14_H_
#define W14_H_

#ifndef __SYNTHESIS__
dense_weight_t w14[2048];
#else
dense_weight_t w14[2048] = {0.7961081266, 0.0338613726, -0.2900938690, -0.4186231792, -0.2660447359, 0.4637237489, -0.0123802256, 0.2232027948, 0.4330968559, -0.1192573607, -0.0706199706, -0.0586810634, 0.0109795751, -0.7020587325, 0.0024445630, 0.2918013930, -0.4387167692, 0.2344489247, -0.6663019657, 0.5695865154, -0.2000407428, 0.0599650778, -0.6292402148, -0.2486888021, -0.5108965039, -0.0134031102, -0.4095802009, -0.2589718997, 0.3031095564, -0.6494102478, 0.2873329520, 0.3641429543, 0.1951664984, 0.1379473805, -0.4500938952, 0.4391666949, -0.0484935381, 0.0024891649, -0.7478111982, 0.5618265271, -0.0365445800, -0.2066609263, -0.0629039854, 0.0060144849, 0.2908383906, -1.1036521196, -0.1121395901, -0.0804484114, 0.3427734375, 0.7162759900, 0.0862729177, 0.0672487468, -0.5139396787, 0.1430975199, -0.0385707691, 0.4336028993, -0.0959181488, 0.1021560282, -0.1969664395, 0.2000897378, 0.4342854619, 0.2296464145, -0.0466258749, -0.1476589888, -0.1583160609, 0.2524396777, 0.1020993292, -0.4109517634, 0.3649967909, -0.4861066341, -0.2992193103, -0.3135964274, 0.2273564041, -0.5774685740, -0.1817400008, 0.2791473269, 0.2065376788, -0.4997590184, -0.2043771446, 0.0948391929, 0.3547850251, 0.3451102078, -0.3234129250, -0.0991861448, 0.2203631550, 0.2200544029, 0.1047021821, -0.1385194808, -0.0423052423, 0.3844923377, -0.1230510995, -0.1726348847, -0.1400806606, -0.2572929561, -0.1447920352, -0.0935641304, -0.0922001004, 0.0376487337, 0.3219552636, 0.5163430572, 0.0344467685, -0.5477479100, -0.2146399915, 0.2028927207, 0.1288768053, -0.4465880096, 0.1774557084, 0.6608642936, 0.1161251217, -0.2045456469, -0.4710578918, 0.3753779531, -0.4730400145, -0.0860675126, -0.3407635689, -0.1894360185, -0.0638968647, 0.2571151555, -0.0021230378, 0.5394662023, -0.1612680405, 0.1626134515, 0.1169404835, 0.2160997838, -0.0537179299, 0.4934521019, -0.1044239923, -0.0481881537, 0.3111493289, 0.0803415850, 0.0316190533, -0.1095182374, -0.0508032665, -0.1342835277, -0.1999718100, 0.2329500765, -0.0300257299, -0.4654563963, -0.6493664384, 0.5466743112, 0.3102492094, -0.3664514124, -0.3368153572, 0.1503668427, -0.1579068750, -0.0691456348, 0.2885161340, 0.1247500852, 0.1004591137, 0.2903252840, -0.1992236376, -0.1622534692, -0.1143065244, 0.3838507235, -0.0718305781, 0.0846185088, 0.3942521214, -0.2363304049, -0.2369872183, -0.0673489347, 0.0909246653, -0.0463010296, 0.0315242335, 0.4598345459, -0.2360729724, -0.4134946167, 0.0378746167, 0.2799627781, -0.0752455145, -0.0657980889, 0.7524897456, -0.5033993125, -0.3397101760, -0.2747592330, 0.2856931686, 0.0056768465, 0.3445766866, -0.0831717849, 0.3437288105, -0.3415620029, 0.0149084674, -0.0049125114, 0.2459173501, 0.4112749100, 0.2366875261, 0.0425201431, 0.3003199399, -0.0172386579, -0.0616153367, 0.1111202762, -0.1132363975, -0.2186850756, 0.1904148459, 0.0082729114, -0.1057380438, 0.4198178351, 0.0289390944, -0.0747638941, 0.2184982896, 0.4731038213, 0.1247681826, -0.2542422712, 0.3329767585, 0.0380665846, -0.0431070998, 0.1467469782, -0.0926086307, 0.4577179849, -0.4908715785, -0.2579000592, -0.0438339226, 0.0643282235, -0.1776356101, 0.2826525271, 0.1165747568, 0.1129425094, -0.3361345530, -0.0481878854, -0.0776622146, -0.1742953658, -0.0545771904, 0.0858540386, 0.2302118391, -0.0357621126, 0.3990794718, -0.1923610866, 0.2251853347, 0.0324224047, 0.2124164104, 0.4012205005, 0.2764444351, 0.2980975807, 0.4111721814, 0.2069758475, 0.0907915756, -0.5136260390, -0.1051630229, 0.4188559055, -0.0771196559, 0.1401935816, 0.4058353603, -0.1142546684, -0.1123280153, 0.1271779686, 0.1269130558, 0.3179242611, 0.1451377273, -0.1910520047, -0.0574608669, 0.1123533249, -0.0169050954, -0.3307694793, -0.3256355524, 0.2464585155, -0.0922710076, 0.1661939621, 0.0024588888, 0.1911290139, -0.0478234962, -0.3430113196, -0.3993460238, 0.1143504605, -0.2787076533, -0.1796416342, 0.0065389876, 0.7624084949, -0.2967106700, 0.6201719046, 0.0250413120, -0.3359940946, 0.5552057624, -0.4209717512, -0.4528245032, -0.0204329118, 0.1681649834, -0.1909455657, -0.0534049161, 0.0418917239, -0.5218894482, -0.4856306016, -0.0905136988, -0.0182634238, -0.2435338497, 0.1532380581, -0.1374285370, -0.1907627583, 0.3407393992, -0.1078164577, -0.4035100937, 0.2671808898, -0.1780919731, -0.4411459267, -0.1293188781, -0.0025842208, -0.2842792571, -0.3429461420, 0.0325325727, 0.9093535542, 0.6872098446, 0.1788867712, -0.4570910931, 0.2064604461, 0.2712367773, -0.3149826527, -0.0808526576, 0.5244575143, -0.0785488635, -0.2326067984, 0.0209796466, -0.3933472931, -0.1528103501, -0.3150387704, -0.1032522395, -0.5859835744, -0.1024795249, -0.2166138440, -0.2097647041, -0.3531489670, -0.1299489439, -0.2575833499, 0.0443216972, 0.0708736107, 0.3015544116, -0.7516051531, 0.1915435195, -0.0358706526, 0.2125648409, -0.0800235718, -0.0414758250, -0.2818849385, -0.1239717901, 0.2575349510, -0.0013091592, 0.0709070638, 0.1592844129, -0.4170361757, -0.0447166823, 0.0305339191, -0.0357185826, 0.0636981800, -0.1054414809, -0.0966408700, 0.2281590253, -0.5406354666, -0.0664799735, 0.2096389979, 0.0448911376, 0.2282924056, 0.1482544094, -0.3490458727, 0.0607905313, 0.2097625136, -0.1040205136, -0.3520224392, 0.2321419865, -0.1397183388, -0.3757330477, 0.0467122197, 0.2420240939, 0.0480958894, 0.0530024618, 0.0564314276, 0.5434783697, -0.4474650919, -0.2691283524, 0.2994951308, 0.2974660695, -0.5606330633, -0.0107243182, -0.2115214765, 0.4135394394, 0.0498985834, -0.0541642457, -0.1862439960, 0.2064476460, -0.0433497205, 0.2442008108, -0.2977863848, 0.0684436038, 0.0895285904, 0.1671290547, 0.2266112268, 0.0904802382, -0.1813160777, 0.0596723780, -0.0842864588, -0.0566849560, 0.0046461010, -0.3735304177, 0.2368322164, -0.3149496913, 0.2694411576, -0.2153845131, 0.5295794010, 0.6349779963, -0.0360286422, -0.0960182175, 0.4008242190, 0.3667984307, -0.3480677605, 0.1735517085, -0.2679851651, 0.0328933187, 0.1753073037, -0.0397788696, -0.3936492503, 0.2512673140, 0.0949675962, -0.0787646845, -0.3462372422, -0.3159264326, 0.0876545757, -0.3992713392, 0.0659356341, -0.1669982672, -0.1341842711, 0.0195246972, -0.2045474648, -0.6413010359, -0.3144038320, -0.0090985615, -0.6215405464, -0.5769948959, 0.0708939284, 0.4617733359, -0.2765341699, -0.1903606653, -0.2518393397, 0.3327977359, -0.6797134280, -0.5236680508, 0.0093260035, 0.1110712960, -0.1185764968, -0.1003476530, 0.3049722910, -0.3682882190, 0.4441016912, -0.5312415957, -0.2237894982, -0.0456934609, 0.2085795403, 0.0510837734, -0.1172264144, 0.0895012617, -0.0321453512, 0.3452444077, 0.2650534511, -0.2564825416, -0.0411177911, -0.2828364968, -0.3909640908, 0.3306472301, -0.3839109838, 0.0727722570, -0.2797856033, -0.1033213064, 0.2574224174, -0.0726984069, 0.2448239028, 0.3101321757, 0.1120892465, -0.1316992193, 0.2350094467, 0.1731616855, -0.2271941006, 0.1329780221, 0.0857058465, 0.0022832355, 0.2609708905, -0.1412373930, -0.5610165000, -0.0264261737, 0.3707873225, 0.2042942345, 0.1765590608, -0.0411654003, -0.4560710788, 0.0653388873, 0.2551067173, -0.2900785208, -0.0321352370, -0.0454233587, -0.3745108545, 0.2638906837, -0.6346347928, 0.1989829838, -0.5185574889, 0.0496420003, 0.8030312061, -0.1905817091, 0.0832145214, 0.3061850369, 0.3825921118, -0.5412141681, -0.0020840855, -0.1636620313, 0.2360592633, -0.0736390501, -0.2161923051, 0.0048087244, -0.0250637066, -0.5711161494, -0.4834339023, -0.0630109385, 0.4766162634, 0.0417951494, 0.0956891850, 0.1175605431, -0.0140542351, 0.2491640151, 0.0233461019, 0.1735557914, 0.1892508119, -0.3732313514, 0.2141690254, -0.1411241293, 0.2355816513, -0.3223648369, 0.1063214242, 0.0564907901, 0.4280825853, 0.1596283764, -0.3052384555, 0.0253764130, 0.1121287271, -0.0786850750, -0.0824118182, -0.2498043180, -0.2476947606, 0.1341127455, 0.0157871880, -0.4460001886, -0.2196072936, -0.1147772372, 0.0518481880, -0.4234116077, 0.0219922364, -0.3580545783, -0.2690874338, 0.1849077493, 0.3733314574, -0.1732348651, -0.1205469966, -0.2196068466, 0.4813808501, -0.1320051551, -0.0090927482, -0.1764213443, -0.1303459108, -0.2304314673, 0.1588812917, -0.1595528871, 0.2307450324, -0.4602291584, 0.0770454332, -0.4817467630, -0.1760842055, -0.3806302547, 0.0442406051, 0.5524888039, 0.4155111015, 0.0022052573, -0.3267085850, 0.3828277588, -0.3144736886, -0.1381283849, 0.1635023504, -0.2178005278, -0.4441194832, 0.1942845881, 0.0873202533, -0.0743113309, 0.2389887869, -0.2608187795, -0.4615817964, 0.2488992065, -0.1235715002, 0.1101597100, -0.6088335514, -0.0360597447, -0.2736181021, -0.1360138506, -0.2303196490, -0.2403910458, -0.3203518093, -0.0260776766, -0.2631314397, -0.3149348497, -0.0006022182, 0.3450442851, -0.3662404418, 0.0869122744, 0.1754662842, 0.0667041168, 0.2399502248, 0.0996226892, -0.2457404733, 0.0757871941, -0.5654860735, 0.0447124988, 0.0215310752, -0.0916326866, 0.0655210465, 0.1127232015, -0.5402681231, -0.0223073252, -0.1871798784, -0.1932709962, -0.4660904109, 0.4895028472, -0.0510279350, -0.2397866100, -0.6824394464, 0.4523221552, -0.4735123515, 0.0616429187, 0.2465181649, -0.2140681893, -0.4527507126, -0.0102698673, 0.5506463647, -0.5335165262, -0.2820078433, -0.2277023345, -0.5388569236, 0.2780851126, 0.0336336829, 0.1132729053, 0.1534734219, 0.1484578997, -0.4188141823, 0.3362522721, 0.0586256273, 0.2198804915, -0.1563062370, 0.1850498021, 0.1694872081, -0.0272777528, -0.2193485945, 0.1167548299, -0.0046010613, -0.2401287109, 0.4197053015, -0.0282222498, -0.2388237119, -0.4941466749, 0.0491844229, 0.3887777925, -0.1331672668, 0.2215389609, -0.0075097480, 0.2455862463, 0.0880779698, 0.1158936247, 0.0325375833, -0.4537490606, -0.2286096662, -0.0819032863, 0.0374976248, -0.7123165131, 0.0522406809, -0.4133268595, 0.0812268108, -0.6052431464, 0.0926781669, -0.3304285109, -0.5110632181, 0.2326339781, 0.1808548868, 0.1394575536, 0.0386401936, -0.3555248380, 0.5120229125, -0.0933832079, 0.2457615584, 0.1805268675, -0.3386048377, 0.2980444133, 0.3624840975, -0.0381117500, -0.6918987632, -0.4560327828, 0.1679796576, -0.0561900958, -1.0830793381, -0.6188257933, 0.4639490247, 0.3539502919, 0.2241795063, -0.0429982804, -0.4783705473, 0.0862453729, -0.0244216453, -0.2722296417, -0.0183053669, 0.2797372937, 0.2601824999, 0.4056665599, 0.3132188916, -0.0477062427, 0.0773383602, 0.0495990440, 0.0970656872, -0.3004157841, 0.0677366927, -0.1929200590, 0.0070018391, -0.4605277181, -0.1553137898, -0.4143823385, -0.0287840124, -0.0975273177, 0.3812765479, 0.3359092176, 0.1151623800, -0.0711720139, -0.2793553770, 0.2226865441, -0.1615756899, -0.2516498566, 0.3249143362, -0.0714099184, 0.0774961784, -0.5642930865, -0.2189775258, -0.1883510053, 0.0608527847, -0.3131710887, -0.3066659272, -0.1901115477, -0.2652612925, -0.1266089082, 0.1340481788, 0.3687312007, -0.2338684648, 0.1239918917, 0.2784932852, 0.2434798330, 0.0483180210, -0.3409947753, 0.1594921350, 0.1502630860, 0.1915560216, -0.1048278883, -0.1952984184, 0.0024820368, 0.5762430429, 0.5334387422, -0.0000803713, 0.0167647786, -0.1527427882, -0.9028171897, -0.2576980293, 0.2242165804, -0.0513895191, 0.0766045600, 0.0402008295, -0.3565352261, 0.2787583470, -0.1039595827, -0.1889658421, -0.1572978348, 0.2508690655, 0.4746693075, 0.4896875024, 0.0437545031, 0.1246589050, 0.3937873542, 0.0659154654, -0.7428959608, 0.1236886382, -0.3709813654, -0.2369615734, -1.0100631714, 0.0345163569, 0.1951098889, -0.4803272486, -0.2342693806, -0.2757148445, 0.1052035168, -0.3020941615, -0.5047103763, 0.1927618384, 0.2647650540, -0.0248833448, -0.3569985926, 0.3403199911, -0.4410191774, 0.4884863198, -0.3134983182, 0.0810145214, -0.3446741700, 0.4518178105, -0.2761110663, -0.4993025959, 0.0144531727, -0.1236601770, 0.2742723525, 0.2461982965, -0.1227766648, -0.1253241748, -0.0378498025, 0.5326315761, 0.1344056427, -0.1868561953, 0.3718601763, 0.3623499870, -0.1425813437, 0.0036123081, 0.0911002159, -0.2657906115, -0.0997088253, -0.1167143956, 0.0858947635, 0.2558491528, -0.1737848818, -0.1924196482, 0.6040096283, 0.0236323718, 0.2553600967, -0.2635242939, 0.3488957882, 0.4829452336, 0.4027937055, 0.1024636775, 0.0815299377, 0.2167556286, 0.1524453014, 0.3009634316, -0.0853989050, -0.3649249673, -0.3441002369, -0.0059023877, 0.1599144191, 0.8110477328, -0.2300365120, 0.2863558233, 0.2650298476, 0.0079953372, -0.2003648579, -0.0795292258, 0.2654276490, -0.1824046671, 0.1790791154, 0.2707699537, 0.0585687906, 0.0683732331, -0.1035033166, -0.1481544226, 0.3478137255, -0.2229098678, -0.1495957673, -0.1002535820, -0.0457969718, 0.7497522831, 0.0115039879, -0.1916105598, -0.0416654646, 0.0169723220, 0.0456927978, 0.4804358780, -0.1376077980, -0.1212724596, 0.1804510653, 0.3750226200, 0.2185131311, 0.0282774121, -0.2519451082, 0.6758487225, -0.0950629786, 0.0743052438, -0.2587872148, 0.4227427244, -0.5064944029, 0.1199087054, 0.0767048150, 0.1021104380, 0.3654338717, -0.1168152392, -0.3335014880, 0.3808217347, 0.2753030360, 0.1353546828, 0.2645395100, -0.2635158598, 0.4534999728, -0.2655622661, -0.0728133470, -0.3104498982, 0.0534150936, 0.2210329771, 0.2519884408, 0.3979707658, -0.1710816324, -0.1485357732, 0.0927461386, -0.5423884392, -0.3691509068, -0.2416865528, 0.1136229038, 0.0373458490, 0.0778149888, 0.3073869050, 0.2943640351, 0.2040518671, -0.0845692977, -0.9434562922, 0.0989156812, 0.2324655354, 0.2499873340, 0.0444802940, -0.0192873869, -0.2974384725, 0.4703400731, -0.0178931132, 0.1897593439, 0.0268015936, 0.0235484298, -0.0025633476, 0.4741913676, 0.3105576932, -0.1475721300, 0.1138839051, 0.3086512387, 0.2223384529, 0.0614450835, 0.2163821608, -0.2683415115, -0.3405466676, -0.1585093290, 0.1406985968, -0.0121332146, -0.4469479620, -0.3208858967, 0.2287200838, 0.1035941914, 0.2727120221, 1.1738234758, -0.0784923434, 0.0869145468, -0.2053090334, 0.1495163739, -0.5021983981, 0.6541309953, 0.2322889864, -0.0002730428, -0.3285105228, -0.2703171074, -0.1922071278, -0.1730544865, 0.0298527945, 0.3099605739, -0.0211614333, 0.1886072308, -0.2781544328, 0.0175155774, 0.4789824486, 0.2350026965, 0.2660687566, -0.6350690722, -0.1527962387, 0.1144700497, -0.2065202743, 0.0968289301, -0.6256139278, 0.0774404258, -0.5598964691, -0.0787878111, -0.0184198711, 0.0292940252, -0.0943377092, -0.1769151092, 0.2192524225, -0.5632794499, -0.1823974401, 0.1073042825, 0.2079880089, 0.1390496194, -0.5134940743, 0.3571923077, -0.1976628155, 0.0067056450, -0.4310907125, 0.3278687298, -0.1616051346, 0.1787870675, 0.0038121445, -0.3314441741, -0.5189867020, -0.3048214614, -0.3524450064, 0.3927610219, -0.3634842336, -0.1467481703, -0.4505543411, -0.3869543970, -0.5475968719, -0.3564598560, -0.0160507187, 0.2394252270, 0.1150325239, -0.0308235735, -0.1999304146, 0.3474918008, -0.1581966579, -0.1474893689, 0.0359562337, -0.0361764133, 0.1952545494, -0.2329059094, 0.3648708165, -0.5513265729, -0.0726142526, -0.1673309207, -0.3755682111, -0.4325842261, 0.0026595255, -0.5441704988, -0.1186971366, -0.0723017901, 0.1618018001, 0.6063580513, 0.2618831396, 0.0692595765, -0.3011429012, -0.2970019281, -0.3106061518, 0.0496364571, -0.1958753318, 0.1492587179, -0.2514524460, -0.1504027396, 0.3341830373, -0.1635443121, -0.1123227105, 0.0505960546, -0.1002142578, -0.0873558670, -0.2535416484, -0.1078577712, -0.0847992674, 0.3848256469, -0.3818477392, -0.2373263538, 0.1084208861, -0.0871775150, -0.1316652298, 0.2904604077, -0.0846272111, 0.1597123295, -0.0657708123, 0.3803458512, 0.0412574224, -0.1371748745, 0.1700021327, 0.2315513194, 0.4941708148, -0.4787195623, 0.3154765964, 0.0633844212, 0.1473972201, -0.8035340309, 0.0829320624, -0.0976075754, 0.3534392118, -0.3932066858, 0.0813695639, -0.0493579991, -0.1414337754, -0.1219915673, -0.1595828980, -0.0688842535, 0.4456322193, -0.2996449172, 0.1198278666, -0.1636826694, -0.0753631666, -0.5039269924, 0.0809398964, -0.4455917776, -0.2614072263, -0.1569742709, -0.3589554727, 0.0882188007, 0.3414625525, -0.1783141643, 0.0206597708, 0.1761519015, -0.1493986100, 0.0862718672, -0.5297778249, 0.0802358016, -0.0157787725, -0.1605399102, -0.3452799618, -0.0388230421, 0.4911349714, 0.0857009515, -0.0111774644, -0.1369091719, 0.2761831880, 0.3173659742, -0.1678422689, 0.0149744675, 0.1508121043, -0.0266290307, -0.0618154779, -0.0083622159, -0.0652907789, -0.2111618221, -0.5508229733, 0.1707987636, -0.0160082188, 0.1262085885, 0.1447225511, 0.1013084128, -0.3909852505, -0.0084682945, -0.0295616258, 0.1818087846, -0.1439494342, 0.1303734779, -0.1727536768, -0.1913927346, 0.3301265538, 0.1844365895, 0.4692007601, -0.1470991820, 0.0161677133, -0.1492600590, 0.2565683424, 0.2334412485, 0.3369084895, 0.4589089751, 0.2630314827, -0.0770903826, -0.1283030808, -0.1949311644, 0.1650478393, 0.0045635430, -0.0725715905, -0.0919178948, 0.2117387950, 0.1162078977, -0.0633226559, 0.0628200918, 0.2160806358, 0.2855736315, 0.4417233467, -0.1814827770, -0.0454916432, -0.0175211597, 0.0888772756, -0.0762988701, -0.3950421810, 0.4169240296, -1.3894009590, -0.0508610606, -0.3756488562, 0.1946777850, 0.1947161108, -0.5371322632, 0.1305263042, 0.5698340535, -0.4112344980, -0.6687270403, 0.3226175606, 0.1532990634, -0.1832686067, 0.2012727410, 0.2400900871, -0.0872152671, 0.0154585997, -0.0657964945, -0.6728596091, 0.1348007172, 1.0913794041, 0.3671863079, -0.1156444922, 0.1997056752, -0.8162394762, 0.0603217930, 0.0363973863, 0.4736315310, 0.1869317740, 0.4605662823, -0.2469953746, 0.1624063849, 0.3784925640, 0.1163424402, 0.3791483641, 0.0077193012, -0.0700594112, -0.3175361454, 0.5963383317, 0.1098967493, 0.3487259746, 0.4555346370, 0.2446779758, 0.0263973493, 0.2813218832, -0.6645664573, 0.3317490220, 0.0866067111, 0.1949444562, 0.0788514987, -0.0184199102, -0.1258866042, 0.0567828864, -0.2892936170, 0.3477182388, 0.0728146657, -0.3215633631, 0.1110769436, 0.1529975384, 0.1727004200, -0.2363992184, 0.3241542578, -0.5903000236, -0.1985506713, 0.0336349830, 0.1392964125, -0.1285081059, 0.1504292339, 0.5759966373, 0.4441745281, 0.3485684693, 0.0008871409, 0.1745301634, 0.3250382841, -0.4716708362, 0.7015501261, 0.3506234586, -0.4990040362, 0.3278512955, -0.1667516381, 0.2331164330, -0.0941705927, -0.3744763136, -0.1969428807, -0.1168087572, 0.1542860270, 0.1849393398, -0.3487574756, -0.3289265633, 0.1648907065, -0.1578106880, -0.1318215132, 0.0280475151, 0.2774795592, -0.0171893500, -0.0403446108, -0.7202582359, -0.1672195345, 0.2517876923, 0.1248040348, -0.3673571646, -0.5856198072, 0.3550214469, 0.2733438909, -0.0766422227, -0.5226394534, 0.4441249371, -0.5382043123, -0.0549851432, 0.1725717783, 0.1021350771, -0.2009508461, 0.2499543428, -0.1547665894, 0.0508810282, 0.0620841198, 0.4605396986, 0.1466863900, 0.3036497235, 0.1487648338, 0.0131664826, -0.0363641307, 0.0509129129, 0.0394067802, 0.0688952431, -0.2964580655, 0.1177755594, -0.3704198897, 0.1016281247, -0.4443750381, 0.2363281101, -0.1680920124, 0.7839530706, 0.3574601412, -0.1788554043, -0.1306153685, -0.0729210526, -0.0524662994, -0.0792207643, -0.0410066284, -0.2104315758, -0.0243314896, -0.0529404655, -0.4799062014, 0.0255427267, 0.0236577466, 0.0975074545, -0.4426677227, -0.0669019967, -0.2665905058, -0.1772407740, 0.1970178336, 0.0645730197, 0.3209285438, -0.1789462119, 0.0259659905, -0.2396921366, 0.3005859852, -0.5544077754, 0.0857872069, -0.2535280287, 0.2603325844, -0.2454113215, 0.3222143650, 0.2520458996, -0.3856219351, 0.3531056643, 0.0665193722, 0.1221413538, 0.1532580107, -0.0910602137, -0.0478295945, 0.1480224133, 0.1065132767, -0.0434352718, 0.2013726681, 0.2336855829, 0.2688416541, -0.4376743734, -0.0034107000, 0.5198965073, -0.0040990259, -0.0228540506, 0.2496649027, -0.4299180508, -0.0550231710, 0.1078774035, 0.1426134109, -0.1462209523, -0.3674013317, -0.1465114802, -0.0435607471, -0.4717665911, 0.0131282583, 0.0493321046, 0.1139493361, -0.2932783663, 0.3280616105, -0.4734179676, 0.4520409107, 0.2163151354, -0.1335709542, -0.2349129468, -0.3918450773, -0.2217844725, -0.0697780922, 0.1599876583, -0.4605599046, 0.1572665125, 0.1383758038, -0.3521407843, -0.2035419941, 0.2923299670, -0.4609233439, -0.3259058595, 0.4728587866, -0.2601177096, 0.1097089648, 0.4091416895, -0.0381340161, 0.1391482949, -0.2011980116, 0.3904168010, 0.3470589519, -0.5992703438, 0.0655729622, -0.0785290152, 0.3141590953, -0.3954088986, -0.0729030147, 0.3334124088, 0.0115035875, -0.0798678920, -0.5761384964, 0.2982423306, 0.1234968677, -0.2010715008, -0.0051470180, 0.1395859271, -0.0815506503, 0.1032107994, -0.0079491893, 0.2659483552, 0.2956464887, 0.0693041459, 0.1777833551, 0.1932414025, -0.0542485118, 0.2306586653, 0.2496223450, 0.1349516511, -0.0563093163, -0.1068411767, 0.3392642438, 0.2135565281, 0.1733627319, -0.0283050667, 0.0845402479, 0.2032394409, -0.0258441307, 0.1164896712, -0.3553144634, 0.5630472898, 0.3644541204, 0.0958037972, 0.0706781596, -0.0757255554, -1.0652582645, -0.3027763367, 0.1002966836, 0.2568581700, 0.2061328292, -0.1248735785, -0.4474801719, 0.2389725596, 0.1639015377, 0.2385311276, 0.0266644899, 0.2751463056, 0.4109282792, 0.0159333907, 0.1564802676, 0.2666189373, 0.0369559526, -0.0462728590, -0.4124317169, -0.0168135390, 0.1766560078, 0.1065546423, -0.5552518368, -0.3085551858, 0.2131088674, 0.5890344977, 0.6727214456, -0.1254167557, 0.0918230414, 0.3744332790, 0.4171503484, -0.5425257087, 0.1104223579, 0.0296302922, 0.1805697381, -0.0122744460, -0.2858808935, -0.1355133951, -0.3954794109, -0.2183505744, -0.0492817834, -0.0336274765, 0.0394369178, -0.0532919094, 0.0248941854, 0.0874276310, -0.0591972061, 0.3042170405, 0.1089970917, -0.6655763984, -0.1365993023, 0.1493426710, -0.2214614749, -0.2080280483, -0.5714775920, 0.6073082089, 0.1885176897, 0.1172166988, 0.3627604544, 0.3554040194, 0.3554916978, 0.2331005186, -0.0044964706, -0.5530315042, 0.1683277637, -0.1632686555, -0.2564286888, 0.1228667125, -0.5304859281, 0.1091969609, 0.0237531178, -0.1010867581, -0.2546499372, -0.2806057930, -0.0280004349, -0.2467758060, -0.2314793766, 0.4361854494, 0.2196152210, 0.0040119970, -0.2816596627, -0.0906623453, 0.0504147075, 0.5531856418, 0.2111391872, 0.2887223065, 0.0779085159, 0.1554391384, -0.3068789244, 0.2752794027, -0.2873808444, 0.1410911381, 0.0577378869, -0.0069730966, -0.4559270144, 0.1647999138, -0.1787115782, -0.0105209406, -0.2004899532, -0.0760585517, 0.0096719889, -0.3914281130, -0.0172312129, 0.4789238274, 0.1623667926, -0.3788957298, -0.0261116941, 0.0197515320, -0.2688627541, 0.3301485479, -0.0995461717, -0.2180217654, 0.4297598004, 0.1810732037, 0.0553666241, 0.0812300295, 0.1998632699, -0.2319996208, 0.2322366536, 0.0811337382, 0.3024290502, -0.6194412708, 0.1617544740, 0.0473021232, -0.0119200777, 0.0514853075, 0.0119758854, 0.4309979379, 0.1056560427, 0.2039650679, -0.0818926394, 0.3034720719, 0.3326813877, 0.3869567811, 0.0207012612, -0.1912071705, -0.0784688890, 0.4384937584, 0.2949385047, 0.1660050601, 0.1412313581, -0.0552905090, 0.1679845005, -0.0011388105, -0.2254925072, 0.3045794070, -0.3522454500, 0.0474782325, -0.1264766008, -0.4727239311, -0.3727132976, -0.2449207902, -0.1347704530, -0.1059079617, -0.1351093054, -0.0576924533, 0.0423067063, -0.2937741578, -0.1606535465, 0.1122826189, 0.0686407238, 0.3011367619, 0.1471892893, -0.1923380792, -0.1161367968, 0.0235855542, -0.2109338641, -0.0791518167, -0.0200330149, 0.3949913383, 0.0895169079, 0.1524779499, 0.0169081688, -0.5109924078, 0.0209062546, 0.0835346133, -0.3360672593, -0.0902535915, -0.2855460048, -0.5966184735, 0.1146799624, -0.5493125916, -0.4715470374, -0.1945203245, 0.1188341677, 0.7034235597, -0.0273039676, -0.0371986292, 0.2477857769, -0.5989880562, -0.2547510266, 0.1096561104, 0.0148173077, 0.2822810411, -0.2442295700, -0.2632048726, -0.1421674341, 0.3182402551, -0.4433818758, -0.4962544441, 0.0151101574, 0.4194487035, 0.2158423960, 0.0320325270, 0.2916585803, 0.0873694792, 0.3507841825, 0.1228940561, 0.2010927796, 0.0629618317, 0.0257494841, 0.3151212037, 0.0110619999, -0.1538209170, -0.2917373478, 0.3058784604, 0.2209167182, -0.8143477440, 0.3633880913, -0.1338490099, -0.1789626032, -0.4190304875, -0.1554559767, 0.3488630652, 0.2271908373, 0.0934886858, -0.2305661142, 0.2029952705, 0.1409157068, 0.0737371966, 0.0463037901, 0.2860427797, 0.0412623584, 0.0786217824, -0.2338142395, 0.1184504628, 0.0762349516, -0.1887964159, 0.0065669147, 0.3522805870, -0.3588849306, 0.3961087465, 0.0501109771, 0.5181983709, 0.1353619546, 0.0575839058, 0.3445228338, 0.2284832448, -0.0861049965, 0.2126168311, 0.2339880764, 0.0208781138, -0.0035088814, -0.1027500927, -0.2100243419, 0.1996947676, 0.0999435708, 0.0043239645, -0.1168642715, -0.2283904105, 0.2383226603, -0.2237971276, 0.1930674613, 0.6275658607, 0.1963776648, -0.0700298324, 0.0254822019, 0.1959393322, -0.3878681362, 0.1185609773, -0.2908037305, -0.3130890429, -0.1024190113, -0.1540816873, -0.0312833935, -0.1062915847, 0.2652332783, -0.4203132391, 0.1118590608, -0.2420594245, 0.2208994478, 0.3157120645, -0.2451803684, 0.4024739861, 0.2021949887, 0.4471679926, -0.1043348834, -0.0337929390, -0.3095309734, -0.1306073964, -0.0801904202, -0.0265427120, -0.1788376570, 0.0244808309, -0.4738396108, -0.3781612217, 0.1824520528, -0.2919527888, 0.1574597210, 0.0700921118, -0.2190587819, 0.4211435616, 0.1821014136, -0.0552664362, -0.5316866040, -0.3452714682, -0.0407964811, -0.2739543021, 0.3098317385, -1.5672783852, 0.2235209793, -0.5952800512, 0.4067996442, -0.6374373436, -0.2019912750, -0.2869221866, 0.1802700013, 0.1333900392, -0.7104666233, 0.2436577231, -0.1637447923, -0.5367947221, 0.5697442889, -0.0984877348, -0.1168976650, 0.3021464348, 0.0079449574, -0.5629330277, 0.6441054344, 0.8362473249, 0.0938654169, 0.2750786543, 0.2512697577, -0.1702025086, -0.1869004667, -0.1447040290, 0.0369924456, 0.1041657552, 0.1117621362, -0.2206063867, -0.0866198093, 0.2283469290, 0.2476157695, -0.1086552590, 0.0472250506, 0.7990642786, -0.0708238706, 0.4126548171, -0.2229709625, 0.5312053561, -0.2613795996, -0.4105230272, -0.1388929337, -0.0503959134, 0.1465327442, -0.2331209183, -0.2275577039, -0.1484467983, 0.3417177200, -0.2547241449, 0.2227060199, -0.3190301657, -0.0782285705, 0.0578332655, -0.3558905423, 0.2264489532, -0.1617043763, -0.2188226581, -0.3708868921, 0.1079279557, 0.1294198930, 0.6927570105, 0.2483451515, -0.2084434777, 0.3669349551, 0.0206176508, 0.3003849685, -0.0455411114, 0.3293662667, 0.2385268956, 0.0603837445, -0.3599852920, -0.0585050881, 0.3052872717, 0.2313813716, 0.1918704808, -0.1746761650, -0.4405077398, 0.2777628601, -0.0454383157, -0.3992836773, 0.6549186110, 0.1114389300, 0.0540477447, 0.4805475771, -0.0247592274, -0.3426804543, 0.4669180810, -0.1087466478, 0.0792405158, -0.0542326346, -0.0466113985, -0.1783564985, -0.4033965766, -0.4368562400, 0.3105154335, 0.0590741485, 0.2859836817, 0.1021299064, 0.4201520979, -0.2179357260, 0.4134515226, -0.1334308088, 0.1052258536, 0.0386980399, -0.1707369089, -0.0488715693, 0.1238611564, 0.3333130181, 0.1005720496, 0.0693095177, 0.1252113730, -0.3082904518, -0.0241611190, -0.0433716923, 0.0266600605, 0.1878608614, -0.0965149552, 0.2931094468, 0.1776043922, 0.1485674977, 0.0486324653, 0.2873044312, -0.9885921478, 0.0581067652, -0.1526699215, 0.2183289677, -0.4536820352, 0.0682927370, -0.1256394833, 0.3073056638, -0.2299100906, -0.0586926006, -0.0478959195, 0.5122843385, 0.5566627383, -0.5660890937, 0.4870958626, -0.1670635492, -0.6043456793, -0.1172260270, 0.2333160639, -0.1931075156, 0.5381937027, 0.1140006408, -0.0392905734, -0.2459071875, 0.3871277571, -0.3855275214, -0.3557825387, 0.3639302552, -0.1238893345, 0.5010820031, 0.5744344592, -0.2481528968, -0.1372824013, 0.0310482718, -0.0592390113, 0.1387220472, 0.6492739916, -0.0207230300, 0.0016235384, -0.2003568560, 0.7848914862, 0.2763553858, -0.4057318568, -0.3347505629, 0.4314605892, 0.1973815113, 0.0681072176, -0.0237953681, -0.1482602805, -0.0784076676, 0.0186689366, 0.1814751029, -0.3377932310, 0.0144569678, -0.0563552827, 0.1164808497, -0.2719206512, 0.2345155776, 0.0903882906, 0.1606984586, 0.3045932353, -0.0951473191, -0.0347383060, -0.3326855004, -0.0427138433, 0.0860583931, -0.1515945494, 0.0090868091, -0.4277884960, -0.0442054830, 0.0185226165, 0.0043187072, 0.2018511593, 0.1675631702, 0.6974464655, 0.2931748629, -0.1250886619, -0.2567942441, -0.2746954262, 0.1035907120, 0.4877738953, 0.1905964762, -0.1307751238, -0.0114934994, -0.3760533035, -0.0007609107, -0.0361923501, 0.2645234168, -0.1553420573, 0.2797390819, 0.0787758008, 0.0183307081, 0.2955631316, -0.2651212215, -0.3410784006, -0.0474579558, -0.0625221059, -0.0646827146, 0.3052906692, -0.1328663379, -0.4821668863, -0.2120260596, -0.0301568247, -0.3116820753, -0.0037596528, 0.9537805915, 0.6377466321, -0.3430362642, -0.2416227162, -0.3377813697, -0.5723233819, 0.3841294646, 0.1254787594, -0.2661069334, -0.3695034087, -0.1862886995, -0.1852996647, -0.2118722945, 0.0771831274, -0.1590900123, -0.4399225712, -0.0234227460, -0.1777170599, -0.4875225127, 0.4335790277, -0.1496301740, -0.0420443192, -0.3241849840, -0.1579563320, -0.1697241068, 0.7035900354, -0.1755698472, 0.1151992902, -0.1581272334, 0.0173727907, -0.2117947340, -0.0461564697, -0.2423452586, 0.3520690501, 0.0021150105, -0.1129207760, -0.4170715213, -0.1063245162, -0.2273106575, -0.0425158963, -0.2182185948, -0.2574906051, -0.0347996466, -0.2219538838, 0.0058297468, 0.8062797189, -0.2853040397, -0.5649291277, -0.0938102975, -0.0747387260, -0.0845436454, 0.4681902230, -0.1987966895, -0.3247483969, 0.0975669548, -0.5785722733, -0.3035977781, 0.2513481975, -0.4272747338, -0.3611310720, -0.1735596061, -0.1801766753, 0.4110433161, -0.0686421916, -0.0115173338, -0.3187391460, -0.0421877690, 0.7295662165, -0.1467325538, 0.0448100343, -0.4804015160, -0.4510252476, -0.0685217083, 0.1893797219, -0.5890861154, 0.0458965488, -0.4724669456, 0.3719338477, -0.3390477300, 0.0450120680, -0.5209743381, -0.2877531648, -0.0035393420, 0.0922454670, 0.5406264663, -0.0202512015};

#endif

#endif
