//Numpy array shape [7, 2, 16]
//Min -0.481171131134
//Max 0.389943987131
//Number of zeros 0

#ifndef W2_H_
#define W2_H_

#ifndef __SYNTHESIS__
conv1d_weight_t w2[224];
#else
conv1d_weight_t w2[224] = {0.3128561676, 0.1160291359, 0.0753408745, -0.0705939904, -0.0973203033, -0.2696135640, -0.2788840830, 0.0730501935, -0.3469900191, 0.2631520033, -0.0234997980, -0.0450232476, -0.1024026051, 0.0325846039, 0.0515806973, -0.2448290288, -0.1126464456, 0.0164118093, 0.2151045799, 0.1354906708, -0.2389067858, -0.0002286193, -0.1429841667, 0.2864270508, 0.0155014433, -0.2776499093, -0.1104113907, 0.2141774297, -0.1855159551, 0.0218235180, -0.1936615556, 0.1345727742, -0.0716577917, 0.2582003176, 0.2521113753, 0.1072763577, 0.0478677116, -0.0427226536, -0.1093501672, 0.1010159478, -0.2527410090, 0.1759899706, 0.2247187346, -0.0615173094, -0.1378486753, -0.0760933906, 0.1014406979, -0.1229903325, 0.0354233347, -0.0566030405, -0.0679056644, 0.2647388875, -0.0286236443, -0.0363437012, -0.2748742104, 0.1714067161, -0.0400910228, -0.2041964531, 0.0704006925, 0.0714688972, -0.2988904119, -0.0113624353, -0.0172300600, 0.1388384700, -0.0348400474, 0.0796146020, 0.3821275532, 0.0191015229, -0.0325395390, 0.2776246667, 0.2557508349, 0.0392021649, -0.2745352983, 0.1872634888, 0.1796846539, 0.0363369361, -0.1637975574, 0.3451672494, 0.0526151620, 0.0185693167, 0.0546364933, 0.1245854571, -0.0863390118, -0.1086754203, 0.1902981699, -0.0311130174, -0.1963497400, -0.1036226749, -0.2321548164, -0.2177419662, 0.2354525030, -0.4029211700, -0.0233857874, -0.2577233016, -0.1019906253, 0.2255880088, -0.4430003166, -0.1078633070, 0.1607306898, 0.2666594684, 0.1742901653, 0.3899439871, 0.2201502025, -0.0521706343, -0.3055296242, 0.1865858734, 0.1173645407, 0.0797771588, -0.0924848542, 0.2999700308, -0.0332776532, 0.0262343232, 0.0729755387, -0.0014916111, 0.0323561952, 0.0100377612, 0.2844785154, 0.1036275551, -0.0191256870, -0.1874597371, -0.1444658339, -0.1637943238, 0.3178758621, -0.3415370584, -0.1740222871, -0.2553041577, 0.0368056148, 0.2002752125, -0.2329796553, -0.2322126776, 0.0857770294, 0.1976087093, 0.1081670597, 0.3169335723, 0.2469747812, -0.1139317453, -0.0584846884, 0.0336741023, 0.0293858256, 0.0412051305, -0.1240150332, 0.0872294083, -0.1097816452, -0.0764486566, 0.1747621149, 0.0638493672, 0.0425138213, 0.1545146108, 0.1760519594, 0.0964627489, -0.1005087569, -0.3163342476, -0.0660791919, -0.0489521362, 0.1624605209, -0.4811711311, -0.1868300140, -0.1994035542, 0.1527068913, 0.0603502318, -0.2875365913, -0.2532979548, 0.0352976434, 0.0324767604, 0.0807555094, 0.3357512653, 0.1468514055, -0.0510542840, 0.0444696806, -0.1607296169, 0.0197472796, -0.0560757890, 0.0807742700, -0.0423926897, -0.1944094747, 0.1408393830, 0.1353088617, -0.1214433610, 0.0695696920, -0.2208022922, 0.3308448792, 0.0714112148, 0.1126528308, -0.3525885046, -0.0060032392, 0.0737230256, 0.1369365454, -0.0454070643, 0.2498292327, 0.0241590217, 0.2935575843, 0.0403144099, -0.1401923746, -0.4281086326, -0.3813177943, -0.2144877613, -0.0591842346, 0.2434868664, -0.0895347744, -0.1157883108, 0.2495346069, -0.1381459534, -0.0319513530, 0.0762069449, 0.1935375333, -0.1446124613, -0.2244288325, 0.1616381705, -0.0155628510, -0.1402654648, -0.0735073984, -0.0993834585, 0.1811853796, 0.1106643602, 0.2191638798, -0.2203405201, 0.1354247779, 0.1866255552, -0.0840268359, 0.0505532697, 0.1486639827, 0.1484999061, 0.3482660651, -0.3026607633};

#endif

#endif
