//Numpy array shape [5, 16, 32]
//Min -0.864622354507
//Max 0.504981994629
//Number of zeros 0

#ifndef W6_H_
#define W6_H_

#ifndef __SYNTHESIS__
conv1d_1_weight_t w6[2560];
#else
conv1d_1_weight_t w6[2560] = {0.0008207348, -0.0485291481, 0.2103057504, -0.3789717853, 0.2107603848, 0.1766518801, -0.0099634798, -0.4286344647, 0.1787026078, 0.1793238521, -0.2164388746, 0.0974646136, 0.0389954187, 0.0829657987, -0.2025596499, 0.2426812500, 0.1317934394, 0.1856662184, -0.1152871400, 0.0419432558, 0.0130244298, 0.1435590088, -0.4028048813, -0.0865581781, -0.0054829312, 0.0548730902, 0.3534771502, 0.0524344668, 0.0613236763, 0.0199741833, -0.1151755974, -0.0891313627, 0.1085496470, -0.3047948480, 0.0217009988, -0.2249668241, -0.3074961305, 0.3610473573, 0.0983652100, -0.6546438336, 0.0590042062, 0.1040382981, 0.1373243481, 0.1659609675, 0.1664091200, 0.0527097397, -0.4570036829, 0.0584549867, -0.1690506637, 0.0189283695, -0.1794453114, -0.0509655513, 0.0293911900, -0.1415944546, -0.4258212745, 0.1597043723, 0.0283763129, -0.0546096936, -0.0543202795, -0.0706921592, -0.0082151107, 0.0143283084, -0.3160266876, -0.3243606389, -0.0515633710, 0.0949814245, 0.0125673776, -0.1307201833, 0.1080996394, -0.2043356895, -0.0973583683, 0.1996182650, -0.0832931176, 0.1378991008, -0.0716041550, 0.0653175190, -0.1222040057, -0.0443794616, 0.1029300764, -0.1594913304, 0.1192435622, -0.0322535001, -0.1270601600, 0.0860715210, -0.0091684479, -0.0435908027, 0.0600040480, 0.2622707784, 0.2855122387, 0.0253250692, -0.0044500302, -0.0435939468, 0.2197878510, 0.0859311298, 0.0174974352, -0.1579599530, 0.1024155542, 0.0948902667, 0.1063205302, -0.0595315658, -0.2764606774, 0.1643265188, -0.1543342173, 0.1663697958, 0.0033345190, 0.2469709516, 0.0063873804, -0.0212681182, -0.1485994905, -0.1308761835, -0.0734638125, -0.2060750425, -0.2056479752, 0.0606511012, -0.0664425865, -0.0758099705, 0.0831976086, -0.1218787283, 0.0405708589, -0.1288664639, 0.4677044153, -0.0365653187, 0.0873079896, -0.1730229408, 0.1740507782, 0.0546799600, 0.1245222017, -0.0128507633, 0.0589370318, -0.1964999735, 0.0305585675, -0.1807142496, -0.0274953432, -0.1301657259, 0.0096826898, -0.0843342990, 0.0473837256, 0.1548471153, -0.1150316820, -0.3839988708, 0.0360252894, -0.1245654002, -0.1688868254, 0.1640544534, -0.0057073659, 0.0912593827, 0.1659991592, -0.0894091800, 0.1709781289, -0.1149465218, -0.4928692877, 0.0490057506, 0.0115112429, 0.1849906147, 0.0065697655, 0.1120637357, 0.1927188039, -0.0387635008, 0.2757452726, -0.0802004412, 0.0633889288, -0.1357001066, 0.0463166535, -0.1407909691, -0.2321317047, -0.0350486562, 0.2006895244, 0.0072425902, 0.1115849167, 0.0155334147, -0.1502508968, 0.2879070342, 0.0001514987, -0.0510509908, -0.1861459911, 0.0057024150, 0.1282982379, 0.1767674237, 0.1981564909, -0.1504976302, 0.1000457034, -0.2005326599, -0.3951112032, 0.0006943350, 0.0877145901, 0.0234160330, 0.4438208342, -0.1162027642, 0.0437089801, 0.0004069946, -0.1055850610, -0.0927820355, -0.1139962599, -0.1314330101, 0.0992159843, -0.1870822310, 0.1613700390, -0.0379916728, -0.1716036499, 0.1167082191, 0.0361897126, -0.0223226305, -0.1031182036, 0.0306701139, -0.0977476090, -0.0194687992, -0.0247561801, 0.2098838985, -0.2127767801, -0.0933969542, 0.0776307136, -0.1218413711, 0.0905733183, 0.0634946674, 0.0394420624, 0.1801577359, 0.1997803301, 0.0970864296, -0.0308685098, -0.0845506191, -0.2560222447, -0.0008445448, -0.0103354836, -0.1269676834, 0.1343387216, -0.1390829235, 0.1643635482, -0.1272738278, -0.3276915848, -0.0030746479, 0.1068544313, -0.4274162054, 0.3160304129, 0.1135595068, 0.1008805260, -0.3700818717, 0.0354716107, 0.2970551550, -0.4001351893, -0.1076076403, -0.3891124129, -0.0950438231, -0.0475103036, -0.1371643692, 0.0842779130, -0.0758497193, -0.4255591035, 0.1431714296, 0.1028336063, -0.0147362947, -0.1840786040, 0.0367252827, 0.1765454262, 0.0311658178, 0.1516018063, -0.0511992574, -0.1662432700, -0.0610319003, 0.1930577755, -0.2020975500, -0.0230016112, 0.1169110090, -0.0303853229, -0.2457515597, 0.0362364687, -0.1315093040, -0.2124833018, 0.0818166956, -0.1165781990, 0.0105832089, 0.0774720237, 0.1392599195, 0.1192292497, -0.1306201071, 0.0438904390, -0.0982424915, 0.2557280064, -0.1149512529, 0.0209998526, -0.0875408128, -0.2283058763, -0.1415842772, 0.1374141574, -0.0347741283, 0.0318230391, 0.1159927994, 0.1224661991, -0.0152419303, -0.1958983243, -0.0718918294, 0.0672666281, 0.0399870537, 0.1449355334, -0.2657209933, -0.1224064380, 0.0663060397, 0.1167375073, 0.0325712226, 0.0986322612, -0.1277069002, -0.1405075490, -0.0043996521, 0.0151588544, 0.2663881481, -0.0936545655, 0.0551559217, 0.1396042258, 0.1419984400, -0.0629827008, 0.0700063556, 0.0549700484, -0.0314594358, 0.0036261878, -0.0048006438, 0.2741795182, -0.4844298065, -0.2071477622, 0.0567063838, 0.0734405443, -0.0569167621, -0.0720202103, 0.1677013189, 0.1906993091, -0.1960160881, -0.1361461878, 0.1421944201, 0.0132763768, -0.0363997445, 0.0243080202, -0.1001523286, -0.0092738466, 0.0482068136, 0.1089274734, -0.2153343260, -0.0589260347, 0.0316457972, 0.0648858696, -0.0311114099, 0.0846793056, -0.1085911691, 0.1169035509, 0.0025097225, 0.2114912719, -0.0095217684, -0.0194017068, -0.0281675179, 0.0445579179, -0.0620028079, -0.0660616308, 0.0511151813, 0.0915819257, 0.1218707561, 0.1621738672, -0.1470254362, 0.0714067891, -0.1030109227, 0.0311848242, -0.0242506638, 0.1257582009, 0.1400610954, 0.2655187249, -0.1412274987, -0.1596105844, -0.3198323548, -0.1725173593, 0.1653811038, 0.1428134143, 0.0977580100, 0.1263708025, -0.0704077706, 0.1541233361, 0.0099361306, 0.1181140989, 0.0485992506, -0.2742369175, 0.0670004115, 0.1392080039, 0.0834301487, 0.1903082430, -0.2728236318, -0.0656625181, -0.0198269524, -0.0237239003, -0.0939276144, 0.0014663873, 0.1338559538, 0.0405719131, -0.1147170737, 0.0902126878, 0.0721920952, -0.0762118176, 0.1803542823, 0.2725572288, -0.0527916886, 0.1775703281, -0.0851297453, 0.0488537997, 0.0115618827, 0.0387600623, 0.0907597989, 0.0743278340, 0.0316385850, -0.0787288100, -0.1348223835, 0.0823091418, 0.0103710443, 0.1025423929, -0.0087054381, -0.0433438122, 0.0693860576, -0.1529011875, 0.2000902444, 0.2028797269, 0.1044121757, -0.0479628369, 0.0921210051, -0.2922731936, 0.1059260964, 0.0747294649, -0.2329992652, -0.0422829054, -0.0660112426, 0.1158042997, 0.1293370724, 0.2374732643, 0.1112856567, 0.0556109212, 0.1299371123, 0.0537687689, 0.0034449892, 0.0651452616, 0.1920781881, 0.0285626706, 0.0426023006, -0.2384100258, 0.0938309431, 0.2350455076, -0.0487760454, 0.2175562829, 0.0731033236, 0.0114670359, -0.2905760407, 0.3273429275, -0.0234712549, 0.0054132715, 0.0625281855, 0.1510777622, 0.0904165506, 0.1151399910, -0.4053960145, 0.0957466140, -0.1722633094, 0.0067710611, -0.1687346101, 0.0724657699, -0.0728548765, 0.2407429218, 0.1842477024, 0.0363571085, 0.0482972041, -0.1117567569, 0.0728312135, -0.4000450075, -0.0846678987, -0.2356335372, 0.0549037494, 0.1219585687, 0.3665033877, 0.0417324863, 0.1938975900, -0.4134127498, -0.0808226392, -0.0387334786, 0.1409608722, 0.3679535091, -0.1028545126, 0.0248864628, -0.0740882531, -0.0402657874, -0.0383214019, 0.0892602652, 0.0531995893, 0.1967662424, -0.1848828495, 0.2343747020, -0.1196656749, -0.0704077408, -0.1085188314, 0.0058486843, 0.3357647657, 0.0156603325, -0.0233205259, -0.1190902814, -0.1329637766, 0.0585114248, -0.0460284688, 0.0413351543, -0.0326297656, 0.0528244749, 0.2566832006, -0.0891596004, -0.0471314229, 0.1179004759, -0.0816754550, 0.0755949095, -0.3472917378, 0.0356209986, 0.1800212562, -0.0083314385, 0.1235645413, -0.0433900319, -0.0379988439, 0.0045716558, -0.3058964610, -0.0552498698, -0.1296456754, -0.2154937238, 0.0252989400, -0.0737645179, 0.0715958774, -0.0546260849, 0.1827923805, 0.0411871001, 0.2297061682, -0.0630858317, -0.0779172331, -0.3527609706, 0.2170377076, -0.2331452668, 0.1415373087, 0.0016405192, 0.1356604397, 0.1482772082, 0.0020611999, -0.2510740459, -0.1080183089, 0.0018322981, 0.1142623499, 0.3580393195, -0.0790800601, 0.2422020584, -0.0098967887, -0.3036476374, -0.3682282567, -0.2367985696, 0.0333840437, -0.2797547877, -0.2796569467, -0.0657728389, 0.0304251052, -0.1230991855, 0.0424688496, -0.1410631090, 0.2315688431, -0.0086786421, 0.0413907021, 0.0049110460, -0.0221100133, -0.0540316850, 0.0420088731, -0.0316279270, 0.0832586884, -0.1580217630, -0.2425105870, 0.0854596421, 0.0537237078, 0.1484594047, -0.0576716363, 0.2463316172, 0.1425711811, 0.0025862213, -0.0226117838, -0.0833359435, 0.1601481736, -0.1917753816, 0.0424654372, 0.0807054043, -0.2917714715, 0.1783926487, -0.3490434587, 0.0364115275, 0.0739064515, 0.0546968989, 0.1176067889, -0.3261424303, 0.0970544294, -0.0779157206, 0.1830441803, 0.0029665353, 0.0378840528, -0.4326639473, 0.1005041376, -0.1229414344, -0.0316217951, 0.0656660199, 0.0382932425, 0.5049819946, -0.0439015813, -0.2514576614, -0.1138297245, -0.0705307648, -0.1122218594, 0.0533064343, -0.3804668188, 0.3292534649, -0.1004023552, -0.5532971621, -0.0098592900, 0.0005790679, -0.2484531552, 0.0099479454, -0.1387676001, -0.2050432563, 0.1217175871, 0.0114867277, 0.1213291287, -0.2357632667, -0.1464799345, -0.1136384308, -0.1562485844, -0.1457002610, -0.2588688433, -0.2714193165, 0.2465830296, -0.1427148283, 0.0379779637, -0.2154631466, -0.0927332118, 0.3271937668, -0.1182285696, -0.2884803116, 0.0182961058, 0.0579910614, 0.0635932609, 0.1182190776, 0.0431322008, 0.0354130752, 0.0636653826, -0.1427718997, -0.0760771185, 0.1138148531, -0.5880172849, 0.0729079843, -0.1996778399, 0.0014518028, 0.0705361068, -0.0825104564, 0.0179950222, 0.2191467583, -0.0142035726, -0.3010233343, -0.6075637341, 0.0133248447, -0.1120320410, -0.2653949261, 0.2357764095, -0.0162341613, -0.0623043217, -0.2435019761, -0.0520267971, 0.1896356344, -0.0071003428, -0.1873297989, 0.0165394284, -0.0910934955, 0.2279565483, -0.0674905032, -0.0008397909, 0.2700361907, 0.0669872761, 0.1925822496, 0.1489714384, -0.0255130641, -0.4345673919, -0.0047685802, -0.0075692702, -0.4374569952, 0.0190396067, -0.1109312475, -0.0953932628, 0.0223335493, 0.0478074774, -0.1587240249, 0.1124864519, -0.0264340397, -0.1102198213, -0.1334641576, 0.2171778530, 0.2138038427, 0.1523360610, 0.0631862730, -0.1134887114, 0.1421368867, -0.0054831291, -0.0769373775, 0.0219363179, 0.0823923051, -0.2032885402, 0.1497053504, 0.1432048976, 0.1592086703, 0.1610329747, -0.2319339514, 0.0488826036, 0.1232561916, -0.1617852002, 0.0616306700, -0.4453466237, 0.0013625284, -0.1073086783, -0.0729770660, -0.2083303034, 0.1488325298, 0.0787470341, 0.0589115173, -0.1140345186, 0.0082903700, -0.0080371480, -0.4716784954, -0.0374779627, -0.1080903187, -0.0194123872, 0.0007255234, 0.1475084126, 0.3247289062, -0.1600736082, -0.1526922435, -0.2836638689, 0.0453437902, 0.0678665861, 0.0917818323, -0.1521026045, 0.1335147172, 0.0538844541, 0.0029981059, 0.0181570575, -0.1428492963, -0.0633506551, -0.0115593122, -0.3537013531, -0.0253289733, 0.1937671453, -0.1620767862, -0.0628041923, -0.0504621826, 0.0270220600, -0.0705365017, -0.4718857706, 0.0711382851, -0.1432768106, -0.2397664636, 0.0777573362, -0.5673343539, -0.0741722211, -0.0104318755, -0.0853171721, 0.1801179796, -0.0425369553, 0.0256032664, 0.0881343931, -0.0082792724, -0.1159746647, 0.1263353080, -0.0937625617, -0.1004924178, 0.0712961331, 0.2481682897, 0.1996795684, 0.0734317526, -0.2956697047, 0.1225589961, -0.2432681918, -0.0851898491, 0.2944190204, -0.0172218140, -0.5101815462, 0.2609123290, -0.1700617373, 0.0659298599, -0.0038856603, -0.1637260318, 0.4153847396, -0.2969148159, 0.0460528433, -0.1994079947, 0.1846835464, -0.1738120615, -0.1890711486, 0.1447418779, -0.2109563351, -0.4756152332, 0.0836059973, -0.1435963809, -0.0117422622, 0.0382331312, 0.0794033334, -0.0082908440, -0.0814065859, -0.1576758474, 0.0634048805, -0.0517082661, -0.3299492300, 0.0659730062, -0.1535907239, 0.1414792389, 0.0813607424, -0.0203858223, -0.1095096618, 0.0364526324, -0.0407574140, -0.3275008798, 0.1436669528, -0.0677969977, 0.1432143152, -0.3451614380, -0.0019580773, 0.1261320114, -0.0775333047, 0.0114317369, 0.0511079133, 0.3496456444, 0.0558734015, -0.5066021681, -0.2554498613, 0.2875786722, 0.1601392478, 0.1264112145, -0.5710468888, -0.0226861704, -0.0710263923, -0.0936915651, 0.0691808686, -0.0323643349, -0.1325245649, 0.1013158038, -0.2793116868, -0.1880939156, 0.1234522238, 0.0803995952, -0.1662731320, 0.1193963513, 0.0780287385, 0.1290170699, -0.3689237535, -0.0568590127, -0.1464489549, -0.4549031854, 0.3562600017, 0.1110091880, -0.0226100218, -0.0541627668, -0.3914677501, 0.1667538732, -0.0052849259, -0.1631113142, 0.3245080411, 0.0842440575, -0.1411987543, 0.0628613457, -0.0379517488, 0.0314589292, -0.0794634521, 0.1314803362, 0.1057030857, 0.2939014733, -0.0886989832, 0.1252532601, -0.1055202261, 0.1302379966, -0.0371612459, -0.0816632882, -0.3579801619, -0.0348226838, 0.0195801649, -0.2279431969, -0.2973662019, -0.0636678189, -0.0700939670, -0.2031414658, -0.0197071489, -0.3368338346, -0.0738365725, -0.0949739590, 0.1764813513, 0.0487635657, 0.1059557498, -0.2496671230, -0.0091696847, -0.1329811066, -0.1691948473, -0.0057942169, -0.0500641018, 0.1241936460, 0.1456580013, 0.2116698176, -0.0278978441, 0.1285753548, -0.4299604893, 0.0960191339, -0.2211614549, 0.0835667327, 0.2762782276, -0.0551137924, -0.0365899801, 0.2158569843, -0.0547327437, 0.0830377117, -0.2181300074, 0.0162534341, 0.1044911891, -0.2012130916, -0.1637635231, -0.3022429645, 0.0127855325, -0.0464052744, -0.2738838196, 0.0901608095, -0.1413395554, -0.1656553596, -0.0104238261, -0.0247443132, 0.1197568476, -0.2810177207, -0.1286733598, 0.0708494782, -0.1058406606, 0.1388614029, 0.1085575223, 0.3823095858, -0.0837479755, 0.0927065462, -0.3035132885, -0.1403751671, 0.0281396434, 0.0237750933, -0.2060855478, -0.1423898488, 0.1194424033, -0.0235367026, 0.0821281075, 0.1415365040, 0.0263732579, -0.3435592055, 0.0582895838, -0.1004167050, 0.1739354432, 0.1839333773, 0.2253488153, 0.2823704481, 0.1428882480, 0.1001355648, -0.3930025101, 0.0413560383, 0.0533059835, 0.2379151732, -0.1157780290, -0.0426178649, -0.0440877490, -0.2006592155, -0.0607747249, 0.0010773487, 0.0957546011, -0.1395773590, -0.3179374635, 0.0932512507, -0.2381400317, -0.1442799121, -0.0961760432, 0.0376073867, 0.1510411054, -0.2061045766, -0.0912344828, 0.0272383820, -0.1166279092, -0.1378603280, 0.1098696366, 0.0833004788, -0.1522210389, -0.1940891892, -0.0018027932, 0.0865489021, -0.0029650941, 0.1174532399, 0.0897436142, 0.0338831767, 0.0949692652, 0.0679417029, -0.1362598836, 0.1750194728, 0.1763585359, 0.1350986511, -0.1966761500, 0.2706808150, -0.0915955976, 0.1351958513, -0.2914483547, 0.1633494943, 0.1125808433, 0.0167704131, -0.0522848256, 0.1669286788, -0.2045386583, 0.0007820020, 0.0916757509, 0.0089020832, -0.0946115330, -0.3178216815, 0.0223312266, -0.0971859843, -0.1278826892, 0.1938202381, 0.1149002239, 0.2652178109, 0.1882958859, -0.2570646703, -0.2345084697, -0.1079125330, -0.0467987806, 0.3195018768, 0.2647040188, 0.2264772207, -0.0236917157, 0.2404571176, -0.1406219006, -0.0060473806, 0.0415510125, -0.0834309384, -0.0389279425, -0.0931325331, -0.1635750979, -0.1360221952, 0.0397630297, 0.0208012164, 0.2712249458, -0.3606033921, -0.0687224641, 0.0584213845, 0.0295273587, 0.0887519866, 0.0332031250, 0.2354232818, 0.1319372654, 0.1431390047, 0.1197109967, 0.0077522784, -0.0316651650, 0.0128879566, 0.3384731412, 0.0339918658, -0.1446707845, -0.0131862657, -0.0981846005, 0.0399005488, -0.0358197615, -0.2803359926, -0.3722836971, 0.2952797711, 0.0416580662, -0.2910489440, 0.0096316598, 0.0305097084, 0.2485342920, -0.0735593140, 0.0451837331, 0.2023666352, -0.1765810400, -0.0634761527, 0.0415420346, -0.3792719245, -0.1822069585, -0.0183531214, 0.0336113833, 0.0297775455, 0.1661857516, -0.0537783280, -0.0445745848, 0.1477386057, 0.0588117056, -0.0542554520, 0.0745230988, -0.0606094971, 0.0680261180, -0.1733135134, -0.0245104507, -0.0089731216, -0.3510241508, 0.0927088261, -0.0325404927, -0.0282186009, -0.2196175456, -0.1451345533, -0.1425562799, 0.0296161193, 0.0884251222, -0.0483843461, 0.1986176074, -0.3729640841, 0.1684860438, -0.1451045424, 0.0791159496, 0.0039109774, -0.1593369097, -0.1125005484, -0.0482378118, -0.0586356632, 0.0881373286, -0.0040912624, -0.1521218717, 0.1040732116, 0.1057309210, 0.1047769412, 0.0289136209, 0.2136082947, 0.0167166404, -0.0525267124, -0.0511272214, 0.2454587817, -0.0001591628, -0.4463258386, -0.3286146820, -0.1122229174, -0.0853638723, -0.2520671189, -0.0873510465, -0.2493576556, 0.1276015639, -0.1591752619, 0.1219577193, 0.0594017804, 0.2444639802, 0.0122400159, -0.1687829643, -0.2092347890, -0.0771816373, 0.0074419156, 0.1629379690, -0.2217832953, 0.0274657253, -0.1311079264, -0.2816922963, -0.1109292060, -0.2808845043, -0.0033828313, -0.1568678916, 0.2722988129, -0.1243919656, -0.0601367019, 0.1063008383, -0.0343136415, 0.0403451510, -0.1326803416, -0.0211476088, 0.1435905397, 0.1003578082, -0.1269079149, 0.0637551695, 0.0922798663, 0.0442451872, -0.1544687748, 0.1116806343, 0.1328841895, -0.1267015785, 0.1574834585, -0.0574294813, 0.1715779454, 0.0040156324, 0.1126584932, 0.1527784616, 0.0745138451, -0.0747735351, 0.0608599186, 0.0355988219, 0.0102749774, -0.0087482370, -0.0281048436, -0.2045194209, -0.1908529103, 0.0277037639, -0.0632231906, 0.0696856156, 0.0091962256, -0.0793949887, 0.2059437633, 0.3208713830, -0.1829672903, 0.0856504440, -0.0952363461, 0.0713907406, -0.0639314875, 0.1456862986, -0.0927148536, -0.1061505675, -0.1012078002, 0.1120760962, 0.2408739477, 0.0507580191, -0.2288340330, 0.2042028308, 0.1351094246, -0.1015509740, 0.0887526646, 0.2185218632, 0.2024112493, -0.1255099773, -0.0565993227, 0.0380782187, 0.0241399780, -0.2064691931, -0.0403135270, -0.0031338299, 0.0674391240, 0.0254345126, -0.1558386832, -0.0833223835, -0.0855543464, 0.0470426977, 0.2721092105, -0.0687534064, -0.3280438483, -0.2327382118, 0.1285982728, 0.0404920764, -0.0076248106, -0.1220624596, 0.0789353624, 0.1406934708, 0.0099629164, 0.0233321618, 0.0470224395, -0.0144295106, -0.1311720163, -0.0314242318, -0.0744498223, -0.0080984905, -0.1366005987, -0.0062732347, -0.2092385888, 0.1136017516, 0.0279805344, 0.0390823893, 0.1238164082, -0.2382325381, 0.1301809549, -0.0273155551, 0.2595051229, 0.0533248410, -0.0378654227, -0.1576696932, 0.0295539405, 0.0070727160, -0.1476006955, -0.0127772503, 0.1779304147, 0.3001270592, -0.1627301127, -0.2616494298, -0.0563337766, -0.3606053591, -0.2844761014, -0.1165510491, 0.2313784361, -0.0841139406, -0.1237175241, 0.2584294677, 0.0071181823, -0.1254690140, 0.1859787554, -0.2280370295, 0.0055305804, 0.1442467868, -0.0234750938, -0.1280230284, 0.0556060337, -0.0640722588, -0.1241328791, 0.0090181464, 0.0252315495, -0.0602407604, 0.1357412338, 0.3124843538, 0.0628866479, -0.2476213276, -0.0396479554, -0.1486463696, -0.5726551414, 0.0574952587, -0.1054816395, -0.0695364401, 0.0118216164, 0.1368937790, 0.0776881501, -0.0673333406, -0.0668085665, 0.1170376018, -0.2742080986, 0.0585829131, -0.4221260548, 0.1845147908, 0.0148843145, -0.0994767845, 0.3118342161, 0.0267569665, -0.1319664270, 0.0787632093, 0.3070428967, -0.0791033804, 0.1845888346, 0.0802063867, -0.1115442142, -0.0000584762, -0.3696381450, -0.0500874929, 0.0103428066, -0.3345293105, 0.0182553418, 0.0445435196, 0.0137224412, -0.0579238571, -0.0505986996, -0.2529348433, -0.1410200596, 0.0406657755, -0.2422490716, 0.1227297410, 0.0128897950, -0.0272173751, -0.1270184070, 0.0840815902, -0.1669986397, -0.1475126892, 0.1478556693, 0.2108003646, 0.0838835463, 0.2040964216, -0.1927250922, -0.2647343576, 0.1561818272, -0.2049746364, -0.0094388630, -0.0858000815, 0.0779485181, 0.1683709919, -0.0482739471, -0.3178414106, 0.0979070663, 0.3248711824, -0.1361102611, -0.1591909230, -0.0730274990, 0.0630678907, -0.0353576839, 0.0052701226, 0.2205609530, 0.0779225975, -0.0365310982, -0.1141008362, 0.2789262533, 0.1092465743, -0.0245037898, 0.0452993922, 0.0116511611, -0.1718923748, -0.0878119618, -0.2419172823, 0.0292984322, -0.0153615763, 0.1822336465, -0.2804121673, 0.0002436251, -0.0782095045, -0.1079938859, 0.0392047241, 0.0202105045, 0.1239144504, -0.0004238622, 0.2470397800, 0.1374273449, -0.0754010826, -0.1042389572, -0.0891713127, 0.3051593900, -0.1782891899, -0.1640213579, -0.2082428932, -0.0407725573, -0.0019190200, -0.2948670089, -0.0860292614, 0.0261890274, 0.0652858540, 0.1290187091, 0.2957314849, 0.1042106226, -0.6387374997, 0.0866557211, -0.0506480001, 0.1099249125, -0.0725188926, -0.0200499315, 0.1694897264, 0.1405258030, -0.2502291799, 0.0943877026, 0.1521313936, 0.0913819969, -0.0316709951, 0.1114859730, 0.1764847040, 0.1739415526, -0.1116104573, 0.0108252224, -0.0405539647, -0.0387794897, 0.2342054695, -0.0893509388, -0.2267934382, -0.0097546326, -0.1003935561, 0.1653442532, -0.5409373641, 0.0024566976, 0.2454833835, -0.2491904199, 0.1251500249, -0.0731821954, -0.0375749096, -0.0608481690, -0.3043459058, 0.2791723609, -0.0119103156, 0.0330568664, 0.0109178172, 0.1380570382, -0.0922929421, -0.0343798921, -0.0318094715, -0.0079395212, 0.0327788182, 0.1703521758, 0.2329618931, 0.0127957296, 0.0116446801, -0.0838599950, -0.1868351400, 0.1995455921, -0.0088720433, -0.0666826144, 0.0266240798, 0.0474618338, 0.1231050417, -0.2400062084, 0.1343968362, 0.1839152277, 0.1469088793, -0.0128486371, 0.0097607225, 0.0328166708, 0.0919045582, -0.0218075328, 0.2276352495, -0.0928602442, 0.0748829395, 0.1960955411, -0.0240034033, -0.0624459647, -0.1520251185, -0.0063615441, 0.1674654484, 0.4206474423, -0.0471907929, -0.0947740451, -0.0671031475, 0.3428672254, -0.0309285205, -0.3279683590, 0.0168241560, 0.1388340443, 0.1042725146, -0.0703396127, -0.0534560345, -0.0011117923, 0.0757549629, 0.1133227497, 0.1400961727, 0.2791541815, 0.1641060114, 0.0174003839, -0.0340353213, 0.1393333077, -0.1614508778, -0.1050266102, 0.1115088016, 0.0583310463, -0.2353115380, -0.0196717717, 0.4002825320, 0.1696055532, -0.0803493410, -0.0542377457, -0.0293930676, -0.0332198478, -0.2420794219, 0.0419149324, -0.0875546783, -0.0223377254, -0.2702983618, -0.3269031048, -0.1312062591, 0.0898214802, 0.0184209794, -0.0023541958, -0.0007565710, 0.1430596560, -0.0302904453, -0.1133277416, -0.0129527459, -0.0362779237, -0.0036587564, -0.1567516029, -0.1691693813, 0.0217327718, -0.2045062929, -0.2004311532, 0.2572273910, 0.1762434542, -0.1918885708, -0.0225938223, -0.1620472074, -0.0735505819, 0.2747414410, 0.0672070980, 0.0527295955, 0.1223632097, -0.0116308546, 0.0659882948, -0.0159131717, 0.2839702666, 0.0828507990, -0.1290478855, 0.1163914725, -0.0496596359, 0.0997843295, 0.3036897779, 0.1414064169, -0.1102587208, 0.1460213959, 0.1155483052, 0.0074287206, 0.0355397090, 0.0181066822, 0.0133210942, 0.3754719794, -0.0187442787, 0.1009840071, -0.0569329187, 0.0729866475, 0.1192132160, -0.1757010370, -0.0039671147, 0.1815341115, -0.2214672118, -0.1521389186, -0.0451912247, 0.2216076106, -0.0672898367, -0.4324284792, 0.2342348397, -0.4370833337, 0.1223755032, -0.0879046023, -0.2472741604, 0.0819840729, -0.2072730958, 0.2710590363, 0.3866766691, -0.0044521936, 0.1403893828, -0.1912122965, 0.0387080945, -0.0486353748, -0.1224178821, 0.0645615160, 0.0045934953, -0.1146042496, 0.0304055288, 0.3644302785, -0.0203999951, 0.1567043662, -0.0500608198, 0.1884721965, 0.0284814443, 0.0935617164, -0.1295813471, -0.0904967487, -0.0229468159, 0.1026340276, 0.0250113979, -0.0201125760, 0.0462418646, -0.0616509728, -0.2208910286, 0.0803008601, -0.1823703647, -0.0583654679, -0.1133995950, -0.0350545011, -0.2267342061, -0.0654735565, -0.0432476029, 0.1822555363, 0.0320999436, 0.0513767898, -0.3183870316, -0.0067307232, 0.0860591307, 0.1209897250, 0.0233698580, 0.1358710527, 0.0588729754, -0.1041145697, -0.0807872787, -0.0690601543, 0.0264301132, 0.1202561706, -0.1827632189, -0.0117207933, 0.0056693037, 0.0270558000, 0.1329266727, -0.0183167867, -0.0790025890, -0.0801983848, 0.1162311211, 0.0912894979, -0.2896027863, 0.0203019548, 0.1468282938, 0.1034070253, -0.0476733670, 0.2503139675, -0.0569005348, 0.2618096173, -0.0623659454, -0.0059775654, -0.2107002735, 0.2057073712, 0.0739758909, 0.0585184619, -0.2971200049, 0.1200400814, -0.1679840386, 0.0334596522, 0.1843140274, 0.0843042433, -0.0602923483, -0.0946057066, 0.0859003440, -0.0367857255, -0.1878780723, -0.1793867052, 0.0702278838, -0.1101456657, -0.0732438192, 0.0298839379, 0.0976009592, -0.1393361688, -0.0832489878, 0.0979548097, -0.1195703372, 0.0135482680, 0.2506684959, -0.0137277711, -0.1933646947, -0.0593712889, 0.1066184491, 0.1215202808, 0.0168890152, -0.3140224218, 0.0505828857, -0.0080388980, -0.1554603130, -0.1587019414, 0.0633276254, -0.0734222829, -0.0875830129, 0.1529416442, 0.0491865166, 0.0295912642, -0.0288944636, -0.2965097129, 0.1143512875, 0.1864266843, 0.1596399248, -0.4877866805, 0.0521714017, 0.1989210546, -0.0933890417, -0.2208013535, -0.0958852395, 0.1436917931, -0.1768862158, 0.2492943257, 0.2290676534, -0.2240214944, -0.0788928941, 0.1363328695, -0.1700230390, 0.0044365767, -0.3181926310, 0.1116780564, 0.0238157026, -0.0344075635, -0.0861544609, 0.3686702847, -0.1041514799, -0.0406622663, -0.0801556483, 0.1253972054, 0.0826835781, 0.0384568274, 0.0483537763, -0.0248930231, 0.1851854622, 0.1108806282, 0.2243044078, -0.4273282290, 0.0820794553, -0.0248814896, 0.2032582164, 0.0880393535, -0.2995226681, 0.0750700533, 0.0478171296, 0.0999612138, 0.0814659894, -0.1768636853, 0.1025767997, 0.1010529250, 0.3034120798, -0.0902050957, 0.0144148301, 0.0322473757, 0.0874255747, 0.1582042128, -0.1684997976, 0.1034335569, -0.4359088540, 0.0364291444, 0.2083693594, -0.0139042111, -0.0247219354, -0.0035617722, 0.0546158254, -0.0073600612, 0.0747182295, 0.1167577282, -0.1149253845, -0.2875780761, 0.0430327766, 0.0810326263, 0.0424442999, -0.0519211553, -0.1337991804, 0.1176467463, -0.2588999867, 0.0011842859, 0.4100161195, 0.0522641614, 0.1159107387, 0.1673319191, -0.1337215602, -0.0952816233, 0.2021715790, 0.0529563315, -0.0030359987, 0.0369152799, 0.2219633460, -0.1004964039, 0.0829929635, 0.0753177106, 0.0345820338, -0.0217510145, 0.0210296512, -0.1241640896, -0.0575627834, 0.0563501604, -0.0383324698, -0.0873507112, 0.0439071506, -0.3569375873, -0.0049216882, 0.1281770617, -0.1752516925, -0.0042826030, -0.1875622422, 0.0260622539, -0.0900547653, 0.1727577150, 0.0925756022, -0.0164188966, 0.1347792149, 0.1645237505, -0.0193573050, -0.0442673191, -0.3209038973, -0.0886012614, 0.0157306176, 0.1752269119, -0.0167493224, 0.2727247775, 0.1499288380, -0.1679090858, -0.0834256634, 0.0321823768, 0.0035105173, -0.1299071908, -0.0770673677, 0.0189947616, 0.1603462249, -0.0508890487, -0.0045096707, -0.0595517419, -0.0573373288, -0.0053370115, -0.1082579717, 0.2028332800, -0.1904826015, -0.0060355584, 0.1349350512, -0.2056142688, -0.0828064457, -0.2131800205, 0.1740579605, 0.0912650004, -0.4573703706, 0.1654376537, 0.1847241819, 0.2434982508, -0.0268959012, 0.0907962248, 0.0417317562, -0.0825785026, 0.0129076932, 0.0467441306, 0.0990442261, 0.1372641325, 0.0963697284, -0.0259565301, 0.0114440965, -0.1223835275, -0.1452020407, 0.1879357994, 0.1182586327, -0.0047444059, 0.0649818480, -0.1450064480, -0.0143612856, -0.0821251348, -0.1998956501, 0.1947724670, -0.1071869805, 0.2517543435, 0.0640849695, -0.0870064571, 0.0708055794, -0.0494316705, 0.1004865170, 0.1104106605, 0.1761060953, 0.0931067914, 0.1266395152, 0.0496897623, -0.3069991469, -0.0208111480, -0.0957988948, -0.0210401062, -0.0807687715, -0.0488011837, -0.0331035554, -0.2687913775, -0.0078860549, -0.4488964975, 0.0727410242, 0.1229222342, 0.1384079754, -0.3078800440, 0.0751506239, 0.2166670263, -0.0575720966, 0.1427689940, -0.1627949625, 0.0707659796, 0.0811240673, 0.1121032014, -0.0349937752, -0.1012483239, 0.3183477819, 0.0563489199, -0.2020715773, -0.0037489345, 0.0254460312, 0.1691211462, -0.0530949719, 0.2450178713, -0.0459012240, -0.4081496596, -0.0745414272, -0.1513335407, 0.0963734239, -0.0276552364, -0.0457273386, 0.1318614036, -0.0618030652, -0.0601198152, 0.0933177918, -0.0077297543, -0.0414051563, -0.3915623128, -0.0532768741, 0.1228162944, -0.1346836537, -0.0100803562, -0.3324511051, -0.1657313704, 0.2053659707, 0.1286305487, -0.0949537829, -0.0508092307, 0.1957646459, -0.1219703108, -0.0496216491, -0.0677760243, 0.2045869976, 0.0379587151, 0.1962358654, -0.0859983563, -0.1805011779, -0.1093738377, -0.0194328316, -0.0715923160, -0.1490338445, 0.1141868755, 0.0780043453, -0.0612873025, -0.1698394865, -0.0644783005, -0.0795895979, 0.1869017184, 0.1827267855, -0.0174244754, -0.0292919800, 0.2418225110, -0.0835873559, 0.0083336299, -0.3399868309, 0.1260899007, 0.1185369566, -0.0570992455, 0.0442160182, 0.0657667667, 0.1645585895, 0.1771285236, -0.0180296879, 0.2194181532, 0.2403212786, 0.0933660194, 0.1456528157, 0.0253588930, 0.2633934021, 0.0834578946, 0.1793854982, -0.0061718603, -0.0088748056, 0.0654604360, -0.0319744945, 0.0921944007, -0.1207055151, -0.1654465050, -0.0106639965, -0.0505003035, -0.0112215327, -0.1166664734, 0.0037236558, -0.2821694016, 0.1503465325, -0.0737511441, -0.2728989720, -0.0032754170, -0.0404134057, -0.1257659495, 0.3143280745, -0.2153566033, 0.0361487530, 0.3186837137, 0.2737670243, -0.0466985293, 0.2243107855, -0.0205314811, -0.0680815727, 0.1440614760, -0.1679344624, 0.0685405210, 0.0931388959, 0.0725402907, -0.1793448031, -0.3361789286, 0.0529615246, 0.1345655918, -0.2519677579, -0.4133902788, -0.1235963628, 0.2098910958, -0.0605006367, -0.1593103409, -0.0425827838, -0.2324220538, 0.0752596855, 0.1262121946, -0.3113170564, -0.0724806115, 0.2190150619, 0.0721141621, -0.0885423422, 0.2025264353, 0.1520594209, 0.1202745140, -0.0616170280, -0.0359475911, 0.2776590288, 0.0895439237, 0.0732721612, -0.1562240571, -0.1830986142, -0.1693547368, -0.3004185855, -0.1102486327, 0.0689461753, 0.0719617084, 0.0384210385, 0.0683433041, 0.0753973648, 0.1097615585, 0.1267683953, -0.1521202922, 0.1035229117, -0.0480755791, -0.0542200506, -0.0307982285, 0.0839963034, -0.0153891509, 0.0028346486, 0.0349341519, 0.0264843665, 0.0640752092, 0.2714072764, 0.0994368941, -0.1470134705, 0.2236401141, -0.1927854270, -0.0392396078, 0.0591116473, 0.0132888192, 0.0050859652, 0.0279348772, -0.1448577940, 0.0198710486, -0.0712967515, -0.0266822707, 0.0117316796, -0.0759265721, 0.0465004742, -0.0056519983, -0.1272140294, -0.1934843361, 0.0159061737, -0.0405330211, 0.0343876705, 0.1093408242, -0.0150887650, 0.0249115955, -0.0252397768, 0.0553921424, 0.0349464417, 0.1108876094, -0.0263158567, 0.1798585504, 0.0189753845, -0.1802937984, 0.0920782387, -0.0840354711, -0.0658394173, 0.0723624378, -0.0429110862, 0.0925111324, 0.0276929960, -0.0706398413, -0.1425575763, 0.0536064208, 0.1047981977, -0.0394229256, 0.1461404860, 0.3155943155, -0.0310205445, 0.0315986536, 0.1275517046, 0.1531508416, -0.0572639219, -0.1641204655, -0.0094786994, 0.0514765270, -0.0040642684, 0.1100321710, 0.1421973109, -0.0482846573, -0.1608682722, 0.1702868640, -0.1173446700, -0.1815935671, 0.2603015006, -0.1628683060, -0.0953705981, 0.0973381773, -0.0345354639, -0.0800742283, -0.1259597093, -0.0986522883, 0.0395427458, 0.1846653819, -0.0195647459, 0.2094823271, -0.3652801216, 0.1520897746, -0.0381181091, -0.0351677947, -0.0474806726, 0.1635190547, 0.0050476012, 0.2057864368, -0.0617106482, 0.0131123811, 0.0816228688, -0.5279391408, 0.0865234137, -0.1109582409, 0.1081160828, -0.0210082419, -0.2315121889, -0.0375606120, 0.1634062380, -0.0551866032, 0.2286722809, 0.0750124976, 0.0226116665, 0.0851791054, 0.2272062451, 0.1462477744, 0.0319199301, -0.3342936933, -0.0755185485, 0.0843542889, -0.3120291531, 0.0198775921, -0.3449675143, -0.1134192050, 0.1458493322, -0.0033975316, 0.0027948194, -0.0892732888, 0.3828960657, -0.0584477000, -0.1436065286, -0.1690465510, 0.2258570194, -0.3115813732, -0.1085662991, 0.0802390128, 0.1055297554, 0.1278744340, 0.0511669405, 0.0219455641, 0.0105553940, -0.0313441716, 0.0957375988, 0.0523198359, -0.2114678621, 0.0713751465, -0.1025286242, 0.0877286792, -0.1282921135, -0.6043880582, -0.0480448231, -0.0531882532, 0.1101112515, -0.1102236882, 0.0318122879, 0.0036750049, -0.1069000289, 0.0838034377, 0.0045511220, 0.0557980090, -0.1254620254, -0.4011783004, 0.0511273518, -0.0073951706, 0.1141789332, 0.0828308240, -0.1562417001, -0.0001337489, -0.2036587596, 0.1426637918, 0.0385252573, -0.0506530181, -0.0459013917, 0.1016066223, 0.1921239942, 0.0924839526, -0.1745772511, -0.0648000687, -0.0833476409, -0.0643109009, -0.0470028520, -0.3580060005, -0.0658443347, -0.0058751395, 0.1685101092, 0.1437909901, 0.0809727907, -0.0931503698, 0.0544782095, 0.3414159417, 0.0007259332, 0.1231684387, -0.0386095308, -0.0066530551, -0.2546208203, -0.1061661988, -0.0872406662, 0.2619148195, 0.1970456392, -0.0245300345, 0.1217933372, -0.0201914050, -0.1772178560, 0.0890546218, -0.1120085865, -0.1236816347, 0.1993362606, 0.0495251641, 0.0511067733, -0.0146902418, 0.0528720506, 0.0024781912, 0.0445675626, -0.0269447900, -0.0057334579, 0.1100162864, -0.0763509572, -0.0039604562, -0.8646223545, 0.1779294461, 0.0116651431, -0.1706127971, 0.0094100377, 0.0669086725, 0.0640450940, 0.1011266336, -0.2225546837, -0.3241585195, 0.0452560633, -0.2600245178, -0.1260477006, 0.0539536327, -0.0669647157, -0.0561586693, -0.0407858491, 0.0246135835, 0.1441394389, 0.0920093209, 0.1120772138, -0.0334651098, -0.2976167798, -0.1053405106, -0.0589793548, 0.0439759865, -0.0222685989, 0.1432349533, 0.1150318906, -0.2140717804, 0.0462087765, -0.0780934840, 0.0587093420, -0.1484773755, -0.1296466440, 0.0706247687, 0.0183571875, 0.0525138453, -0.1086046696, 0.0453092046, -0.0622224994, -0.0149631351, -0.3296768963, 0.1363998055, -0.0446829870, 0.0336192399, 0.1201364398, 0.1392071992, -0.1477141529, 0.0596605130, -0.1063696742, -0.0666244924, 0.1785240918, 0.1169768125, 0.0119769992, -0.2060505003, -0.3245736659, 0.0302607100, -0.2817575932, 0.2398315519, 0.0715882853, 0.0197893810, 0.1457883418, -0.0282379650, -0.0890540630, -0.0709595978, 0.2337229699, 0.1966236234, 0.0089325514, 0.0477934480, -0.0058874483, -0.0467063487, 0.0159513038, 0.3038770556, 0.1243858188, -0.4844142795, 0.1398918033, 0.0018669583, 0.0653861463, 0.0385010317, 0.1311642230, 0.0443816148, -0.0558410920, -0.4089431167, 0.2130871117, -0.2900414169, 0.1461690813, 0.1161354557, 0.1171536520, -0.0519765727, 0.0113180242, -0.0311781038, 0.0330339558, 0.2256444693, 0.0921468660, -0.1164284274, -0.1921045184, -0.0839315727, 0.1051025242, -0.4099908471, -0.0036033455, 0.0116160009, -0.2630000710, 0.2156095952, 0.0786817223, -0.4940331578, -0.2723835409, -0.3862718642, -0.0702844337, -0.1785423905, 0.0623347908, 0.0068836282, 0.0287320670, -0.0796354115, -0.2828089297, 0.1016628742, 0.2382121533, 0.0497039743, -0.2962531745, 0.1242838502, -0.0946651474, -0.0475965366, -0.0014386968, -0.3351632059, 0.0130090220, -0.0833478570, -0.1097090766, -0.0608428866, -0.1734501123, 0.0332562551, 0.1171443388, 0.1941243410, -0.0298703033, -0.0569663309, -0.1779026687, -0.1652965248, 0.1921319366, -0.0433149785, 0.1435439438, 0.0995226353, -0.0198156741, -0.1691963524, 0.0136491638, 0.0504122414, 0.0292221475, 0.0366516076, 0.0778364837, 0.0677202716, 0.2514445484, 0.1644556671, -0.1499928385, 0.2161017954, -0.1015873328, -0.0478503667, -0.0621097796, 0.1766495407, -0.0082847988, 0.1222871318, 0.0498775318, -0.0627732649, -0.3636241555, 0.0663378164, 0.0005089818, -0.1606696695, 0.0328468829, 0.1099556237, 0.0441507176, 0.1123318076, -0.0297545008, -0.1844957024, 0.0430317596, 0.0556510314, -0.0715328380, -0.1881893128, 0.2089608610, -0.0112708192, -0.1506858468, 0.0638291314, -0.0912218168, -0.0941233411, 0.2000418901, 0.2349631637, 0.2229279429, 0.1673466861, 0.1498274207, 0.2074654400, 0.2272478789, -0.0107384361, -0.0273212157, -0.1469675750, -0.0645652488, 0.0320704803, 0.0027527502, -0.0584387705, -0.1708709896, 0.1292226464, 0.0004849315, -0.2496650368, -0.2973444164, 0.0312586315, 0.0241920315, 0.0030854447, 0.0401344895, -0.3950752616, -0.0771391466, 0.0712701455, 0.0430708192, -0.0274695214, -0.0600719452, -0.0247371644, -0.0829194933, -0.1170577928, 0.2760232985, 0.0918290392, -0.0751477703, 0.3480378687, 0.1656430811, -0.0015250151, 0.1585383266, -0.2125363350, -0.0751056820, 0.2348504066, -0.1237397492, 0.0969433114, -0.3249804974, 0.2250697315, 0.0079662949, -0.1616564542, -0.0188835897, -0.0479076020, 0.1471368968, 0.0121959848, 0.1364082992, -0.1638926119, -0.0353894383, 0.0451842993, 0.1416997313, -0.0601549931, -0.1520717293, 0.0703148544, -0.0647237003, -0.0207928773, 0.0844372660, -0.1990045011, -0.0298460480, 0.1689801216, 0.0606614314, 0.1156647727, -0.0000746766, -0.1150484681, -0.1121196374, 0.0519654453, 0.0487305671, -0.0920626596, 0.1653119475, -0.0913331509, 0.0525123514, 0.0468938276, 0.0535788164, -0.4248999357, -0.0124973468, -0.0807636231, 0.0370367095, -0.4392793775, -0.0628049746, -0.2350388765, -0.0692831278, 0.1321280599, -0.0195334088, 0.0952567309, 0.2578881681, -0.0025285946, -0.1960503459, 0.1929575354, 0.0498088636, 0.1536317319, 0.3126814365, 0.0199144743, 0.0328577459, 0.0608452633, 0.0216369033, -0.0086053554, 0.0447097905, 0.0221566614, 0.0736809447, 0.2671593130, -0.2077775151, -0.3094550967, -0.0647256076, 0.1383221000, 0.0702114329, -0.2931887507, -0.0072319247, 0.0489887930, 0.2276436985, 0.0174866170, -0.0186092649, 0.2034865022, -0.0402426682, -0.4583704174, -0.0857329294, -0.0265090056};

#endif

#endif
